{"architecture":{"input_dim":20,"hidden_dim":64,"hidden_layers":4,"output_dim":4,"activation":"tanh","num_fourier_frequencies":10},"weights":{"layer_0":{"weight":[[-0.07828304171562195,-0.16066299378871918,-0.17221419513225555,-0.0038989412132650614,0.08654969930648804,0.18350018560886383,-0.131428062915802,-0.06712606549263,-1.7310168914264068e-05,-0.054229505360126495,0.16160118579864502,0.3600332736968994,-0.027071747928857803,0.11779804527759552,-0.24444778263568878,0.0609261617064476,0.04385774955153465,0.14604374766349792,0.10273400694131851,-0.3405415117740631],[0.030760983005166054,-0.010588767006993294,-0.13885413110256195,-0.012790334410965443,0.03376500681042671,0.07884542644023895,0.20427578687667847,-0.2733027935028076,0.013614227063953876,-0.026850009337067604,0.07204259932041168,0.1604163646697998,-0.2613150179386139,0.23602989315986633,0.08062761276960373,-0.04297375679016113,-0.11950237303972244,-0.04601921886205673,-0.052952840924263,0.03569473326206207],[-0.33847370743751526,0.14674288034439087,-0.027105320245027542,0.04401151090860367,-0.14218227565288544,-0.11878227442502975,-0.012402273714542389,-0.07774484157562256,-0.06417504698038101,0.005268543493002653,-0.15737071633338928,0.11200334876775742,0.27007314562797546,-0.029550543054938316,-0.22158710658550262,-0.0828249379992485,-0.29333803057670593,-0.09824226796627045,0.17954793572425842,-0.00987721886485815],[0.35967710614204407,-0.15923671424388885,0.15860384702682495,0.1255376935005188,-0.13480232656002045,-0.11310558021068573,-0.14817358553409576,0.18278822302818298,-0.1839737743139267,-0.032433170825242996,0.14251132309436798,-0.03796667233109474,0.14079736173152924,0.053391776978969574,-0.08427993953227997,0.1833133101463318,-0.12894855439662933,-0.1338701695203781,-0.10820456594228745,-0.07641155272722244],[-0.1844376176595688,-0.232431560754776,0.1609417200088501,0.005364432465285063,-0.10426705330610275,0.10421539098024368,-0.028626078739762306,0.19940033555030823,0.1579359918832779,-0.05662813037633896,-0.0076202708296477795,-0.12975502014160156,-0.10661939531564713,0.12987810373306274,-0.2930348813533783,0.04431423172354698,-0.1758013516664505,0.19294367730617523,0.03592774644494057,0.10652660578489304],[0.0781545415520668,-0.1468501091003418,-0.0010704004671424627,-0.10644831508398056,-0.3102322518825531,-0.19083166122436523,0.19815625250339508,0.06793437153100967,0.07241240888834,0.12590743601322174,0.1847085803747177,-0.2526199519634247,-0.039688412100076675,-0.08491916954517365,0.21381470561027527,0.07278306782245636,-0.151627779006958,0.03459549322724342,0.18760572373867035,0.06529869139194489],[-0.19848261773586273,0.1890731155872345,-0.2763565480709076,0.1669275313615799,-0.1025744378566742,-0.10402395576238632,-0.25014927983283997,0.0690932497382164,0.14351879060268402,-0.07342905551195145,0.2635147273540497,0.24772024154663086,-0.0036059864796698093,0.1798575073480606,-0.026235230267047882,-0.0027546987403184175,0.042681094259023666,0.33111393451690674,0.16931034624576569,-0.04929971322417259],[-0.07373449951410294,0.06420747935771942,0.07290596514940262,-0.019192205742001534,-0.1091940701007843,-0.12698833644390106,-0.02977824956178665,-0.09747658669948578,0.0016290750354528427,0.05788711458444595,-0.08224792778491974,-0.017055373638868332,0.0976053923368454,-0.09756303578615189,-0.17821481823921204,0.03302576765418053,-0.08184468001127243,-0.0072651514783501625,0.32158663868904114,0.14600230753421783],[0.0961165502667427,-0.048133816570043564,-0.08581491559743881,-0.053942929953336716,-0.028494160622358322,-0.11109896749258041,0.07329448312520981,0.12382213771343231,-0.11687824875116348,-0.1297990083694458,0.25692054629325867,-0.11461754888296127,0.06616659462451935,-0.047371525317430496,-0.07794136554002762,0.05473991483449936,-0.17630545794963837,-0.12191802263259888,-0.07017376273870468,0.24468165636062622],[0.287518709897995,-0.10231272131204605,0.05536310374736786,0.28844261169433594,0.007673886604607105,0.0545492097735405,-0.0742211788892746,0.046329300850629807,-0.1265692114830017,0.03610376641154289,-0.12262513488531113,0.3733867406845093,-0.12290551513433456,-0.032277148216962814,-0.15874165296554565,-0.01797458529472351,0.11134620755910873,0.18445658683776855,0.018262794241309166,0.032740216702222824],[-0.10973666608333588,0.12461505085229874,-0.2523620128631592,0.09638490527868271,0.10217159986495972,-0.06310311704874039,0.0064171310514211655,0.11564746499061584,0.11054117977619171,-0.05541392043232918,-0.06192413344979286,-0.2136816680431366,0.11247723549604416,0.29597243666648865,0.013123394921422005,0.09040692448616028,0.0312334056943655,0.040695566684007645,-0.030992474406957626,-0.09217435121536255],[0.003955644555389881,0.041016142815351486,-0.059648994356393814,-0.029586240649223328,-0.1063065156340599,-0.13887937366962433,-0.2177618443965912,-0.08176357299089432,0.14135950803756714,0.04183640331029892,-0.3367215394973755,-0.10373654961585999,0.12004709243774414,0.05637773126363754,-0.09511600434780121,-0.05209340527653694,0.14176009595394135,0.13460537791252136,-0.06239361688494682,-0.03255447745323181],[-0.29781925678253174,0.17182055115699768,-0.19800683856010437,-0.07435475289821625,0.053352054208517075,0.00972057692706585,-0.013163606636226177,-0.06222384423017502,-0.18806645274162292,-0.03950750455260277,0.15799573063850403,0.07284782081842422,0.07819324731826782,-0.05411941185593605,0.07439630478620529,0.11503873765468597,-0.0613492950797081,0.0031251017935574055,0.030228780582547188,-0.038145896047353745],[0.01748487539589405,-0.13680902123451233,0.0063254269771277905,0.07746164500713348,0.11579669266939163,-0.11359339952468872,0.2486923485994339,0.05445243790745735,0.011198386549949646,0.05760611221194267,-0.026469899341464043,0.23737242817878723,-0.2473512887954712,-0.06698812544345856,-0.23172590136528015,0.22920553386211395,0.014357995241880417,-0.005123922135680914,-0.019849393516778946,-0.048776306211948395],[-0.06333091855049133,0.08891064673662186,-0.1672811657190323,-0.012894752435386181,-0.20712025463581085,-0.036488596349954605,-0.05256783217191696,0.30433815717697144,0.15686625242233276,0.1885690540075302,0.08510009199380875,0.048747047781944275,0.11330778896808624,0.16596223413944244,-0.02433709055185318,0.12466157972812653,0.13575202226638794,-0.2473214566707611,0.012661692686378956,0.1854822188615799],[-0.14997467398643494,0.04100929945707321,-0.1575840562582016,-0.0504002571105957,0.33478760719299316,0.2104974389076233,-0.2723632752895355,0.0500560887157917,-0.02814715914428234,-0.01969677396118641,0.03337668254971504,-0.05778990313410759,-0.09531759470701218,-0.03185203671455383,-0.1666715443134308,-0.06029877811670303,-0.059026774019002914,-0.11904340237379074,-0.04795309156179428,-0.1513930857181549],[-0.15468786656856537,0.13935056328773499,0.14675487577915192,0.14305032789707184,0.1459941565990448,0.09130631387233734,0.004608386196196079,-0.052514366805553436,-0.035323839634656906,0.057161953300237656,0.2811708450317383,0.057188645005226135,-0.05063411593437195,0.14268344640731812,-0.05677314102649689,-0.030776824802160263,0.39266830682754517,0.11428238451480865,0.17989948391914368,0.01727701723575592],[-0.10581070929765701,0.0781613290309906,-0.0618230439722538,-0.25828394293785095,-0.10938427597284317,0.08607960492372513,0.1822275072336197,-0.054129913449287415,-0.23126521706581116,-0.05574992671608925,-0.13015680015087128,-0.17194896936416626,-0.07536021620035172,-0.06641225516796112,-0.0787283256649971,0.09948041290044785,0.22629414498806,-0.08517429232597351,-0.08320511877536774,-0.13118165731430054],[0.014479527249932289,0.08289434015750885,-0.07661157101392746,0.19433918595314026,0.05411234870553017,-0.10062125325202942,-0.048374369740486145,-0.1839526742696762,0.20369400084018707,-0.03907640650868416,0.009875889867544174,-0.09426050633192062,0.16969086229801178,0.10718820244073868,0.21614916622638702,0.13034427165985107,0.01281519141048193,0.11122867465019226,-0.3211989998817444,-0.11245663464069366],[0.3284705877304077,-0.04279150813817978,0.22646096348762512,0.23444673418998718,-0.26657533645629883,0.18450453877449036,0.02443654090166092,-0.21916057169437408,-0.08842887729406357,0.19523097574710846,0.020063718780875206,-0.14825141429901123,0.2130652815103531,0.03163149952888489,-0.14759109914302826,-0.1531122773885727,0.08358360826969147,0.12369441986083984,0.186828151345253,-0.010623450390994549],[0.05461101233959198,0.10139325261116028,0.3186427652835846,0.03410927578806877,0.14956903457641602,0.0637260377407074,0.13957944512367249,-0.04405270144343376,-0.05660358443856239,0.13919338583946228,0.052981000393629074,-0.25047117471694946,0.0818304792046547,-0.12862062454223633,0.05314069986343384,0.0876854807138443,0.3129969537258148,0.2716646194458008,-0.01372081134468317,-0.17536906898021698],[-0.33502548933029175,-0.05792888253927231,0.27928364276885986,-0.05884058400988579,0.11735560745000839,0.2335212528705597,0.01839093677699566,0.08596097677946091,-0.18171988427639008,-0.02669140137732029,-0.27751830220222473,0.07567033916711807,0.12981517612934113,0.12978175282478333,-0.14281055331230164,-0.06477069109678268,0.08726383745670319,-0.1534673571586609,0.1619793027639389,0.11047890782356262],[-0.022677559405565262,-0.15956711769104004,-0.10672102123498917,0.06559247523546219,-0.04679939150810242,-0.016542918980121613,0.35434937477111816,-0.010271909646689892,-0.19100181758403778,-0.07755183428525925,0.04992573708295822,-0.030459381639957428,-0.02328154817223549,-0.18558183312416077,0.059513822197914124,-0.15190866589546204,-0.014260970056056976,-0.2194608896970749,0.15783390402793884,0.05637132376432419],[-0.2546026110649109,0.024640878662467003,0.06908837705850601,-0.09533084183931351,0.16645406186580658,-0.1351374089717865,-0.15333494544029236,0.04800737276673317,-0.09267128258943558,-0.09687333554029465,-0.04275176301598549,-0.0845567137002945,0.03157949447631836,0.15223336219787598,-0.07560564577579498,-0.04993794485926628,0.3447491526603699,-0.03166002780199051,0.0308676864951849,-0.25650784373283386],[-0.3092556297779083,0.21552053093910217,-0.07958877086639404,-0.1585845649242401,0.03411068022251129,-0.1723719984292984,0.36972931027412415,-0.036402925848960876,0.07400902360677719,0.026315750554203987,-0.01815471053123474,-0.04098452627658844,0.24188147485256195,-0.1728074550628662,0.07380815595388412,0.22396932542324066,-0.06331615895032883,-0.04997678101062775,-0.19321933388710022,-0.13975174725055695],[0.3265095353126526,-0.12924520671367645,-0.0030192353297024965,0.07784491032361984,-0.00819467380642891,-0.1433703899383545,-0.07630372792482376,-0.0690583661198616,-0.04735356196761131,0.04265153408050537,0.12866036593914032,0.20120477676391602,0.22990378737449646,0.0776558592915535,0.06527197360992432,0.12582767009735107,-0.05839759111404419,-0.10645918548107147,-0.03658929839730263,-0.23079270124435425],[-0.2355344146490097,-0.14072628319263458,-0.19413425028324127,0.13575203716754913,0.0846724882721901,0.0822516679763794,-0.0983484759926796,-0.10177776217460632,0.01326145138591528,-0.11992839723825455,-0.1253494918346405,0.14139053225517273,-0.07204336673021317,-0.3346949517726898,-0.1018529161810875,-0.05649655684828758,0.030280228704214096,0.35789215564727783,-0.13361521065235138,0.1339898407459259],[-0.05530242249369621,0.010362634435296059,-0.13767322897911072,-0.011301188729703426,-0.37523284554481506,-0.08112116158008575,-0.0650654137134552,-0.012758636847138405,0.055875156074762344,-8.335446182172745e-05,-0.10630922019481659,-0.11384332180023193,-0.14362111687660217,0.05526729300618172,0.3133605718612671,-0.007678351365029812,0.16396915912628174,-0.06777631491422653,0.2287912666797638,-0.017714766785502434],[0.033843498677015305,0.06001148000359535,0.2881213426589966,-0.14930082857608795,0.21916510164737701,-0.11497002840042114,0.011323620565235615,-0.27075275778770447,-0.0863451212644577,-0.1255655139684677,-0.07218580693006516,0.18217836320400238,0.11682402342557907,0.17293936014175415,-0.04973669350147247,-0.04370340704917908,-0.07606874406337738,-0.08237989991903305,0.20189471542835236,-0.03221391513943672],[0.21873924136161804,-0.08293645083904266,0.004217927344143391,0.0685744360089302,0.012083560228347778,-0.09062819927930832,0.02413632534444332,-0.0187174454331398,-0.1935928463935852,-0.20703710615634918,0.0938943475484848,-0.2512292265892029,-0.010146484710276127,-0.2512396574020386,0.01944277621805668,-0.2894690930843353,0.03974597156047821,0.05931460112333298,-0.02017316408455372,-0.0002691449481062591],[0.4625563621520996,0.02154645137488842,0.02097160555422306,-0.045315932482481,-0.018195215612649918,0.09144528955221176,-0.06273704767227173,0.014605216681957245,-0.11496448516845703,0.049717847257852554,0.02538543939590454,0.044106293469667435,-0.06456531584262848,-0.14142437279224396,-0.020211566239595413,0.020809069275856018,0.2071095108985901,-0.11544421315193176,-0.03619600087404251,0.1821708381175995],[0.2068292498588562,-0.005739154294133186,-0.1523555964231491,0.10023194551467896,0.04164576902985573,0.06551988422870636,0.01562911830842495,0.025999754667282104,-0.06712335348129272,-0.03189012035727501,0.09014002233743668,0.11430884152650833,0.34178170561790466,0.16486841440200806,0.18777523934841156,-0.06551895290613174,-0.12770093977451324,-0.10012175887823105,0.11890975385904312,0.0436052531003952],[0.1174047589302063,0.16164353489875793,-0.0963703915476799,-0.22748582065105438,-0.2781520485877991,-0.24229209125041962,-0.23737797141075134,0.11530184745788574,0.019619539380073547,0.006833121180534363,0.016377383843064308,0.0031199418008327484,0.09084991365671158,-0.019709264859557152,-0.2553267776966095,-0.007456867024302483,0.04595567658543587,-0.13639886677265167,-0.02236887253820896,0.1683599352836609],[0.18330922722816467,0.014656581915915012,0.06840755045413971,-0.09991002082824707,-0.11275945603847504,0.22655485570430756,0.13992036879062653,-0.10267066955566406,-0.009074305184185505,-0.0682053416967392,-0.0002118522534146905,0.15495091676712036,0.08325536549091339,-0.15456105768680573,0.2192314863204956,-0.13839426636695862,0.02525205910205841,-0.29419583082199097,0.019136110320687294,-0.1816083937883377],[-0.1181393414735794,-0.04156975448131561,-0.01278020441532135,-0.3403087258338928,0.03125222399830818,-0.3086039423942566,-0.0788927897810936,0.17275317013263702,0.025455301627516747,0.08062447607517242,0.07703620195388794,-0.06351536512374878,-0.19836600124835968,-0.041144780814647675,-0.1285238116979599,-0.08557116240262985,-0.2552002966403961,-0.03310764953494072,0.21929268538951874,-0.020444517955183983],[-0.39828547835350037,-0.09056296199560165,-0.1215318962931633,-0.11000490188598633,0.09569315612316132,0.1839437186717987,0.10083337128162384,-0.12694884836673737,0.06834830343723297,0.08726099878549576,0.11328569054603577,-0.0060631888918578625,-0.003837293479591608,0.22110901772975922,0.211309552192688,-0.06977453082799911,0.01695788837969303,0.0910911038517952,-0.10158296674489975,-0.04419046267867088],[0.4052309989929199,0.121298648416996,-0.0001014768859022297,0.19339321553707123,0.2010514885187149,-0.07635064423084259,0.022525537759065628,0.005477585829794407,0.012054693885147572,0.003711633151397109,0.30563315749168396,-0.04296445474028587,0.19634303450584412,0.242035374045372,-0.09731518477201462,-0.05127944424748421,0.2058454006910324,0.10081422328948975,0.001160290790721774,-0.2805413603782654],[-0.23630395531654358,-0.11631308495998383,0.017573250457644463,-0.017724275588989258,0.010646350681781769,-0.1890219897031784,-0.15577879548072815,-0.07244853675365448,-0.04966131970286369,0.11930767446756363,-0.11392883211374283,-0.0753556340932846,-0.20607192814350128,0.041189100593328476,-0.018659163266420364,0.10017213970422745,-0.009606454521417618,0.14510096609592438,-0.05484422668814659,-0.081380695104599],[0.2974313795566559,0.32790249586105347,-0.14779330790042877,-0.08149044215679169,0.06064463406801224,0.06978113204240799,0.04564199224114418,-0.22627626359462738,0.11815962940454483,-0.06810574978590012,0.07433601468801498,-0.27521994709968567,-0.03143177181482315,0.1643751859664917,0.11942285299301147,0.017938608303666115,0.06276649236679077,-0.16047857701778412,-0.004506807774305344,0.023405788466334343],[-0.06805920600891113,-0.02118978090584278,0.28801098465919495,0.12868434190750122,0.024553313851356506,-0.03905807435512543,-0.09656944870948792,0.11228880286216736,-0.07987457513809204,-0.03982460871338844,0.15833760797977448,0.084353007376194,0.04851476475596428,0.06427785009145737,-0.020456654950976372,-0.030909348279237747,0.054288920015096664,-0.017514195293188095,0.10187216103076935,0.16570661962032318],[-0.1298496425151825,-0.12219652533531189,-0.05867293104529381,0.16330350935459137,0.04015646129846573,0.11264223605394363,0.025054579600691795,0.13037817180156708,-0.06229640170931816,-0.13421110808849335,-0.2596184015274048,-0.045685067772865295,0.18284198641777039,0.040975719690322876,-0.04561132937669754,0.10180898010730743,0.14932411909103394,-0.16726204752922058,-0.0056401691399514675,0.20531600713729858],[-0.10468423366546631,-0.04558265581727028,0.023418838158249855,0.1856834441423416,-0.0548732616007328,-0.03601471334695816,0.07419077306985855,0.06396511942148209,0.018827570602297783,-0.013282831758260727,0.33320409059524536,0.04014215245842934,0.16903150081634521,0.14801102876663208,-0.08804918825626373,-0.026092343032360077,0.006875841878354549,-0.00907175987958908,0.025300180539488792,-0.21155276894569397],[0.07450465857982635,0.057969797402620316,0.21188800036907196,-0.21115818619728088,-0.02873370237648487,-0.19809244573116302,0.1349722146987915,-0.06490752100944519,-0.03449476137757301,-0.11423259973526001,-0.02139163762331009,0.37129536271095276,0.12675267457962036,0.15745212137699127,0.2754715383052826,-0.06948128342628479,-0.1536392867565155,-0.1945682018995285,-0.06746435910463333,-0.028785811737179756],[-0.2838461399078369,-0.06018950045108795,0.07929588854312897,0.030549563467502594,0.14299029111862183,-0.09941130131483078,-0.09786569327116013,0.021350761875510216,-0.00016608148871455342,-0.13504847884178162,0.11336396634578705,0.04942762479186058,-0.01896972768008709,-0.08248591423034668,-0.25229498744010925,0.012853812426328659,0.03211653232574463,-0.01526501402258873,0.017080916091799736,-0.1605292558670044],[-0.12609614431858063,0.05307308956980705,-0.3180871307849884,-0.1345195323228836,0.041482146829366684,0.09479664266109467,0.11109965294599533,-0.17394347488880157,-0.08979233354330063,0.18687158823013306,0.07857629656791687,0.013755829073488712,-0.002385468687862158,0.23803676664829254,0.026952121406793594,0.042549699544906616,-0.11547522246837616,-0.02474386990070343,0.011735580861568451,-0.04641732946038246],[-0.25832366943359375,0.09281403571367264,0.11588738858699799,0.3168315887451172,0.21165506541728973,-0.04615044221282005,0.0864899754524231,0.20212972164154053,0.009262027218937874,0.058296218514442444,0.17238137125968933,-0.10258085280656815,-0.039740946143865585,-0.31981608271598816,0.23701439797878265,-0.16297675669193268,-0.07497896999120712,-0.029238831251859665,0.1879321038722992,0.10718171298503876],[0.21317704021930695,0.19491161406040192,-0.0355885848402977,-0.22469806671142578,-0.10690774768590927,0.16241726279258728,0.22200751304626465,-0.012709100730717182,0.08754876255989075,0.05005505308508873,-0.08026418089866638,0.01982441358268261,-0.13917629420757294,0.24298734962940216,-0.157965287566185,-0.23271387815475464,-0.20423871278762817,0.1227433905005455,0.09041783213615417,-0.06655477732419968],[-0.02810000628232956,0.18854019045829773,-0.22034834325313568,-0.058868393301963806,0.14188559353351593,-0.10491575300693512,0.15992893278598785,0.03486711531877518,0.08920824527740479,-0.3639158010482788,0.23873688280582428,-0.06348925828933716,-0.022044774144887924,0.0682249590754509,-0.4006170332431793,0.09721545875072479,-0.05197986215353012,-0.08979389071464539,0.067686527967453,-0.09657004475593567],[0.11353632062673569,-0.35580772161483765,-0.02457917295396328,0.09827134758234024,-0.015837417915463448,-0.040831308811903,-0.043260496109724045,-0.05405396595597267,0.13423652946949005,0.1325247883796692,0.009901629760861397,0.012043648399412632,-0.023893605917692184,-0.038349349051713943,0.01790621504187584,-0.026999564841389656,0.0998135432600975,0.13858608901500702,-0.18958497047424316,0.003082627896219492],[0.05861123278737068,-0.030449634417891502,0.07087002694606781,0.04590015113353729,-0.2669379711151123,-0.04071292653679848,0.032506950199604034,0.09041591733694077,0.14055684208869934,0.08767706900835037,-0.3911747932434082,-0.03574474900960922,0.009812137112021446,-0.18315351009368896,0.045511644333601,-0.0760679543018341,0.058477435261011124,0.04457535222172737,-0.005008174106478691,-0.24820668995380402],[-0.1602574735879898,-0.10295136272907257,-0.07583601772785187,0.01525299996137619,0.05495939403772354,-0.295617014169693,0.08284109830856323,0.024959003552794456,0.12121372669935226,0.03384590148925781,-0.2314060479402542,0.06857872754335403,0.05933047831058502,0.16781914234161377,0.05822085961699486,0.048477888107299805,-0.0631917268037796,-0.0582880973815918,-0.06694032996892929,-0.02586820349097252],[0.14647060632705688,0.1432475447654724,0.3204514980316162,-0.17595893144607544,-0.19068248569965363,0.10098187625408173,0.03835654631257057,-0.11133764684200287,0.0616091750562191,-0.026552127674221992,0.24641470611095428,-0.0197466854006052,0.1472153216600418,-0.1860976368188858,-0.5613988637924194,0.2803160548210144,-0.2791016101837158,0.045123081654310226,0.008533796295523643,0.10673439502716064],[-0.15234357118606567,0.2347237467765808,0.01685837283730507,0.057112231850624084,-0.18735991418361664,0.036948442459106445,-0.19544045627117157,-0.021270614117383957,-0.12080159783363342,0.00327725475654006,0.007361660711467266,-0.006724873092025518,0.2929769456386566,-0.19653555750846863,-0.006876741535961628,0.15713593363761902,-0.10097159445285797,0.29632559418678284,-0.10107559710741043,0.14002735912799835],[0.2054489701986313,0.3495035767555237,0.05418049544095993,-0.19783273339271545,-0.0014602340525016189,-0.2876819968223572,0.12617267668247223,-0.042895685881376266,0.11059926450252533,-0.05986403301358223,0.15272024273872375,0.17456011474132538,0.11755833029747009,-0.2559725344181061,0.4800032079219818,0.11355031281709671,-0.020163418725132942,-0.2708016037940979,0.07251663506031036,0.02264735847711563],[0.05492374300956726,0.05021289736032486,0.15365956723690033,-0.06990432739257812,0.03654714673757553,0.10618190467357635,0.017347518354654312,-0.07944722473621368,0.029771341010928154,0.1522020399570465,-0.0596870481967926,0.20107030868530273,-0.0032057922799140215,0.23365917801856995,-0.024531548842787743,-0.06212831288576126,-0.26852431893348694,0.3004719614982605,0.11969969421625137,0.1827404797077179],[-0.40020814538002014,-0.14426058530807495,-0.03215552121400833,-0.040663618594408035,-0.0722019150853157,-0.2607523798942566,0.1412757933139801,-0.09333687275648117,-0.05962564796209335,-0.03514144942164421,-0.013312405906617641,-0.1252535581588745,-0.05816458538174629,0.3415575623512268,0.10878437757492065,0.3326720893383026,0.07828028500080109,0.21687227487564087,-0.33806154131889343,-0.006595575250685215],[-0.054569728672504425,0.17636021971702576,-0.007689926773309708,0.06705855578184128,0.06523290276527405,-0.07676930725574493,-0.11379007995128632,-0.04765154793858528,0.042761072516441345,-0.023072432726621628,-0.15585604310035706,0.23534564673900604,-0.24437452852725983,0.12064457684755325,0.09501031786203384,-0.20323868095874786,-0.2327292114496231,-0.014620017260313034,0.12670549750328064,-0.13172931969165802],[-0.2753234803676605,-0.1359664499759674,-0.028973925858736038,0.03994319587945938,-0.138295978307724,0.3680424988269806,-0.048372913151979446,0.001108734984882176,-0.05428403243422508,-0.0370345301926136,-0.08382643014192581,0.22206634283065796,0.09003446996212006,0.09362613409757614,-0.011509246192872524,-0.03775796294212341,0.19197899103164673,-0.1156698614358902,-0.2334624081850052,-0.10665230453014374],[-0.07185789197683334,-0.17694711685180664,-0.10309646278619766,0.1482076197862625,-0.1227726936340332,-0.15185491740703583,0.275890976190567,-0.15747469663619995,0.11776160448789597,0.041770365089178085,0.29501399397850037,0.09053143858909607,0.016796112060546875,0.09275419265031815,0.0663348138332367,-0.20946039259433746,0.003047306789085269,0.045413341373205185,0.08972536772489548,-0.1361600160598755],[0.2537228465080261,-0.12739689648151398,0.1804892122745514,-0.18384505808353424,0.033080652356147766,-0.09515567123889923,0.10263253003358841,0.06677631288766861,0.0790737047791481,-0.17191414535045624,0.048721324652433395,0.017544353380799294,0.12985798716545105,0.24076224863529205,-0.05299635976552963,-0.008937652222812176,-0.04316747188568115,-0.10273226350545883,-0.013861525803804398,-0.09745809435844421],[-0.09443165361881256,-0.1377466470003128,0.12281597405672073,-0.28217408061027527,-0.06222495809197426,0.037109289318323135,-0.054981887340545654,-0.09274739772081375,0.1244640126824379,-0.061248019337654114,0.09499172121286392,0.2588082551956177,-0.17448492348194122,-0.2927728593349457,0.2335626482963562,0.09003432095050812,0.1166430190205574,-0.13925562798976898,-0.027318384498357773,-0.11009398847818375],[0.35592949390411377,0.17176248133182526,-0.08376794308423996,-0.2674477696418762,0.026546042412519455,-0.07568525522947311,-0.2855207622051239,-0.11556725203990936,-0.025250786915421486,-0.053745537996292114,-0.25297167897224426,0.24171331524848938,0.1114816665649414,-0.14884883165359497,0.050764892250299454,0.011466641910374165,0.039802901446819305,0.07522784918546677,-0.08303646743297577,-0.1680147349834442],[-0.21900801360607147,-0.03422600030899048,-0.01587643101811409,-0.027296675369143486,0.022678419947624207,-0.043832503259181976,-0.06090884283185005,0.11279108375310898,0.011374782770872116,0.00039228485547937453,0.0013742783339694142,0.2254747450351715,0.23792925477027893,-0.23960992693901062,-0.06891825050115585,-0.0850193202495575,0.0041680894792079926,-0.00550030218437314,-0.17346084117889404,0.26781487464904785],[-0.3883941173553467,-0.11944844573736191,0.04323926195502281,0.11248188465833664,-0.08278188109397888,-0.23125247657299042,0.025798073038458824,-0.14134736359119415,-0.21871007978916168,0.1611461639404297,0.009206518530845642,-0.07234123349189758,0.19276808202266693,-0.20496070384979248,0.25365862250328064,-0.19094686210155487,0.007939753122627735,-0.0698113739490509,0.016386477276682854,0.08020230382680893]],"bias":[-0.008477097377181053,-0.002070277463644743,0.0030693556182086468,-0.006659875623881817,-0.008801544085144997,-0.0020810256246477365,-0.020337359979748726,0.001769472612068057,-0.009502828121185303,-0.008276673965156078,-0.014532458037137985,0.007679709233343601,-0.0023134404327720404,0.007634194567799568,-0.016856299713253975,0.008877463638782501,-0.007827987894415855,0.008987633511424065,-0.006561231333762407,-0.00913652591407299,-0.03135102614760399,0.004615508485585451,0.0016163127729669213,-0.0019815752748399973,0.01213971059769392,-0.004427299834787846,0.007038494106382132,0.007602450903505087,-0.005370853003114462,0.008715560659766197,-0.009519563056528568,1.157071346824523e-05,0.0006427524494938552,0.02084643393754959,0.020155509933829308,-0.005407122895121574,-0.03098384290933609,0.013484828174114227,-0.003720081178471446,-0.012819117866456509,-0.012697534635663033,0.008880216628313065,-0.043193768709897995,0.006633997429162264,-0.01049275603145361,-0.008623699657619,0.013513791374862194,0.007859401404857635,-0.007624139543622732,0.0046873558312654495,0.0024669026024639606,0.011943945661187172,-0.009003802202641964,0.01953924261033535,-0.0119163291528821,-0.002237784443423152,-0.0005003678961656988,-0.003407600335776806,-0.005983173381537199,-0.00463786069303751,-0.004411638248711824,0.017807763069868088,0.005715169012546539,-0.0017002624226734042]},"layer_1":{"weight":[[-0.11362581700086594,-0.00183834636118263,0.10476748645305634,0.1970115303993225,0.09377126395702362,-0.16773343086242676,0.2015487402677536,-0.061054933816194534,0.2696283757686615,0.212955504655838,0.14274446666240692,-0.032471828162670135,-0.018266452476382256,0.04308495298027992,0.14557504653930664,0.09630993753671646,0.07035068422555923,-0.1259487122297287,0.13011455535888672,-0.07623138278722763,0.20592662692070007,0.1320270448923111,0.08065959066152573,0.06265532225370407,-0.018739638850092888,-0.050050001591444016,-0.027222033590078354,-0.20710167288780212,0.09378129988908768,-0.09294794499874115,0.11648525297641754,-0.02339690737426281,-0.03238045796751976,-0.11888232082128525,0.07263850420713425,-0.037265922874212265,-0.0477590449154377,-0.29024985432624817,-0.030140068382024765,-0.05144570395350456,-0.18269796669483185,0.1205269917845726,0.06969559192657471,-0.04806867614388466,-0.1449311226606369,-0.046123944222927094,0.01325248647481203,-0.151404470205307,-0.14842374622821808,0.1758655160665512,-0.0038363412022590637,0.10170584917068481,-0.1766255795955658,-0.08398965746164322,0.21157656610012054,-0.23010104894638062,0.28965139389038086,0.07415439933538437,0.14623640477657318,-0.04620290920138359,0.02250606380403042,-0.016795272007584572,-0.19214008748531342,0.21517179906368256],[-0.028122033923864365,-0.009549935348331928,-0.020554497838020325,0.14511027932167053,0.22609005868434906,0.1387193202972412,0.07061904668807983,0.04919252172112465,0.12605752050876617,0.018063966184854507,0.042047567665576935,-0.009992086328566074,-0.06472481787204742,-0.043605558574199677,-0.11962814629077911,0.3703625202178955,0.22097079455852509,0.06878264248371124,0.10972343385219574,-0.23886364698410034,0.308355450630188,-0.10632075369358063,0.006943268235772848,0.002027341164648533,0.07797334343194962,0.113179050385952,0.10704182088375092,0.11568474024534225,0.09751875698566437,-0.04047016799449921,-0.04705088958144188,-0.14192789793014526,0.035672303289175034,0.12622274458408356,0.05952524393796921,0.09226561337709427,-0.12079068273305893,0.17102618515491486,-0.06535261869430542,0.12902101874351501,-0.08427754789590836,-0.0904177576303482,0.027492988854646683,-0.15034064650535583,0.040981270372867584,0.1882414072751999,-0.008493339642882347,0.11779216676950455,0.13768571615219116,-0.05803345888853073,0.04026421904563904,-0.03233988583087921,-0.05339854210615158,0.1824617236852646,-0.09728775918483734,0.14312303066253662,-0.07757853716611862,0.04943022504448891,0.23645661771297455,0.13636653125286102,0.02322409301996231,-0.3158772885799408,-0.044662974774837494,-0.09461388736963272],[-0.05768805369734764,-0.04494759440422058,-0.16848932206630707,-0.08841505646705627,0.10797622054815292,-0.016794273629784584,-0.060491397976875305,0.02839461900293827,-0.0671948716044426,0.023979848250746727,0.012369339354336262,0.10560522228479385,0.061451759189367294,0.009710671380162239,-0.15498827397823334,0.07030300796031952,0.055884119123220444,-0.08583281189203262,-0.04537571966648102,0.17333681881427765,0.16132064163684845,0.0007488465053029358,0.1308836191892624,-0.12281502783298492,0.018201809376478195,0.07218773663043976,-0.05379658192396164,-0.07668676227331161,-0.06036142259836197,-0.0925789326429367,-0.06516461074352264,-0.0454283207654953,-0.21271982789039612,-0.24977438151836395,-0.26475873589515686,-0.019163237884640694,-0.1441609263420105,-0.14014527201652527,-0.17116917669773102,0.20249436795711517,-0.07508817315101624,-0.13557226955890656,0.08506569266319275,0.03302761912345886,-0.06404553353786469,0.031641844660043716,-0.2286623865365982,0.05310998857021332,-0.13359291851520538,-0.1496545970439911,-0.11447250097990036,-0.22716768085956573,-0.051689740270376205,-0.16086436808109283,0.0015242410590872169,-0.13034333288669586,0.1123582273721695,-0.028510238975286484,0.03795703873038292,-0.11093535274267197,-0.19186171889305115,-0.11094100773334503,-0.08387304842472076,-0.01909874565899372],[-0.12389297783374786,-0.18800081312656403,-0.05863533169031143,-0.20187538862228394,0.16618704795837402,-0.009749645367264748,0.2513214349746704,0.01802070066332817,0.1769031137228012,-0.006842785514891148,-0.13937798142433167,0.08307711780071259,-0.005903399083763361,-0.04266161844134331,-0.10152263939380646,0.12195202708244324,0.021371666342020035,0.0495104119181633,0.016630595549941063,0.04672045633196831,-0.09094841033220291,-0.273761510848999,-0.0025307326577603817,0.051423028111457825,-0.1723099797964096,0.10178279876708984,0.07606272399425507,-0.17895297706127167,0.043807610869407654,-0.19069348275661469,0.23757247626781464,0.006830362603068352,0.07010937482118607,-0.18896065652370453,0.049083124846220016,0.2121773213148117,-0.02690470591187477,-0.02073167823255062,-0.019041704013943672,-0.061048779636621475,-0.05290929600596428,0.19311223924160004,-0.18427783250808716,0.19324004650115967,0.03227594867348671,-0.022945286706089973,-0.015955850481987,0.1870562732219696,0.20261035859584808,-0.025906749069690704,-0.04926060885190964,0.18021443486213684,0.15123143792152405,-0.13030119240283966,0.024978656321763992,0.09135043621063232,0.1615992784500122,-0.03602791950106621,0.11521788686513901,-0.2809538245201111,0.044985368847846985,-0.08053448051214218,-0.07127982378005981,0.08934511989355087],[0.07186850160360336,-0.1153576523065567,0.0015027964254841208,0.1482539027929306,0.03372873365879059,0.10685304552316666,0.02153826504945755,0.005026574712246656,0.15818853676319122,-0.1761482059955597,0.019982393831014633,-0.06235295906662941,0.008707687258720398,-0.13939402997493744,-0.07544192671775818,0.05968736484646797,-0.03429953008890152,-0.0846429318189621,0.0028298436664044857,0.10611367970705032,0.08242203295230865,-0.07364769279956818,-0.041624072939157486,0.176179438829422,0.026309985667467117,-0.04885305464267731,0.11906345933675766,-0.10922656208276749,-0.03302523493766785,0.019639737904071808,0.07051509618759155,0.08927097916603088,-0.12348247319459915,-0.08989051729440689,-0.002103521954268217,0.04833227023482323,-0.05452316254377365,0.09648269414901733,0.030336666852235794,-0.024051528424024582,0.0168756153434515,-0.03571321442723274,0.07337749749422073,0.07610715180635452,-0.04891127720475197,0.1028883084654808,0.09707627445459366,0.07660031318664551,-0.06284897774457932,-0.049434974789619446,-0.2523835301399231,-0.017326680943369865,0.06491906940937042,0.13373681902885437,-0.2439553588628769,0.2030511498451233,0.20109614729881287,-0.17352519929409027,0.010082576423883438,-0.0028690050821751356,0.26045867800712585,-0.1977175623178482,0.08069334924221039,0.06025759130716324],[0.07005474716424942,-0.08055979013442993,-0.11882882565259933,0.06969939917325974,-0.14679796993732452,-0.05592573806643486,0.10867856442928314,-0.038262322545051575,0.25389233231544495,-0.18411386013031006,0.12922649085521698,-0.04077857360243797,-0.38140642642974854,0.08371669799089432,0.038318634033203125,0.03960910066962242,-0.09623687714338303,-0.014832176268100739,-0.0733635276556015,0.1543656289577484,0.10482297837734222,-0.06276159733533859,0.028245864436030388,-0.12386354058980942,0.11924153566360474,0.25014397501945496,-0.1738096922636032,0.2149408906698227,0.11910749226808548,-0.10863827913999557,-0.13474705815315247,0.22229443490505219,-0.09310444444417953,-0.1108417883515358,-0.05038635805249214,0.020776400342583656,0.11171919107437134,0.006948148366063833,0.05161184445023537,0.14279107749462128,-0.2164238691329956,-0.15948471426963806,-0.021535517647862434,-0.022279540076851845,-0.1697533130645752,0.3042793571949005,0.025845050811767578,0.03822234272956848,0.06640676409006119,-0.2004779726266861,0.17610611021518707,-0.013979749754071236,0.02997458539903164,0.23388120532035828,0.08160002529621124,0.13371294736862183,0.08941147476434708,0.04417058825492859,-0.12241452932357788,-0.0458194836974144,0.12226897478103638,0.06757751107215881,0.13964197039604187,-0.1586100310087204],[-0.006620679050683975,-0.04924040287733078,0.3359318673610687,-0.05877870321273804,-0.10799729079008102,-0.06289326399564743,0.030051931738853455,0.17414270341396332,-0.24039550125598907,-0.20743265748023987,0.011386849917471409,-0.1732635498046875,0.033011630177497864,-0.012347619980573654,-0.04676462709903717,-0.10998042672872543,-0.0703328549861908,-0.022454513236880302,0.03346649929881096,0.014478238299489021,-0.11899810284376144,0.13441221415996552,0.014489076100289822,0.08522064983844757,0.16266624629497528,-0.0915563628077507,-0.21367567777633667,-0.05764371156692505,0.02576552890241146,0.06464102864265442,-0.0008580893627367914,0.06035693734884262,-0.051506757736206055,0.06148023158311844,-0.05990345776081085,0.11365381628274918,-0.10068002343177795,0.10166740417480469,-0.09839790314435959,0.04083765670657158,0.16204872727394104,-0.028752250596880913,-0.11677853018045425,0.053857482969760895,0.026118040084838867,0.02865447662770748,0.07221183180809021,-0.04846346005797386,0.13046395778656006,0.30064132809638977,0.011636688373982906,0.01858135499060154,-0.01959909312427044,-0.03662404790520668,0.13993927836418152,0.030386338010430336,0.14738912880420685,-0.002988985041156411,0.11268533766269684,-0.13302788138389587,0.08313807845115662,0.0016959697240963578,-0.003755308920517564,0.0010364580666646361],[-0.17519983649253845,0.055535174906253815,-0.013765006326138973,0.011893760412931442,-0.06456436216831207,0.04083753749728203,-0.1233779564499855,-0.06486358493566513,-0.20286159217357635,0.1766570657491684,0.06466498225927353,-0.1678760051727295,-0.26939207315444946,-0.10121309757232666,0.10893773287534714,0.06509843468666077,-0.08762874454259872,0.030804699286818504,-0.011216466315090656,0.014438609592616558,0.10397712141275406,-0.10272093862295151,0.13838325440883636,-0.26936668157577515,-0.12692555785179138,0.0618753507733345,0.018396509811282158,0.02527606301009655,0.07993604987859726,0.11137548089027405,0.09760785102844238,0.1786264181137085,-0.004523896612226963,0.049776218831539154,0.06426221132278442,0.02627238817512989,-0.12929914891719818,0.07972691208124161,0.02250586450099945,0.044666264206171036,-0.03657839447259903,-0.14658084511756897,0.008606481365859509,-0.04034094884991646,-0.05211900919675827,-0.17710639536380768,-0.16823111474514008,0.1517811268568039,0.270305871963501,-0.04995881766080856,0.24232597649097443,-0.00030361113022081554,-0.04040256142616272,-0.023343626409769058,-0.01232239045202732,-0.03991178050637245,-0.07550852000713348,-0.13892103731632233,-0.11366117745637894,-0.022416695952415466,-0.06505372375249863,0.050136011093854904,-0.13069850206375122,-0.011142315343022346],[0.05416038632392883,-0.15846839547157288,-0.1703437864780426,0.07118427753448486,-0.06033741310238838,-0.13640037178993225,0.06194164976477623,-0.05771762505173683,0.09766653925180435,0.2003116011619568,0.0845465213060379,-0.1093355044722557,-0.001357241882942617,0.06216811388731003,-0.18867671489715576,-0.008830610662698746,-0.24363741278648376,0.15314507484436035,0.2334563136100769,-0.05397862195968628,0.11752455681562424,-0.0215251874178648,0.15342654287815094,0.1297055184841156,-0.00504333758726716,0.00601578364148736,0.10207600891590118,-0.026242975145578384,-0.15193116664886475,0.18974684178829193,-0.20950137078762054,-0.14185699820518494,-0.10221662372350693,0.14357583224773407,0.04308326542377472,-0.12572847306728363,-0.007962141185998917,-0.08832202106714249,-0.13223254680633545,-0.218814879655838,0.33854779601097107,-0.09052712470293045,-0.07522264868021011,0.04579735919833183,0.08719547837972641,-0.15229149162769318,-0.1326219141483307,0.15347741544246674,0.12876352667808533,0.07779912650585175,-0.06778176873922348,0.013789377175271511,0.030489785596728325,-0.05941472575068474,0.05332602187991142,-0.06045225262641907,-0.23067840933799744,-0.0358339361846447,0.14276325702667236,-0.1203421875834465,0.010931514203548431,-0.131880521774292,-0.013187692500650883,-0.007391799241304398],[-0.07108519226312637,0.15006816387176514,-0.15980137884616852,0.050488922744989395,0.0779569074511528,0.3596068322658539,-0.0054529751650989056,0.08263123780488968,-0.269143670797348,-0.032057587057352066,-0.26066458225250244,-0.0915539339184761,-0.1024666279554367,0.04088544845581055,0.05679015442728996,0.03307195380330086,-0.016225973144173622,-0.12604738771915436,-0.1127382144331932,-0.005747771356254816,-0.08715476840734482,0.04398050904273987,-0.05285130813717842,0.14990225434303284,0.14166143536567688,-0.036313027143478394,0.054016418755054474,-0.03959471732378006,0.08626990765333176,0.013606029562652111,0.16481466591358185,-0.11180007457733154,-0.014566419646143913,-0.17502610385417938,-0.142354816198349,0.07631000876426697,0.1255832314491272,-0.02008136548101902,-0.06722463667392731,0.03203636780381203,-0.19359445571899414,-0.22520600259304047,-0.036721568554639816,0.033907510340213776,0.02662007510662079,0.008422254584729671,0.11914756894111633,0.24557936191558838,-0.09265132993459702,-0.1516956090927124,0.017071884125471115,-0.014235422946512699,-0.09352797269821167,-0.050143782049417496,-0.03219606727361679,-0.2513166069984436,-0.1460047960281372,-0.17575694620609283,0.02172427624464035,-0.01158794853836298,0.16572025418281555,0.07680588215589523,0.12324036657810211,-0.061326686292886734],[0.07534458488225937,0.01187077071517706,0.04710303619503975,0.08460154384374619,0.15497732162475586,-0.22078490257263184,0.009796421974897385,-0.003524133702740073,-0.27368688583374023,-0.07356632500886917,-0.2587944269180298,0.06903182715177536,-0.09943787753582001,0.02173631452023983,0.11011053621768951,-0.12573082745075226,-0.08857008069753647,-0.06481759995222092,-0.005778714083135128,0.1552247405052185,0.1351282000541687,0.029132993891835213,0.04403054341673851,0.03106183558702469,-0.07525559514760971,-0.13377298414707184,0.17052142322063446,0.12119552493095398,-0.1637013703584671,0.1234966591000557,0.0061576589941978455,0.23092909157276154,-0.14025381207466125,0.0276942141354084,-0.003415720071643591,-0.1020541861653328,0.009124333038926125,0.004498523660004139,-0.05055335536599159,-0.05345077067613602,0.2047129124403,-0.024939369410276413,-0.024655217304825783,-0.1181231439113617,0.016112923622131348,-0.23851700127124786,-0.03614183887839317,0.10794620215892792,-0.06239493191242218,0.10574183613061905,0.275067001581192,-0.20586241781711578,-0.0015221340581774712,0.09695205837488174,-0.0307062566280365,-0.21369466185569763,-0.09542574733495712,0.10183923691511154,0.1240517646074295,0.033888861536979675,-0.019512206315994263,0.0612921267747879,-0.28152942657470703,-0.05719253420829773],[-0.02318654954433441,-0.11123030632734299,-0.14855502545833588,0.00279270694591105,-0.21911372244358063,0.12316875159740448,-0.06045573204755783,-0.08269500732421875,0.03352551907300949,0.049099065363407135,-0.19512182474136353,0.05504113435745239,0.13272738456726074,0.037550073117017746,0.13015198707580566,0.20986337959766388,-0.15736886858940125,-0.12000211328268051,0.05698631703853607,-0.12201504409313202,0.04570310562849045,-0.10388598591089249,-0.029410656541585922,0.09110970050096512,-0.017718657851219177,0.0074677239172160625,-0.08392872661352158,-0.22601841390132904,-0.1249677762389183,0.0951966643333435,-0.04597103223204613,0.09981436282396317,-0.09873491525650024,0.11479607224464417,-0.056418005377054214,0.09749769419431686,0.03177705779671669,-0.014655083417892456,0.19486908614635468,-0.18723519146442413,0.049773067235946655,0.0738159567117691,-0.1349596530199051,0.15704093873500824,-0.07523966580629349,-0.07662218809127808,-0.07220791280269623,-0.06068747863173485,0.09056999534368515,0.0204902496188879,0.08117516338825226,0.134521022439003,-0.13209208846092224,0.2679472863674164,-0.06066553667187691,0.006377095356583595,-0.030617984011769295,-0.11181867122650146,0.11787233501672745,-0.0559665784239769,-0.06565640866756439,-0.01116879004985094,0.02370592951774597,0.1399349570274353],[-0.13244213163852692,-0.07054262608289719,0.012325212359428406,-0.1821250021457672,0.04580674320459366,0.09025733172893524,0.3082019090652466,0.09361580014228821,0.11269306391477585,-0.033836089074611664,0.019508739933371544,-0.24170424044132233,0.12906992435455322,-0.17891690135002136,0.3500555753707886,0.054714612662792206,-0.0995357558131218,0.26001590490341187,0.08971297740936279,-0.01751076802611351,-0.0009444011375308037,0.06293956190347672,0.4338819980621338,0.021841874346137047,0.10564489662647247,0.11702895909547806,0.047812338918447495,0.18632152676582336,-0.09185467660427094,-0.07789847999811172,-0.24918557703495026,-0.09579374641180038,-0.018675636500120163,-0.15350119769573212,-0.07049860805273056,-0.051499251276254654,0.059334833174943924,0.16968590021133423,0.010753492824733257,0.07802058756351471,-0.10468744486570358,0.04633922874927521,-0.16170711815357208,0.09383201599121094,0.02862226776778698,0.06698481738567352,0.10206449031829834,-0.001544103492051363,0.07406243681907654,-0.04854200780391693,0.05400706082582474,-0.2729704976081848,-0.022498300299048424,-0.08855607360601425,0.11190446466207504,-0.24546949565410614,0.20218755304813385,0.09150763601064682,-0.14341044425964355,-0.10536526888608932,-0.03582235798239708,-0.09735699743032455,0.04551513493061066,0.01273401640355587],[0.24735428392887115,0.1612909734249115,0.16016264259815216,0.11622004210948944,0.021742818877100945,-0.05257125943899155,-0.03887873888015747,0.20910616219043732,0.07111715525388718,0.06086256355047226,-0.04587545990943909,-0.031048612669110298,0.05617070198059082,-0.12042481452226639,0.09930189698934555,-0.04606753587722778,0.20150747895240784,0.1665710061788559,-0.015289469622075558,-0.10986188054084778,0.01423711609095335,-0.11985384672880173,-0.03905974328517914,0.14078155159950256,0.06876611709594727,-0.07845127582550049,0.13977906107902527,-0.004698032513260841,0.0357724167406559,0.20208759605884552,0.06566473841667175,0.026002096012234688,-0.19122186303138733,0.00627402076497674,0.22918376326560974,0.1409357637166977,-0.2099868506193161,-0.06089155003428459,0.04761947691440582,0.02085050754249096,0.05278195068240166,0.07777691632509232,0.056847184896469116,0.07849596440792084,-0.17487168312072754,0.007391702383756638,-0.11307583749294281,0.11580374836921692,0.0510752871632576,-0.012525511905550957,0.031079065054655075,-0.020167453214526176,-0.13175080716609955,0.0390048548579216,0.16080956161022186,-0.08792433887720108,-0.11071236431598663,0.024189064279198647,-0.2150580734014511,0.014878769405186176,0.18216364085674286,0.009296249598264694,-0.0026726180221885443,0.04574565589427948],[-0.023904524743556976,0.007307753898203373,0.11187057942152023,-0.03992793709039688,0.2660045325756073,-0.11062885820865631,0.21413490176200867,-0.11063696444034576,0.0005815589684061706,0.023078113794326782,0.08730447292327881,-0.1811017543077469,0.045561257749795914,0.06515440344810486,0.08742333948612213,0.10243737697601318,0.18237194418907166,0.14161410927772522,-0.05743163079023361,0.04231877252459526,0.13521546125411987,0.0027171852998435497,-0.12367337197065353,-0.06596078723669052,0.1764436811208725,-0.06990568339824677,-0.04669719189405441,0.10232672095298767,-0.07731052488088608,-0.033777184784412384,-0.10503954440355301,0.016402801498770714,0.168121799826622,0.16358450055122375,-0.06504234671592712,0.18503400683403015,0.08895426988601685,0.13556399941444397,-0.09759905934333801,-0.029554830864071846,-0.2713799774646759,0.11236985772848129,-0.17778053879737854,-0.023725328966975212,-0.15405753254890442,0.20275971293449402,-0.053336117416620255,0.16347387433052063,-0.00273818988353014,-0.06572260707616806,-0.22097738087177277,0.23245178163051605,0.027161113917827606,-0.08997464925050735,-0.22056332230567932,-0.006353076081722975,0.033698149025440216,-0.0019321325235068798,0.09798675030469894,0.2373315989971161,0.1878153532743454,-0.110468789935112,-0.04849936440587044,-0.025914359837770462],[-0.24811139702796936,0.04950781911611557,0.08527973294258118,-0.11366607993841171,0.14390632510185242,0.0007844298961572349,0.038462091237306595,-0.12793271243572235,-0.2843558192253113,-0.03837330639362335,-0.16842208802700043,0.09566288441419601,-0.09489206969738007,-0.015796087682247162,0.09450982511043549,0.25180450081825256,0.11555137485265732,0.35477080941200256,0.011603559367358685,0.07691006362438202,0.02823645807802677,0.10840857774019241,0.13109463453292847,0.16641047596931458,-0.01577405445277691,0.0443900004029274,0.1566404104232788,0.07975110411643982,-0.03960835933685303,0.11490882188081741,0.09702235460281372,0.00914078764617443,0.20635472238063812,-0.22565220296382904,0.11060625314712524,-0.13615667819976807,0.1724349856376648,0.1362045556306839,0.022359313443303108,-0.06375956535339355,0.11017045378684998,0.09077080339193344,0.12241846323013306,0.199405699968338,0.11883173137903214,-0.012506027705967426,-0.23301884531974792,0.014401286840438843,-0.012574533000588417,-0.1092672273516655,-0.06940386444330215,0.043017081916332245,0.0065393284894526005,0.1575382798910141,0.20682215690612793,0.23904918134212494,0.1404503583908081,-0.0012364258291199803,0.06718822568655014,-0.33811765909194946,0.10345999896526337,0.0314178541302681,0.07310608774423599,0.09717857092618942],[0.035717617720365524,-0.11657873541116714,-0.11979589611291885,0.1993817687034607,0.12021400779485703,0.02931170165538788,0.13551920652389526,-0.019875353202223778,-0.07008249312639236,0.03055165521800518,-0.008235198445618153,0.0024900769349187613,-0.12281540036201477,-0.02271844632923603,-0.2478991597890854,0.10214244574308395,0.01019729021936655,-0.068548783659935,-0.07614511996507645,-0.050128594040870667,-0.07987366616725922,0.083701953291893,-0.08764810115098953,0.08554369956254959,0.0692322701215744,-0.19436104595661163,-0.039417751133441925,-0.23413991928100586,0.00378485512919724,-0.12726649641990662,0.07243650406599045,-0.1853116899728775,-0.03501958027482033,-0.00027100660372525454,-0.14156384766101837,0.16241803765296936,0.14038453996181488,-0.4942053556442261,0.13255682587623596,-0.11652614176273346,0.22779583930969238,-0.2965858578681946,0.03489537164568901,-0.10239221900701523,0.0070459963753819466,0.03556915745139122,-0.03475843742489815,-0.017087701708078384,0.12548379600048065,0.20425617694854736,0.10354338586330414,0.11166515946388245,-0.0616532564163208,0.03217078745365143,0.1156671941280365,0.08639764040708542,0.08525510132312775,0.16151361167430878,-0.21716739237308502,0.14295594394207,0.14867042005062103,0.10126829147338867,0.029446689411997795,0.1300855576992035],[0.020902613177895546,-0.051103491336107254,0.028674380853772163,-0.07907804846763611,0.011186276562511921,0.01994398422539234,0.1139368861913681,0.007334708236157894,-0.009344353340566158,0.09025585651397705,0.014620511792600155,-0.10826361179351807,-0.07185029983520508,-0.011775228194892406,-0.08785591274499893,-0.0021524690091609955,0.019389692693948746,0.05326319858431816,0.24765323102474213,-0.10599030554294586,-0.008518022485077381,0.0853850468993187,-0.2079942673444748,0.08550696074962616,-0.10290620476007462,0.07119076699018478,0.06743623316287994,0.05505206063389778,-0.08214203268289566,-0.032747089862823486,-0.30019962787628174,-0.07595113664865494,0.06937026232481003,-0.08209969848394394,-0.0396273210644722,0.04159155115485191,-0.024983536452054977,0.2840784192085266,0.15050870180130005,-0.026958441361784935,0.141152486205101,-0.28839337825775146,-0.06833013892173767,0.10444646328687668,0.21294817328453064,-0.1469852477312088,0.09288295358419418,0.3650343716144562,-0.1820981651544571,0.05444153770804405,0.21929316222667694,0.06049363687634468,0.11439341306686401,0.07228923588991165,0.051101215183734894,0.024474358186125755,0.037754543125629425,0.09367367625236511,-0.008410976268351078,0.09800400584936142,-0.05996841937303543,-0.05941937491297722,0.13096003234386444,0.14700064063072205],[0.04305499047040939,-0.07216361910104752,0.11103532463312149,0.11973729729652405,0.18901926279067993,-0.31897395849227905,0.05998656898736954,0.18949800729751587,-0.13958780467510223,0.3283538818359375,0.1327470988035202,0.12786489725112915,0.0012501254677772522,-0.08847664296627045,-0.10434590280056,0.20363254845142365,0.062076929956674576,0.08965954184532166,0.1133427768945694,-0.05142400786280632,-0.03757977858185768,0.12219404429197311,-0.1756925880908966,0.11905264109373093,0.031042272225022316,-0.10895129293203354,-0.10726244747638702,-0.03144390881061554,0.07374981045722961,0.016759924590587616,0.013386734761297703,-0.2766251266002655,0.10457229614257812,0.0257422998547554,-0.12605805695056915,-0.21779152750968933,0.04723368212580681,0.09436196833848953,-0.04400546848773956,0.08689537644386292,-0.10631794482469559,-0.14211802184581757,-0.06957221031188965,-0.05508606880903244,-0.0024219437036663294,-0.025250516831874847,0.3139204978942871,0.05608944222331047,-0.06226591020822525,0.08108408749103546,0.4039376676082611,0.03487318009138107,-0.16701972484588623,-0.2522072494029999,0.12554149329662323,-0.056098293513059616,-0.05453578755259514,-0.018152251839637756,-0.08707921206951141,-0.1844763606786728,-0.05879276618361473,-0.0560009591281414,-0.11170395463705063,0.15860137343406677],[0.1878357231616974,-0.044001515954732895,0.007650815416127443,0.08417542278766632,0.2691657543182373,0.08214787393808365,-0.01739117130637169,0.35212716460227966,-0.10100853443145752,-0.11908531934022903,0.19379043579101562,-0.02324897050857544,-0.24134059250354767,-0.04626946523785591,0.05465152487158775,-0.16646017134189606,0.07312563806772232,0.1337040364742279,-0.035379860550165176,-0.12299106270074844,-0.02866676263511181,0.17243732511997223,0.038431983441114426,-0.18925151228904724,0.06867507845163345,0.06589917093515396,0.08882375806570053,-0.10638099163770676,0.043124567717313766,-0.1402040421962738,-0.07821209728717804,0.053601983934640884,-0.1349298506975174,-0.07352329045534134,-0.13934779167175293,0.056659918278455734,-0.368647962808609,-0.01303179282695055,-0.009333276189863682,-0.09719467908143997,-0.15864965319633484,-0.22168295085430145,0.029872864484786987,-0.0023471054155379534,-0.013217479921877384,-0.17640824615955353,-0.08719858527183533,-0.04366856440901756,-0.15355858206748962,-0.03281722590327263,0.2370976209640503,0.08788219839334488,0.10280149430036545,0.03776318207383156,-0.08612238615751266,-0.18508261442184448,0.11837504059076309,-0.12762370705604553,-0.017668599262833595,-0.18648174405097961,-0.26446205377578735,0.03057701140642166,0.004671126138418913,0.029718196019530296],[-0.21752843260765076,0.04160687327384949,-0.10070160776376724,-0.10024508088827133,-0.1055746078491211,0.07901730388402939,-0.09954631328582764,0.006518469657748938,0.16751061379909515,-0.036230314522981644,-0.15136884152889252,-0.13458716869354248,-0.14886288344860077,0.08316265791654587,0.12514740228652954,0.07419280707836151,-0.0030106513295322657,0.05788005515933037,-0.0620247907936573,-0.008338873274624348,0.17053008079528809,0.06857717782258987,-0.16970977187156677,-0.15063822269439697,0.16526351869106293,0.025418806821107864,-0.10817605257034302,0.16142798960208893,0.04180997610092163,0.2370493859052658,-0.1980867236852646,-0.1947394162416458,-0.13334548473358154,-0.04457957297563553,0.06994152814149857,-0.20877724885940552,0.04377690330147743,0.23921361565589905,0.10251449048519135,-0.1731729805469513,0.042181726545095444,-0.005287029780447483,0.08914311230182648,0.030667847022414207,0.15644991397857666,0.10070303827524185,0.006505088414996862,-0.04863136261701584,-0.010416076518595219,0.01380061823874712,-0.07884281873703003,0.03705907613039017,-0.1025504395365715,-0.14562983810901642,-0.09345978498458862,0.03579482436180115,-0.049629081040620804,0.12802240252494812,-0.03194218873977661,0.1538054496049881,0.08528569340705872,0.15757369995117188,-0.14625801146030426,-0.06921180337667465],[-0.09133592993021011,-0.014476090669631958,0.060159988701343536,0.005340299569070339,0.01541666965931654,-0.05735081061720848,-0.10444264113903046,0.08941752463579178,0.021103162318468094,-0.2361159771680832,-0.02204100601375103,0.2497273087501526,-0.01612227037549019,0.05070077255368233,-0.00907457061111927,-0.14335660636425018,-0.029430361464619637,0.1441911906003952,-0.03761773183941841,0.004003941547125578,-0.019748445600271225,0.08888733386993408,-0.15430942177772522,0.10856089740991592,-0.09069100022315979,-0.14475774765014648,0.061322689056396484,0.12406013906002045,-0.026787951588630676,-0.02593071199953556,0.005439253989607096,-0.06522997468709946,0.11445459723472595,-0.07367751002311707,0.20781025290489197,0.1197003424167633,0.11929018795490265,0.007926186546683311,0.041987985372543335,0.05135700851678848,-0.029099809005856514,0.12180714309215546,-0.10617058724164963,-0.15600551664829254,0.060071274638175964,-0.1412695199251175,0.050636209547519684,-0.04618094488978386,0.12343556433916092,-0.07004214078187943,0.04115329682826996,0.07627178728580475,0.05675916373729706,0.16877618432044983,0.07131945341825485,-0.04830922931432724,0.05088309943675995,-0.20283344388008118,0.027043601498007774,0.031619712710380554,0.2715241611003876,0.03972167521715164,0.07918784022331238,-0.028703566640615463],[0.015753483399748802,0.021090077236294746,0.1357365846633911,-0.014715679921209812,-0.07344268262386322,0.022775892168283463,0.06736581027507782,0.021109340712428093,0.0853402242064476,-0.028152044862508774,-0.20103928446769714,-0.03861648589372635,-0.07895816117525101,-0.1247272789478302,-0.04456290602684021,0.18557865917682648,0.09662145376205444,-0.06226184591650963,-0.12122444808483124,0.11917179077863693,-0.15482404828071594,0.20462866127490997,0.014790154993534088,0.12041089683771133,-0.13421180844306946,-0.1364656537771225,0.08666428923606873,0.09335821866989136,-0.13470527529716492,0.02278156764805317,-0.052999723702669144,-0.13778714835643768,-0.17652732133865356,-0.18649695813655853,-0.31743770837783813,-0.20541542768478394,-0.06090850755572319,-0.19397063553333282,0.03861433267593384,0.2030923068523407,-0.03934222832322121,-0.041162002831697464,-0.04270557686686516,0.22662830352783203,-0.08382894098758698,-0.12887290120124817,-0.10059104114770889,0.015069164335727692,0.011191418394446373,-0.031475309282541275,-0.037936050444841385,0.14076942205429077,-0.09993110597133636,0.17401370406150818,-0.1603091061115265,-0.11211749911308289,0.05747580528259277,0.08551137894392014,0.2549310624599457,-0.09481367468833923,0.025221800431609154,-0.02576075680553913,0.016567712649703026,0.060098256915807724],[0.01346738263964653,0.0871339961886406,0.14644604921340942,0.07430990040302277,-0.10026576370000839,-0.07139177620410919,-0.08868012577295303,-0.04832388088107109,-0.08247794955968857,0.09331594407558441,-0.07742679864168167,0.04041589796543121,-0.014054992236196995,0.05769038572907448,-0.26490315794944763,0.09809837490320206,-0.09685994684696198,0.0408911406993866,0.26957282423973083,-0.24985617399215698,-0.165031298995018,0.07479257136583328,0.06089552864432335,0.25169503688812256,0.034219659864902496,0.22867372632026672,0.05735892802476883,-0.03908094763755798,-0.1388089805841446,-0.03874478489160538,-0.05540727823972702,-0.02092796377837658,0.05372999981045723,-0.08266542106866837,-0.027887754142284393,-0.013168718665838242,-0.08595334738492966,-0.0755823627114296,-0.08858536928892136,0.09425121545791626,0.09972657263278961,-0.40725138783454895,-0.13696956634521484,-0.11167372018098831,0.09711097180843353,-0.021575400605797768,0.006710178218781948,-0.135232612490654,0.06821253895759583,0.15716814994812012,0.0005259060999378562,-0.10767622292041779,0.09697134047746658,-0.003304234705865383,-0.21504080295562744,0.0026355995796620846,0.11718405038118362,-0.15593662858009338,0.04756505787372589,-0.031205303966999054,0.03217829763889313,0.14632877707481384,-0.021896768361330032,-0.13036292791366577],[0.007120879366993904,0.07928503304719925,-0.38853219151496887,-0.03687781095504761,-0.09048754721879959,-0.10733674466609955,-0.21577155590057373,0.27175888419151306,0.02511783502995968,-0.10738463699817657,0.217879518866539,-0.0908668115735054,-0.20975162088871002,0.058098550885915756,-0.1180807501077652,0.022764530032873154,0.04543020576238632,0.10854581743478775,0.08921241760253906,-0.23201540112495422,-0.16087579727172852,-0.2359902262687683,0.08044698089361191,-0.1832273006439209,-0.010006866417825222,0.0047321259044110775,-0.2640690505504608,0.06195659935474396,-0.0015254036989063025,-0.008837299421429634,0.0827990397810936,-0.013473914004862309,0.028963899239897728,0.06294143944978714,0.03462926670908928,-0.028188124299049377,-0.19590042531490326,0.2507203221321106,0.020663708448410034,-0.017302555963397026,-0.03841602802276611,-0.15015369653701782,0.06831195950508118,-0.026883583515882492,-0.06831064820289612,-0.022551920264959335,0.098716601729393,-0.11405497789382935,0.1613904982805252,0.13323985040187836,-0.011110285297036171,0.30965656042099,-0.0743095800280571,0.05358625203371048,-0.1300731599330902,-0.13870176672935486,0.2012285441160202,-0.11031778901815414,-0.19657455384731293,-0.09872890263795853,-0.221370667219162,-0.10309421271085739,-0.006575453095138073,0.02609395980834961],[0.0027262906078249216,-0.18111678957939148,-0.0010550240986049175,0.0076727899722754955,-0.15688151121139526,0.08941590040922165,-0.20693303644657135,0.02971988171339035,-0.004734812304377556,-0.00206833821721375,-0.1344844251871109,0.09861968457698822,-0.059944845736026764,-0.151377871632576,0.13402539491653442,-0.21025210618972778,-0.34817254543304443,-0.028093064203858376,0.029760481789708138,-0.12965171039104462,-0.03572717308998108,0.09418998658657074,0.13133423030376434,-0.05547839403152466,-0.0014009717851877213,0.06782003492116928,-0.01434691809117794,0.2283269464969635,0.05617261305451393,0.10237478464841843,-0.10762680321931839,0.01975308731198311,-0.062004514038562775,0.07145783305168152,0.18575510382652283,0.12830287218093872,-0.12003254145383835,-0.03913373127579689,-0.031763479113578796,-0.11013651639223099,-0.15469959378242493,0.0629977434873581,0.22611814737319946,-0.09342528879642487,0.059787701815366745,-0.05810451880097389,0.14143486320972443,-0.1022503599524498,-0.08029986172914505,0.009860348887741566,-0.044658366590738297,-0.04767916351556778,-0.025255275890231133,0.005692308768630028,0.07329530268907547,0.27082324028015137,-0.14905615150928497,-0.10196352750062943,0.05015887692570686,-0.025041813030838966,0.03135744109749794,0.031283900141716,-0.027464840561151505,0.09833809733390808],[-0.04840385541319847,0.18038438260555267,-0.047916147857904434,0.17480362951755524,-0.05568176135420799,-0.03932416811585426,0.08276479691267014,-0.14757134020328522,-0.04558885097503662,0.039483774453401566,0.08221503347158432,-0.050777774304151535,-0.17567138373851776,-0.03200193867087364,0.03128889948129654,-0.2387876957654953,-0.11271608620882034,0.03836394473910332,-0.1046328991651535,0.16669394075870514,-0.08660758286714554,-0.007732973899692297,0.13128826022148132,0.18108056485652924,0.09496085345745087,0.14072799682617188,0.01057750079780817,-0.11057408899068832,-0.19697675108909607,-0.06686999648809433,0.09807120263576508,-0.12068277597427368,-0.03290177136659622,-0.16588570177555084,-0.05145246908068657,0.06337114423513412,-0.2339990735054016,-0.08891995996236801,0.03979184851050377,-0.26862624287605286,0.06413137167692184,-0.0913865864276886,-0.0344911590218544,-0.16086237132549286,-0.2600572109222412,0.08091893047094345,0.18425720930099487,-0.031559981405735016,0.13289707899093628,0.058853328227996826,-0.05349263176321983,0.05332508683204651,0.04826902598142624,0.12823596596717834,0.0446142740547657,-0.1376967877149582,-0.028306664898991585,-0.10514196008443832,0.14237001538276672,0.019057270139455795,0.03219163045287132,-0.12662896513938904,0.22724610567092896,-0.02894606627523899],[-0.09288196265697479,0.12927833199501038,0.11719339340925217,-0.18226395547389984,-0.01647605560719967,0.10029938071966171,0.053361911326646805,0.17088203132152557,-0.12051474303007126,-0.24810637533664703,-0.0214996375143528,-0.11067596822977066,-0.24803411960601807,-0.028377609327435493,-0.08141858130693436,-0.10692655295133591,0.006782740820199251,-0.1304098218679428,-0.027612490579485893,0.14262165129184723,-0.09540774673223495,-0.0384400337934494,0.0048663862980902195,0.10829228907823563,0.07184077054262161,-0.037864115089178085,-0.31479132175445557,-0.01853042282164097,-0.1176210567355156,0.15293735265731812,-0.17155985534191132,-0.04027477279305458,-0.1744776964187622,0.147738978266716,0.04434971511363983,0.1029321700334549,-0.07648934423923492,-0.09059380739927292,-0.08429251611232758,0.2722000777721405,-0.1219303160905838,0.15329033136367798,-0.05102254077792168,-0.15240149199962616,0.05179604887962341,-0.03404444083571434,0.0001235236704815179,-0.08402514457702637,-0.10775284469127655,0.016940955072641373,0.3440680503845215,-0.15160977840423584,0.08678451180458069,-0.17474804818630219,-0.06405792385339737,-0.11946140229701996,0.03156087547540665,0.12657183408737183,0.13763223588466644,-0.05655995011329651,0.022743964567780495,0.08478669077157974,0.05412401258945465,0.014309107325971127],[0.1256590038537979,0.13572251796722412,-0.10347765684127808,0.11055327206850052,-0.05976990610361099,0.237400621175766,0.030839940533041954,0.045850347727537155,-0.05723089352250099,-0.07345527410507202,-0.07668515294790268,-0.008031276986002922,0.053004126995801926,-0.21950143575668335,-0.07725013047456741,0.14058497548103333,0.016245989128947258,-0.11177727580070496,0.06210125610232353,-0.18904626369476318,-0.10988378524780273,-0.12902624905109406,0.02470162883400917,-0.042052365839481354,0.036008674651384354,0.17352348566055298,0.05912217125296593,-0.06294603645801544,-0.031000467017292976,0.1194080039858818,-0.09279517084360123,0.0009428621269762516,-0.05843142420053482,0.15679602324962616,0.11154549568891525,-0.030977070331573486,0.09344644099473953,-0.06020791083574295,0.16168375313282013,0.36340612173080444,-0.08077745884656906,-0.20799684524536133,0.10171882063150406,0.03436429798603058,0.07399196922779083,-0.03642787039279938,-0.03715524449944496,-0.018236681818962097,0.04901755228638649,-0.14265307784080505,0.0166032537817955,-0.013343553058803082,0.05814211815595627,-0.11424589157104492,0.149369478225708,0.05127599835395813,0.09927278757095337,0.008449391461908817,0.05439599230885506,-0.03538243845105171,-0.05450110137462616,0.08844345808029175,-0.006725965533405542,-0.07222838699817657],[-0.02420423924922943,0.01946401596069336,0.04084714502096176,0.08149787783622742,-0.10248401015996933,-0.05410575866699219,0.07524663954973221,-0.001875614863820374,0.2314029335975647,-0.0418400838971138,-0.0653286799788475,-0.14943785965442657,-0.02956358529627323,-0.17854951322078705,0.09595398604869843,-0.10700857639312744,0.1111803874373436,0.13975805044174194,0.06749842315912247,-0.01434855256229639,0.058802731335163116,-0.029010502621531487,-0.03420807048678398,-0.12605556845664978,-0.15394794940948486,0.17023570835590363,-0.06795711815357208,0.009875688701868057,-0.07467105239629745,-0.0011838817736133933,0.14566977322101593,-0.009234894067049026,0.05598178133368492,-0.3002821207046509,0.15383504331111908,0.0703466385602951,0.037764664739370346,-0.06111647188663483,-0.03522595763206482,-0.047675035893917084,-0.09867189079523087,0.07377408444881439,-0.1891240030527115,-0.11282691359519958,0.04091717302799225,-0.05477298051118851,0.14029717445373535,-0.009635725989937782,-0.05728412792086601,-0.011832641437649727,-0.09091318398714066,0.09561404585838318,0.018660923466086388,0.16104628145694733,0.09266792982816696,-0.003650100203230977,-0.2848537862300873,-0.11215945333242416,0.051813945174217224,-0.04231499135494232,0.05208266153931618,-0.0723191574215889,-0.15834230184555054,-0.051477015018463135],[0.23234857618808746,0.04781903699040413,-0.10212964564561844,0.15686728060245514,-0.015914058312773705,-0.08413884043693542,0.07378441095352173,0.034523557871580124,-0.023527750745415688,-0.021061329171061516,-0.13361024856567383,-0.14011795818805695,-0.2284352332353592,-0.1785573959350586,0.1071884036064148,0.057061608880758286,0.020940475165843964,0.09675329923629761,0.01673359051346779,0.011294504627585411,-0.4286251366138458,0.044402897357940674,-0.08648282289505005,0.12739478051662445,-0.06299161165952682,-0.1191435158252716,-0.12326262891292572,-0.04817938432097435,0.05535376816987991,0.13702702522277832,0.0036951659712940454,0.0035786142107099295,-0.029197541996836662,0.13737274706363678,-0.22421155869960785,-0.12218254059553146,-0.09268322587013245,-0.012249340303242207,-0.123963363468647,0.03066081553697586,-0.07342319935560226,-0.0429779514670372,-0.04466317221522331,0.022064533084630966,0.003930812235921621,0.005420240573585033,-0.17306609451770782,-0.23224161565303802,0.04828972369432449,-0.1205572709441185,-0.07012437283992767,0.12307865172624588,-0.09047839045524597,-0.07194457948207855,0.28354474902153015,-0.0184075515717268,0.016012907028198242,0.07866481691598892,-0.1299031525850296,-0.0004373455885797739,0.15205658972263336,-0.21853472292423248,0.024696340784430504,-0.061488308012485504],[0.04649457335472107,0.28817617893218994,-0.1796620935201645,0.17420975863933563,0.03152107074856758,-0.16589204967021942,0.17741748690605164,-0.21568931639194489,0.1200193464756012,0.00683647720143199,-0.11246992647647858,0.12334104627370834,-0.03986981511116028,0.011619937606155872,0.04168952256441116,0.06143597885966301,0.08435321599245071,-0.23768791556358337,0.03092026710510254,0.13491249084472656,0.06271124631166458,-0.21476039290428162,0.16809257864952087,-0.05767415463924408,-0.1453859806060791,-0.03695814684033394,-0.09325718134641647,0.02486710250377655,-0.2010801136493683,0.06444262713193893,-0.010106178931891918,-0.1370568424463272,0.15530802309513092,0.014998826198279858,0.06441699713468552,0.12763430178165436,0.09920049458742142,0.06656882911920547,0.1292715221643448,-0.2539847195148468,-0.12066248059272766,0.05172969400882721,0.15360023081302643,0.030561447143554688,0.21908850967884064,0.13466574251651764,0.005963039584457874,0.04376601800322533,-0.09062423557043076,-0.09558814018964767,-0.03385623171925545,0.12394382059574127,-0.08412022888660431,0.06499873846769333,-0.037157103419303894,-0.18377983570098877,-0.10729562491178513,0.03742360323667526,0.1024824008345604,-0.0636141300201416,0.20587459206581116,-0.007422916125506163,-0.11990118026733398,-0.055433325469493866],[0.19666549563407898,0.009874704293906689,-0.06499972194433212,0.0647122859954834,-0.07422982156276703,-0.05616142973303795,0.018839271739125252,0.0014180191792547703,-0.051380373537540436,0.262728214263916,0.13492724299430847,-0.04351263493299484,-0.30547186732292175,0.01603420078754425,-0.20596836507320404,-0.28226161003112793,0.06402326375246048,-0.16924327611923218,-0.06978870928287506,-0.06254926323890686,-0.0968514084815979,0.11648575961589813,-0.03069962188601494,0.0032448279671370983,0.147754967212677,0.06467216461896896,-0.1262487918138504,-0.07453781366348267,0.09501609206199646,0.11191172897815704,-0.08316516876220703,-0.09892229735851288,0.1630152463912964,-0.08470801264047623,0.2034260481595993,0.2317652851343155,0.11015523970127106,0.09461823105812073,-0.10887381434440613,0.05052333325147629,-0.0138850724324584,-0.08018356561660767,-0.15638624131679535,-0.07918514311313629,-0.1041937842965126,-0.09743136167526245,0.06789277493953705,0.1741035431623459,-0.02806784212589264,0.20221149921417236,0.011845081113278866,-0.15502572059631348,0.06561333686113358,0.0409407801926136,-0.13048499822616577,0.11224614828824997,-0.036802224814891815,0.10914812237024307,-0.021687867119908333,-0.24488939344882965,0.07019690424203873,0.001624769764021039,0.0591389425098896,0.4251146614551544],[0.031162232160568237,-0.16293327510356903,0.0025737197138369083,0.046540990471839905,0.0550888366997242,0.17664019763469696,-0.08879158645868301,0.012214495800435543,-0.04347044974565506,0.1975659281015396,0.3645547926425934,-0.10721446573734283,0.02713305503129959,-0.2910885512828827,0.07756247371435165,-0.019803598523139954,-0.1682261973619461,-0.005972439888864756,-0.11268384009599686,0.09484855085611343,-0.01276811957359314,-0.22842977941036224,-0.015587849542498589,-0.06809166073799133,-0.2083733230829239,0.10200301557779312,0.19359375536441803,-0.06255214661359787,-0.15472759306430817,0.15014265477657318,0.1157798171043396,0.1759716421365738,0.01262650452554226,0.019969940185546875,0.1566142588853836,0.03508541360497475,0.010033976286649704,0.05635328218340874,0.05602922663092613,0.18270578980445862,0.12754066288471222,-0.06565102934837341,-0.12882237136363983,0.047567930072546005,0.22541776299476624,-0.0706845298409462,0.1827421635389328,-0.007511657662689686,0.029005566611886024,0.05348428711295128,0.032659854739904404,-0.012463736347854137,-0.03264174610376358,0.14627815783023834,-0.1299213469028473,-0.11711341142654419,0.19258423149585724,-0.1058555617928505,0.022879933938384056,-0.1162092462182045,-0.08522862195968628,-0.034745994955301285,-0.03225209563970566,-0.022264255210757256],[-0.03626850247383118,0.02010858803987503,-0.005443822592496872,-0.062026236206293106,0.04542956128716469,0.1075630933046341,-0.1317628026008606,0.24103400111198425,-0.08593013137578964,0.0664341002702713,0.058649469166994095,-0.012655557133257389,0.023246387019753456,-0.058176375925540924,-0.006376908626407385,0.11110405623912811,0.022467495873570442,0.05172300711274147,-0.17756320536136627,0.016523705795407295,-0.05038672313094139,0.1584904044866562,-0.12150242924690247,0.01701158843934536,0.08713418245315552,0.20739589631557465,0.08743152767419815,-0.043218281120061874,-0.005852195899933577,-0.10276979207992554,-0.11404069513082504,0.12448641657829285,-0.08479297161102295,-0.02435111254453659,-0.1440981924533844,-0.10006606578826904,-0.06570492684841156,-0.007256676442921162,0.10685820132493973,-0.01253432221710682,-0.21819211542606354,-0.059382807463407516,0.08358720690011978,0.02587130106985569,0.013747096993029118,0.14307010173797607,0.07108330726623535,-0.16986246407032013,-0.057921018451452255,0.05879155173897743,0.031153082847595215,0.056361664086580276,0.16514162719249725,0.04222578927874565,0.02326241135597229,0.04903493821620941,0.2545621991157532,0.04233776777982712,0.02806995064020157,-0.048018671572208405,0.08902474492788315,-0.04741877689957619,-0.016433656215667725,-0.20617865025997162],[-0.2369382679462433,-0.307840496301651,-0.09731601178646088,0.012540986761450768,0.04290710389614105,0.0013666934100911021,0.15331467986106873,-0.08632013946771622,-0.15403006970882416,-0.004381745122373104,-0.07600737363100052,-0.09997125715017319,0.01715320348739624,-0.021579302847385406,0.14391416311264038,-0.1338568478822708,0.005959398578852415,-0.0748114287853241,-0.14022302627563477,-0.10546888411045074,-0.2679312229156494,0.007974614389240742,0.30010122060775757,-0.008065122179687023,0.1107848584651947,0.1556968092918396,-0.1503048539161682,0.02868862822651863,-0.19308584928512573,-0.1035117506980896,0.10845790058374405,-0.018817521631717682,0.0658222958445549,-0.08690515905618668,0.05905546247959137,0.04703282564878464,0.061008717864751816,-0.08966090530157089,0.33728840947151184,0.07596062868833542,0.04082081466913223,0.008927138522267342,0.014341182075440884,-0.07086509466171265,0.024294763803482056,0.05699193850159645,-0.177529975771904,0.019527986645698547,-0.137422114610672,-0.012481252662837505,0.026560103520751,0.05003868788480759,0.013910628855228424,-0.016617702320218086,0.1466480940580368,-0.03275381773710251,0.2319396436214447,-0.12819400429725647,-0.11164718866348267,-0.1379513293504715,0.030101878568530083,-0.12578438222408295,-0.18021059036254883,0.055893853306770325],[0.10751687735319138,-0.07477861642837524,0.12861190736293793,-0.014676696620881557,-0.007992405444383621,0.08719238638877869,0.153123140335083,0.2162904441356659,0.1938941925764084,-0.027967793866991997,-0.02439294010400772,0.19400842487812042,-0.01551449578255415,0.2592345178127289,-0.019628359004855156,-0.024061337113380432,-0.048718906939029694,-0.20533128082752228,-0.0835491195321083,-0.03096700645983219,-0.1333737075328827,0.05442987382411957,0.007967454381287098,-0.02238839492201805,0.1416778862476349,0.12031299620866776,-0.08453337103128433,-0.016053661704063416,-0.18971246480941772,-0.18360090255737305,-0.07923649251461029,0.1086331307888031,-0.10827727615833282,0.08613072335720062,-0.10280896723270416,-0.31031355261802673,0.14568860828876495,-0.030937623232603073,0.11990455538034439,0.06750590354204178,0.07191435247659683,-0.05751097574830055,-0.23322996497154236,-0.02665332891047001,-0.18606039881706238,-0.13951915502548218,0.198481947183609,-0.0052837892435491085,-0.23329687118530273,-0.11617245525121689,-0.053505297750234604,0.04854050651192665,-0.07577037811279297,-0.2674182951450348,-0.02409522980451584,-0.02904803678393364,-0.10937205702066422,0.011927245184779167,-0.07143744826316833,-0.004101674072444439,-0.04246991500258446,0.11265560984611511,-0.01690952479839325,-0.24089281260967255],[0.14943747222423553,0.15320777893066406,0.06598841398954391,-0.08039740473031998,-0.12705758213996887,0.21235312521457672,0.293587863445282,-0.01832166500389576,-0.06702738255262375,-0.04489023983478546,-0.04781987518072128,-0.04341910779476166,-0.028850410133600235,0.08468735963106155,-0.11667035520076752,0.07211343199014664,0.023877788335084915,-0.1699623316526413,-0.12265017628669739,0.03603151813149452,0.14877717196941376,-0.0406530536711216,-0.011179648339748383,-0.0310378260910511,0.047959696501493454,0.08337973803281784,-0.09798390418291092,-0.05038559436798096,-0.0007610475295223296,0.23935137689113617,-0.23369351029396057,-0.09016925096511841,0.050350382924079895,0.16839730739593506,-0.022209933027625084,0.1109636202454567,-0.061153605580329895,0.22427979111671448,-0.25821250677108765,-0.050316303968429565,-0.10427448898553848,0.11538051068782806,-0.12139599025249481,0.14844998717308044,0.01212058961391449,-0.06995245814323425,0.01641601324081421,0.08148296177387238,0.050323136150836945,0.0015033449744805694,-0.19080770015716553,-0.10560555756092072,0.07304772734642029,-0.08595031499862671,-0.006705861072987318,-0.1698305904865265,0.028581652790308,-0.05770275741815567,-0.08720392733812332,0.06676527112722397,-0.10610657185316086,0.02807231806218624,0.02610836923122406,0.01781521737575531],[-0.011426534503698349,-0.11216271668672562,0.07453496754169464,-0.2045513242483139,0.1018773540854454,-0.10207319259643555,0.037674680352211,0.11946941912174225,-0.041028909385204315,0.03835226595401764,0.09979519993066788,0.14891822636127472,-0.0767030194401741,-0.006119139492511749,-0.037922732532024384,0.16722480952739716,0.22402171790599823,-0.15736865997314453,-0.09487157315015793,-0.16373710334300995,0.0478915236890316,0.04114071652293205,-0.0025519891642034054,0.05630526319146156,-0.12906654179096222,-0.06027607619762421,-0.028759870678186417,-0.22744891047477722,-0.06732698529958725,-0.07329349219799042,-0.1904648095369339,-0.17092682421207428,-0.10841348022222519,-0.03393939882516861,-0.08595452457666397,0.13276612758636475,0.09444457292556763,0.1970171481370926,-0.050184134393930435,-0.040213219821453094,0.06503070890903473,0.0022318889386951923,0.02346702106297016,0.1629464030265808,-0.28672659397125244,-0.12307611107826233,-0.030246511101722717,-0.10706926137208939,-0.057038500905036926,-0.11049814522266388,-0.1402553915977478,-0.21294264495372772,-0.025756480172276497,0.14333133399486542,-0.05886463820934296,0.07442287355661392,0.12542754411697388,-0.01503119245171547,-0.04669664427638054,0.08299937099218369,-0.011785072274506092,0.22234322130680084,0.010398485697805882,-0.1711571216583252],[0.10504923015832901,-0.08203784376382828,0.18166303634643555,0.04085565358400345,-0.21372611820697784,0.036562953144311905,0.09440754354000092,0.18413887917995453,-0.04140555486083031,0.11875250935554504,-0.07353248447179794,-0.13396400213241577,0.06931588798761368,0.016564425081014633,0.048670846968889236,0.01089007593691349,0.09353118389844894,0.16141779720783234,-0.20292842388153076,0.047817107290029526,0.18260568380355835,-0.15281227231025696,-0.022948140278458595,-0.16661453247070312,-0.05564434081315994,0.041111525148153305,0.027728939428925514,0.09535754472017288,-0.3055521249771118,0.1228271871805191,0.0580979622900486,0.09909544885158539,0.07276470214128494,-0.24325397610664368,-0.04553472250699997,-0.07244519144296646,0.17946703732013702,-0.04814205318689346,-0.15900574624538422,0.0033497752156108618,-0.1002398133277893,0.1280764788389206,0.00649033160880208,-0.09160103648900986,-0.13370881974697113,-0.22423101961612701,-0.009938392788171768,-0.09405186027288437,0.142528235912323,0.18826721608638763,-0.10658083111047745,-0.10557875782251358,-0.025105653330683708,0.3153236508369446,0.0329606793820858,-0.096463143825531,-0.04271871969103813,0.07100071012973785,-0.037808857858181,0.045235421508550644,-0.07676982134580612,0.13514567911624908,-0.05126310884952545,-0.04138602316379547],[-0.00044310017256066203,-0.0232388898730278,-0.029612036421895027,-0.17839840054512024,-0.2256888449192047,0.18151354789733887,0.22189050912857056,0.17548011243343353,0.03809737041592598,0.18860696256160736,-0.18281935155391693,0.07629644125699997,-0.22293038666248322,0.0405595526099205,-0.02187422662973404,0.1893446147441864,-0.09774918854236603,-0.006962345447391272,-0.15854182839393616,0.004407077562063932,0.04018775373697281,-0.1034686490893364,-0.02081999182701111,0.11343827843666077,-0.022479938343167305,-0.07816082239151001,0.11950850486755371,0.16067565977573395,-0.06585800647735596,-0.08765729516744614,0.0029237724374979734,-0.3625892698764801,-0.1253429353237152,-0.1724964678287506,0.07916520535945892,-0.18729235231876373,-0.024783603847026825,-0.22108423709869385,-0.06283874064683914,0.13712166249752045,-0.003890597028657794,-0.18442732095718384,0.12795594334602356,0.19836722314357758,0.1454315334558487,0.011623983271420002,0.055488452315330505,-0.03550532087683678,0.014228337444365025,0.04452348127961159,0.1656508892774582,0.0038345775101333857,0.13129456341266632,-0.24056273698806763,-0.11268539726734161,-0.08244287967681885,-0.20756958425045013,-0.0601491779088974,-0.023009438067674637,0.07380340993404388,-0.08658234775066376,0.14963366091251373,-0.17053820192813873,0.08416280895471573],[0.017086567357182503,0.2949035167694092,0.2678443491458893,0.147770494222641,-0.07548753917217255,-0.019093167036771774,0.061082787811756134,0.10667350143194199,0.043774958699941635,-0.012348296120762825,-0.09732352197170258,0.18892787396907806,-0.09275753796100616,0.13778530061244965,-0.04420541226863861,0.02961198426783085,0.058412183076143265,-0.10261202603578568,-0.03116336464881897,-0.03965024650096893,0.24849118292331696,-0.0921538919210434,-0.1648218184709549,-0.04352353885769844,0.1580919772386551,-0.2544456720352173,0.05995389446616173,0.04011538624763489,-0.2146175503730774,0.0849577859044075,0.007211027666926384,-0.02163228765130043,0.03560676798224449,-0.26537299156188965,0.013030068948864937,-0.04221032187342644,0.013596593402326107,-0.10524838417768478,-0.0018904146272689104,-0.0391061045229435,-0.12993143498897552,-0.07484650611877441,0.005126772914081812,0.0004082581726834178,-0.188008114695549,-0.05253763869404793,0.00032512846519239247,0.010214997455477715,0.22057372331619263,-0.13374897837638855,0.008260350674390793,-0.08243295550346375,-0.08175887167453766,-0.0474725179374218,0.009977515786886215,0.2567812502384186,0.09376423060894012,0.19562961161136627,-0.11621260643005371,-0.004406379535794258,0.045445866882801056,-0.297394722700119,0.2147689312696457,0.00609233696013689],[-0.023380259051918983,0.04923326522111893,0.055903881788253784,0.2762469947338104,-0.07239717990159988,-0.010725125670433044,-0.0992826446890831,-0.004667587112635374,0.20303337275981903,-0.0026981690898537636,0.032153964042663574,-0.26652976870536804,-0.1455908715724945,-0.21962261199951172,0.07199893891811371,0.0006357428501360118,0.14608412981033325,0.12874972820281982,0.010954875499010086,-0.018995851278305054,-0.0751558393239975,0.017958706244826317,0.26647475361824036,-0.09480288624763489,-0.20743320882320404,0.24888624250888824,0.044842738658189774,-0.1905284970998764,-0.1033654510974884,0.08866610378026962,-0.0011087929597124457,-0.09177219867706299,0.1762256771326065,0.04043695703148842,0.025694526731967926,0.16083623468875885,0.21725690364837646,0.0010142403189092875,-0.2613743841648102,-0.11006749421358109,-0.020504668354988098,-0.07534879446029663,0.004437576048076153,0.061989083886146545,0.07207078486680984,0.06142648681998253,-0.1805977076292038,0.0960613414645195,0.00699759041890502,0.029805125668644905,-0.1745089292526245,-0.016092346981167793,0.14237895607948303,-0.0740247368812561,0.1389317810535431,-0.2533376216888428,-0.12508893013000488,-0.05306919664144516,0.13504458963871002,0.10874326527118683,0.019920000806450844,0.09388742595911026,0.1149592250585556,0.18166564404964447],[0.10044989734888077,-0.06769741326570511,0.05928771570324898,-0.045739177614450455,0.012737693265080452,-0.1218152642250061,0.1898268759250641,0.08923659473657608,0.2678680717945099,-0.08456939458847046,-0.045252878218889236,0.06778962165117264,-0.038538359105587006,0.15614046156406403,-0.04541848599910736,-0.13814900815486908,-0.07733389735221863,0.004627809394150972,0.08328329771757126,0.1702941656112671,0.020943166688084602,-0.04132183641195297,-0.11280428618192673,0.024183914065361023,0.058423686772584915,-0.10911531746387482,0.02973763644695282,-0.12073346227407455,-0.0561552494764328,0.16554033756256104,0.13072167336940765,0.06242287531495094,0.015392716974020004,0.31461599469184875,-0.09484308958053589,-0.0435129776597023,-0.0005550573114305735,0.11421690136194229,0.13987718522548676,-0.14063189923763275,0.14904099702835083,0.06355763971805573,0.2250654250383377,0.2011559009552002,-0.08842828869819641,-0.19749456644058228,-0.09633147716522217,0.0037440184969455004,0.021651506423950195,-0.022712815552949905,-0.05179798603057861,0.012756915763020515,0.007771923206746578,0.12671607732772827,-0.059197310358285904,-0.080563485622406,-0.0990598201751709,-0.0023269611410796642,0.21461090445518494,0.042648863047361374,-0.15357722342014313,0.05514070391654968,0.007684240583330393,-0.018666939809918404],[0.01213317271322012,0.09285571426153183,0.1255098134279251,-0.2607005536556244,0.05092081427574158,0.16078530251979828,0.10594604909420013,-0.11615005135536194,-0.02672179415822029,-0.15270040929317474,-0.04798412695527077,-0.004811441525816917,-0.2573919892311096,-0.0978933647274971,-0.09041023999452591,-0.012297011911869049,-0.07665844261646271,-0.1270160675048828,0.14652182161808014,-0.17591767013072968,-0.1695100963115692,0.11997875571250916,-0.06181157007813454,-0.07685677707195282,-0.2604060769081116,0.04610108956694603,-0.032482173293828964,-0.08271687477827072,0.051597706973552704,-0.022798962891101837,0.03879990056157112,0.16582365334033966,0.2940579950809479,0.0026360962074249983,-0.08502522110939026,0.13852447271347046,-0.11589088290929794,-0.08714286237955093,-0.19678622484207153,0.025806358084082603,0.056208960711956024,0.23268961906433105,0.12974651157855988,0.05293884500861168,-0.02831154316663742,0.07758228480815887,-0.03986286744475365,-0.18816764652729034,0.1830136775970459,-0.16814899444580078,0.008116665296256542,0.015379639342427254,-0.12347333133220673,-0.03254729136824608,-0.029945572838187218,-0.04750148206949234,-0.21838732063770294,0.09705711156129837,-0.13555417954921722,-0.08951796591281891,0.07835330814123154,-0.18235507607460022,-0.013764461502432823,-0.09790778160095215],[0.13999666273593903,0.10922848433256149,-0.06528762727975845,-0.07148081064224243,-0.030410267412662506,0.18380630016326904,-0.10331203043460846,-0.07345426082611084,0.05831924453377724,0.08695410192012787,0.1025121808052063,0.16971968114376068,-0.25108733773231506,-0.12525171041488647,-0.17471154034137726,-0.15639528632164001,-0.2518012225627899,0.17758451402187347,-0.06523846089839935,0.195855513215065,-0.007760105188935995,-0.22935225069522858,0.09693663567304611,0.19736306369304657,-0.16982966661453247,0.10810456424951553,0.0465976856648922,0.21702690422534943,0.10761815309524536,0.03414929658174515,0.13473109900951385,0.16079440712928772,-0.04503761976957321,-0.16206717491149902,0.012963655404746532,0.003662007860839367,0.010031991638243198,-0.05627516284584999,-0.023411646485328674,-0.12267515808343887,-0.13106726109981537,0.13053257763385773,0.012620387598872185,0.21017861366271973,-0.16782326996326447,0.04175270348787308,0.022804155945777893,-0.09617830067873001,-0.15638259053230286,0.11853457242250443,0.15124371647834778,-0.024319753050804138,-0.025187820196151733,-0.08542635291814804,0.13849025964736938,0.020103685557842255,-0.08119965344667435,0.08175991475582123,0.024297721683979034,0.0038703910540789366,-0.058458853513002396,0.09513521939516068,-0.10599324107170105,-0.07533097267150879],[0.0961708128452301,-0.09916208684444427,-0.14838913083076477,0.034704674035310745,-0.00377981667406857,-0.3198397755622864,-0.02224121056497097,0.027954213321208954,0.03999078646302223,-0.0533226877450943,-0.1194477379322052,0.03641032055020332,0.02887413278222084,-0.07835789024829865,0.05336220934987068,0.13495934009552002,0.09430620074272156,-0.14866666495800018,-0.041698653250932693,-0.10002749413251877,-0.08533407747745514,-0.010222290642559528,-0.10990306735038757,-0.12183407694101334,-0.09292774647474289,0.04881812259554863,0.05087803676724434,-0.07964181154966354,0.03718286380171776,-0.10376490652561188,-0.14648623764514923,-0.30077341198921204,-0.07097462564706802,-0.1279851794242859,-0.07920821756124496,0.13004754483699799,-0.09107531607151031,-0.08541721850633621,-0.01854924112558365,-0.02121349610388279,0.18414363265037537,-0.07533269375562668,-0.04054728522896767,0.01992969587445259,-0.21810105443000793,0.006036101840436459,-0.09692800045013428,-0.06471377611160278,0.04058195650577545,-0.07285633683204651,0.06972190737724304,-0.01892613247036934,0.15695296227931976,0.014553836546838284,-0.04321267083287239,-0.04044627770781517,-0.0477432981133461,0.06219004839658737,-0.12253402173519135,0.04451441019773483,-0.11158552020788193,0.05309036001563072,-0.04728708788752556,-0.024440543726086617],[-0.023764096200466156,0.13058504462242126,0.03875061497092247,0.17637212574481964,-0.004954306408762932,0.00323914410546422,0.14205601811408997,-0.1727219671010971,-0.04820151627063751,-0.10306423157453537,0.00576925091445446,-0.20482617616653442,0.04436058923602104,0.12406725436449051,-0.14079566299915314,0.29095008969306946,0.24056518077850342,-0.11655008792877197,-0.017686881124973297,0.14544153213500977,-0.3298884332180023,-0.018871929496526718,0.015969835221767426,0.11034627258777618,0.04071378335356712,-0.16231824457645416,0.050166934728622437,0.18290549516677856,-0.013197459280490875,0.015995247289538383,0.20404550433158875,-0.21033436059951782,0.2404400110244751,0.07893012464046478,0.0597049742937088,-0.18191446363925934,0.060526043176651,-0.08804842829704285,0.08505745977163315,-0.02446182817220688,-0.010963822714984417,-0.09776417165994644,-0.11028428375720978,0.1700320988893509,-0.2665301263332367,0.044148098677396774,-0.1460791677236557,0.01901712641119957,0.12305231392383575,0.14389604330062866,0.02327095717191696,0.019224684685468674,0.24502624571323395,-0.015671325847506523,0.07346925139427185,0.06656850874423981,-0.0322546623647213,0.034539543092250824,0.11382962763309479,0.025854993611574173,0.13469655811786652,-0.06648869067430496,-0.008665869943797588,0.16353105008602142],[0.21465268731117249,-0.18313448131084442,0.14590325951576233,-0.01830650493502617,0.03568648546934128,0.17422367632389069,-0.0030585075728595257,0.07065171003341675,-0.030651411041617393,-0.05870989337563515,0.24752604961395264,-0.10926010459661484,0.006030274089425802,0.02940969541668892,-0.0015077770221978426,0.03661409392952919,0.09576954692602158,-0.13426586985588074,-0.011173504404723644,-0.028342552483081818,0.06559953093528748,0.1360071897506714,-0.009241628460586071,-0.1883544772863388,-0.05210569500923157,0.10377030074596405,0.14987027645111084,-0.09119775146245956,-0.13168731331825256,-0.10601894557476044,-0.0418841578066349,0.1397957056760788,-0.03175133094191551,-0.11929869651794434,-0.030016088858246803,-0.06724125146865845,-0.13248226046562195,0.06642110645771027,0.060955896973609924,0.05425141751766205,-0.09969548135995865,0.08634044229984283,0.08196761459112167,-0.021330051124095917,0.010437127202749252,-0.019512539729475975,-0.10233531147241592,0.1585378348827362,-0.040872376412153244,0.20711956918239594,0.03753260150551796,-0.006180955562740564,-0.02460789680480957,-0.18450519442558289,0.22759714722633362,-0.2451920062303543,0.047526177018880844,-0.0803176537156105,0.06205662712454796,0.07296737283468246,-0.07778472453355789,0.04775579273700714,-0.06862026453018188,0.07157963514328003],[-0.06096459925174713,0.0188894122838974,-0.022005800157785416,0.12637777626514435,0.03683881834149361,-0.0189998559653759,-0.06822332739830017,-0.010620305314660072,0.055735994130373,0.0004666947352234274,0.07511492818593979,-0.04611990973353386,-0.09278837591409683,-0.026269471272826195,0.17373578250408173,0.1139567494392395,0.032342154532670975,-0.3081236183643341,-0.1383672058582306,0.06955777853727341,0.01602945663034916,-0.23987118899822235,-0.13215425610542297,0.06421703845262527,0.10920292139053345,0.1321212500333786,0.016862861812114716,0.1367093324661255,0.08790963143110275,-0.03391381725668907,0.14874471724033356,-0.004581152927130461,-0.06830767542123795,-0.058836061507463455,0.02790141850709915,0.06422872841358185,0.032332442700862885,-0.06555637717247009,0.20534294843673706,0.033126961439847946,-0.13844850659370422,-0.12093397974967957,0.041816346347332,-0.07025685161352158,0.012604656629264355,-0.03538971766829491,0.14666098356246948,0.17816229164600372,0.05783446505665779,-0.08268870413303375,0.02254526875913143,0.16348905861377716,-0.17657092213630676,0.10608172416687012,0.11614412069320679,0.1601199060678482,-0.03729671612381935,-0.06989512592554092,0.07239463180303574,-0.36615970730781555,0.1935940384864807,-0.01972111500799656,-0.059110041707754135,0.07632200419902802],[0.13467562198638916,0.0732036828994751,0.10383341461420059,-0.1284288763999939,0.14022068679332733,-0.06244836375117302,0.13630922138690948,-0.0364546924829483,0.08615840971469879,-0.021230701357126236,0.24119970202445984,0.09369194507598877,-0.15603961050510406,0.009639587253332138,0.05083397403359413,-0.19250963628292084,0.04184974730014801,-0.257724404335022,0.16509832441806793,-0.061508286744356155,0.020092502236366272,0.15936969220638275,-0.10062222927808762,0.018439097329974174,-0.05306624993681908,-0.09015433490276337,-0.06943762302398682,0.17430129647254944,-0.23002877831459045,-0.13050547242164612,0.022329989820718765,0.017524389550089836,0.06044408679008484,0.03758319094777107,-0.03289389610290527,0.18479755520820618,0.0563911497592926,-0.008993379771709442,-0.1600554883480072,0.09002310037612915,0.029092183336615562,-0.07053878903388977,0.06063555181026459,0.15397971868515015,-0.10848623514175415,0.12562741339206696,-0.03888691961765289,0.008056476712226868,0.028131160885095596,-0.23499836027622223,-0.039187926799058914,-0.01694830134510994,0.022674765437841415,0.18257944285869598,0.03906291350722313,0.13836908340454102,-0.09245054423809052,0.010050926357507706,-0.011522039771080017,-0.19888561964035034,0.1102621927857399,0.16027560830116272,0.05383000150322914,-0.05133194476366043],[0.18228523433208466,-0.07877509295940399,0.107259102165699,0.10911223292350769,0.08168656378984451,-0.019401896744966507,0.039118580520153046,-0.20350533723831177,-0.05246121808886528,0.19300082325935364,-0.2217472642660141,-0.053481586277484894,-0.03826354071497917,0.03214507922530174,0.1177888959646225,0.10725681483745575,-0.001395821338519454,0.05079827085137367,0.10090091824531555,-0.04903416335582733,-0.0767822414636612,0.22721955180168152,0.08034317195415497,0.04837211221456528,-0.007782414089888334,0.002253539627417922,0.20388227701187134,-0.00630657933652401,0.019685901701450348,-0.04799015447497368,0.11344529688358307,-0.11062163859605789,-0.04903866723179817,-0.05169863998889923,-0.17687872052192688,0.03031671792268753,-0.025918861851096153,0.16649730503559113,0.2001548707485199,0.055320221930742264,0.09662145376205444,-0.06062649190425873,-0.1417507380247116,-0.07534938305616379,0.02556120604276657,-0.0017184203024953604,-0.18996939063072205,0.26730263233184814,-0.14705519378185272,-0.039732031524181366,0.09535636007785797,0.15258102118968964,0.2659624516963959,0.052921902388334274,-0.036848537623882294,-0.08916228264570236,0.15596848726272583,-0.2509719431400299,-0.044716767966747284,-0.012750774621963501,0.00375846098177135,-0.05703539401292801,0.06926528364419937,-0.06711917370557785],[-0.019390789791941643,0.00038628902984783053,-0.29549935460090637,0.2566247284412384,0.015179775655269623,-0.04466796666383743,-0.028134215623140335,0.08016383647918701,-0.017778413370251656,0.04624740406870842,-0.0007727317279204726,-0.019037168473005295,0.3188594877719879,0.08380752801895142,-0.045250993221998215,-0.03281060606241226,0.0678001418709755,-0.1324809491634369,-0.1563347578048706,-0.22117121517658234,-0.10735151916742325,-0.039905350655317307,0.21662020683288574,0.18847228586673737,0.1580229252576828,0.08341152966022491,0.20409318804740906,0.09807264804840088,-0.06135498359799385,0.07711883634328842,-0.03946375474333763,-0.08325232565402985,0.0008618247229605913,0.24793313443660736,-0.17376112937927246,0.04127891734242439,0.039990510791540146,0.18007327616214752,-0.10819888114929199,0.1019011065363884,-0.12746334075927734,-0.029268262907862663,0.067661814391613,-0.054838910698890686,0.009914156049489975,-0.13214649260044098,0.1259186714887619,-0.11317884922027588,-0.06503608077764511,0.0777336061000824,-0.2507133483886719,0.0959799587726593,0.043004292994737625,0.0016851989785209298,-0.20541802048683167,-0.08397049456834793,-0.23844829201698303,-0.08384893089532852,-0.09063752740621567,-0.021539296954870224,0.08937908709049225,0.11389216035604477,0.058059852570295334,0.08355627208948135],[-0.09785445034503937,0.12370558083057404,-0.06137353926897049,0.06688718497753143,0.1570187211036682,-0.08361704647541046,-0.056013863533735275,-0.01732637733221054,0.08686545491218567,0.2619740664958954,0.25957125425338745,-0.15209230780601501,-0.11090172082185745,0.27949851751327515,0.056364934891462326,0.1354288011789322,0.0374983511865139,-0.14087386429309845,0.029927566647529602,0.08033087104558945,-0.0981016457080841,0.14317743480205536,0.23759444057941437,0.003769748378545046,-0.07886185497045517,0.11296438425779343,-0.03426928073167801,0.3845372498035431,0.08071352541446686,0.28684180974960327,0.05840766802430153,-0.18495506048202515,0.13088850677013397,-0.028599966317415237,-0.18447118997573853,-0.04672936722636223,0.12703785300254822,0.16790111362934113,0.11538338661193848,0.0799039900302887,0.038358334451913834,-0.03743787109851837,-0.345990926027298,0.10987291485071182,-0.17104366421699524,0.09673988819122314,0.10271769762039185,0.006118989083915949,-0.061513256281614304,-0.12967711687088013,-0.12738288938999176,-0.05313718691468239,0.0733841061592102,-0.01826046034693718,-0.06535452604293823,0.03265160694718361,-0.042268961668014526,-0.037631548941135406,0.029468543827533722,0.2046908438205719,-0.26957398653030396,0.07653222978115082,-0.09367010742425919,-0.08936575800180435],[-0.044747818261384964,0.13490603864192963,0.02382548898458481,-0.1431441307067871,-0.1286415308713913,-0.18765705823898315,-0.005860752426087856,-0.020373424515128136,-0.14561830461025238,-0.21131248772144318,-0.19115351140499115,0.02892131172120571,0.0891551747918129,-0.08548342436552048,0.010708799585700035,0.08248826116323471,-0.11110402643680573,-0.06585719436407089,-0.00029387016547843814,0.08720050752162933,-0.0363975465297699,0.1343773901462555,-0.13806654512882233,0.07449652254581451,-0.04408583045005798,0.07968149334192276,0.08078077435493469,0.09229125827550888,0.17977726459503174,0.10428547114133835,0.03629064932465553,0.10984694212675095,0.1829986870288849,0.12750621140003204,-0.13336239755153656,-0.16316214203834534,0.16139726340770721,0.14767137169837952,-0.005094027612358332,0.10564064234495163,