{"model_type":"parametric_kepler_residual_surrogate","architecture":{"time_input_dim":40,"param_dim":2,"condition_dim":48,"hidden_dim":96,"hidden_layers":5,"output_dim":4,"activation":"tanh","num_fourier_frequencies":8,"feature_type":"kepler_anomaly","output_mode":"kepler_residual","residual_scale":0.02,"kepler_iterations":7},"parameter_bounds":{"eccentricity":[0.0,0.8],"eccentricity_eval":[0.0,0.9],"semi_major_axis_m":[6600000.0,45000000.0]},"normalization":{"mu_normalized":1.0,"semi_major_axis_normalized":1.0,"period_normalized":6.283185307179586,"state_units":"normalized [x, y, vx, vy]"},"weights":{"condition_encoder":[{"weight":[[0.043148867785930634,-0.00894924160093069],[-0.04771021753549576,0.2323213368654251],[-0.10994322597980499,-0.0668393075466156],[0.1842716932296753,0.12406175583600998],[-0.18093428015708923,0.2821400761604309],[-0.003291571047157049,-0.021218087524175644],[-0.06647252291440964,0.2217705398797989],[-0.07653661072254181,-0.0076237390749156475],[0.2485530823469162,-0.11662758886814117],[-0.18677757680416107,0.23931759595870972],[0.33028870820999146,0.03481423854827881],[-0.19873382151126862,0.2014452964067459],[-0.1209278255701065,0.227571502327919],[-0.11406970769166946,-0.20720668137073517],[0.06713436543941498,-0.2649337649345398],[-0.047042880207300186,-0.24547609686851501],[-0.08427251875400543,-0.10498872399330139],[0.11917109042406082,-0.11141964048147202],[0.15633128583431244,-0.0008264196803793311],[0.16960690915584564,0.0691506490111351],[-0.30569058656692505,0.2923436462879181],[-0.03730370104312897,-0.4124346077442169],[-0.28085780143737793,0.06018105894327164],[0.11422841250896454,0.027370285242795944],[-0.27607473731040955,0.2319246381521225],[0.22790320217609406,-0.21773768961429596],[-0.0850912407040596,-0.09011929482221603],[0.22290334105491638,0.15260213613510132],[-0.04756566882133484,0.029458537697792053],[-0.06356947124004364,-0.19769005477428436],[0.221917062997818,0.34025463461875916],[0.4524517059326172,-0.24006609618663788],[0.3644922077655792,0.19184616208076477],[-0.10600944608449936,0.197626531124115],[-0.034878578037023544,-0.07323317229747772],[0.20653344690799713,-0.26129090785980225],[-0.04320965334773064,0.0779019445180893],[-0.21065664291381836,-0.26672041416168213],[-0.16412733495235443,-0.29168298840522766],[-0.008415624499320984,-0.14686644077301025],[0.06851179897785187,-0.35196417570114136],[0.2953796684741974,0.03257754445075989],[0.14922340214252472,0.3935079872608185],[0.11750658601522446,0.03358881548047066],[-0.2448260337114334,0.11508384346961975],[-0.16405294835567474,-0.13798421621322632],[0.02618863247334957,0.18918873369693756],[-0.47522786259651184,-0.0003128928074147552]],"bias":[-0.0005171172670088708,0.0025980060454458,0.0010918763000518084,-0.0016224040882661939,-0.0017324957298114896,-0.0005833354080095887,-4.746116974274628e-05,-0.004872890654951334,-0.0011589342029765248,-5.570625580730848e-05,-0.002572842175140977,0.0015012858202680945,0.0010994841577485204,-0.0035440814681351185,-0.0031796665862202644,-0.002264362992718816,0.00016805517952889204,0.00018404435832053423,-0.00013116694753989577,-0.0011899565579369664,-0.005445978604257107,0.0016582288080826402,0.001200778759084642,0.003668078687041998,0.0032782002817839384,-0.0008543212315998971,0.0010779480217024684,-0.0011975164525210857,-0.004163701552897692,-0.0001888279803097248,-0.004701722413301468,0.0029816911555826664,-0.00022364399046637118,-0.00018227849795948714,-0.0019873930141329765,0.0017214774852618575,3.701321838889271e-05,0.0016732839867472649,-0.000999464187771082,-0.0006316495127975941,0.0022481856867671013,0.004155077505856752,0.0012185964733362198,-0.0017410892760381103,0.0014950454933568835,0.0008929347968660295,0.00488943001255393,-0.00030851870542392135]},{"weight":[[-0.06015632301568985,0.0993204414844513,0.3132898807525635,0.14821329712867737,0.08457747846841812,-0.10049223899841309,-0.13608089089393616,0.06334790587425232,0.19910785555839539,0.12140660732984543,0.13690125942230225,-0.1723962426185608,-0.02398945949971676,0.07973503321409225,0.12026435881853104,-0.060466524213552475,-0.07853350043296814,-0.21626104414463043,-0.06193794310092926,-0.28488394618034363,0.015903782099485397,0.18117676675319672,0.1396610289812088,-0.06701795011758804,0.13674411177635193,-0.09205759316682816,-0.046296246349811554,-0.0533447340130806,0.2930097281932831,0.08511584252119064,0.33282458782196045,0.16740058362483978,0.13987162709236145,0.028397683054208755,0.10493790358304977,0.28253301978111267,0.015656767413020134,-0.13981987535953522,0.0897243320941925,0.10428812354803085,0.14099298417568207,-0.03586193174123764,-0.13997742533683777,-0.1897135227918625,-0.054782088845968246,0.14151473343372345,0.24074900150299072,0.03590099513530731],[0.16780520975589752,0.13640007376670837,-0.3918055295944214,0.0007639124523848295,0.017753446474671364,-0.33527615666389465,-0.09362009167671204,-0.17318624258041382,0.09066871553659439,0.0010570244630798697,-0.0474485345184803,-0.1504812240600586,0.25326329469680786,-0.08467737585306168,-0.19603297114372253,-0.22010396420955658,-0.10087978094816208,0.28059470653533936,0.010994916781783104,0.20014825463294983,0.15955039858818054,0.2078801542520523,0.03579001501202583,0.12023742496967316,-0.011225531809031963,-0.07738587260246277,0.052567340433597565,-0.01715128868818283,0.04762902110815048,-0.046721603721380234,-0.13022632896900177,0.4383091926574707,0.022964835166931152,0.023419834673404694,0.26095324754714966,0.007002636324614286,0.1048220619559288,-0.12927772104740143,0.016407348215579987,-0.06968192011117935,-0.04700709506869316,-0.08445174992084503,0.11100208014249802,-0.3249427080154419,-0.13540594279766083,0.06055063381791115,0.1888420581817627,0.13970023393630981],[-0.10261270403862,-0.004532072693109512,-0.14493690431118011,0.14705617725849152,0.012664646841585636,0.07486215978860855,0.07240317016839981,0.31581228971481323,-0.1952107846736908,0.059214163571596146,0.06563235819339752,-0.19610996544361115,0.2373148500919342,-0.01809239760041237,0.10542739182710648,0.19865776598453522,-0.1310717910528183,0.2591641843318939,-0.24876777827739716,-0.03642812371253967,0.10984402149915695,-0.08867815881967545,0.049645040184259415,-0.08736336976289749,0.24312907457351685,-0.1416291445493698,0.03321889415383339,0.023275166749954224,0.07824158668518066,0.061382390558719635,0.06198962405323982,-0.061556942760944366,-0.02041170746088028,0.06280791759490967,-0.013865495100617409,0.1513141691684723,-0.08698630332946777,0.1770128756761551,0.23442108929157257,0.13177448511123657,0.021997585892677307,-0.12454564869403839,0.16543257236480713,-0.1559416502714157,-0.10541330277919769,0.02961307391524315,-0.15526121854782104,-0.06286662817001343],[0.10451024025678635,-0.0854271873831749,0.17480333149433136,-0.09766659140586853,-0.10859750956296921,0.14709357917308807,0.01565956510603428,-0.04238147661089897,-0.1141178086400032,0.19676758348941803,0.3171602189540863,-0.0683162584900856,-0.16813218593597412,-0.0897405818104744,-0.1017145961523056,0.20108604431152344,0.046217478811740875,-0.06889517605304718,-0.06931132823228836,-0.03582457825541496,-0.06662634760141373,0.03819199651479721,-0.05997001752257347,-0.25818443298339844,-0.19683115184307098,-0.1758357137441635,0.1081690862774849,-0.03191124647855759,0.10200998187065125,-0.045631688088178635,-0.10908351838588715,0.16017331182956696,-0.3303232789039612,0.03796928748488426,-0.2427045851945877,-0.09319498389959335,-0.0026384282391518354,0.16222412884235382,-0.17713499069213867,-0.043336547911167145,0.1911485642194748,0.17975503206253052,0.06027558818459511,-0.024800870567560196,-0.014722170308232307,0.008637414313852787,-0.023775583133101463,-0.09018126130104065],[-0.12796621024608612,0.17400692403316498,0.365823358297348,-0.012528281658887863,-0.0033410396426916122,-0.12257421761751175,0.23336945474147797,0.1956489533185959,-0.29710158705711365,0.0930865928530693,-0.23411397635936737,-0.13910099864006042,0.25891268253326416,0.06386417150497437,0.15724478662014008,0.028875933960080147,-0.058190274983644485,-0.04822255298495293,0.029114650562405586,0.059904806315898895,0.0012374721700325608,0.01316988468170166,0.15034270286560059,0.018730690702795982,0.08712015300989151,0.014974216930568218,0.03151191771030426,0.16539084911346436,-0.06671541184186935,-0.02507496438920498,-0.037895508110523224,0.3716009855270386,-0.2139267474412918,-0.005957797635346651,0.007296394091099501,0.03456691652536392,-0.09161501377820969,-0.09275809675455093,-0.08062654733657837,0.05819402262568474,-0.26386111974716187,-0.22669441998004913,0.24665650725364685,-0.1129826083779335,0.13736894726753235,0.030419833958148956,0.23138408362865448,-0.38716357946395874],[-0.04065831005573273,0.010707844980061054,0.03101486526429653,0.05135926604270935,0.2123274803161621,0.07655283808708191,0.06871388852596283,0.024762295186519623,-0.23260249197483063,-0.11453337222337723,-0.018417034298181534,-0.03573567792773247,-0.2844785153865814,0.05234644189476967,-0.3448338806629181,0.15897221863269806,-0.3218591809272766,0.013241995126008987,0.18110419809818268,-0.12333054095506668,-0.031690988689661026,-0.008404429070651531,-0.004924404434859753,0.1828935295343399,0.04607773944735527,0.030073288828134537,0.16663587093353271,0.12464078515768051,-0.17187891900539398,0.05912867188453674,-0.03525363653898239,-0.08194730430841446,-0.18519924581050873,0.26288267970085144,0.07786203175783157,0.022736256942152977,0.06725867837667465,0.1430983990430832,0.11497681587934494,-0.09722799807786942,0.0060875737108290195,0.06227131187915802,0.13559232652187347,0.026938937604427338,0.08689270168542862,-0.07467544823884964,0.01490479614585638,0.17495544254779816],[0.024940233677625656,-0.08883383125066757,-0.17121955752372742,-0.14522401988506317,0.020265299826860428,-0.17653121054172516,0.29644975066185,0.1880471110343933,0.03938456252217293,-0.1403292566537857,0.04992400109767914,0.11068080365657806,0.021731920540332794,-0.15686330199241638,0.07899599522352219,0.19411352276802063,-0.08763863891363144,-0.16814932227134705,0.10702686756849289,-0.03531163930892944,0.15593835711479187,-0.14668554067611694,0.23330238461494446,0.024943094700574875,0.10724955797195435,0.08418121188879013,0.015939533710479736,0.034016333520412445,-0.036163654178380966,0.16035690903663635,0.12719155848026276,0.34143489599227905,0.09763845056295395,-0.11069071292877197,0.0042551299557089806,-0.09176354855298996,-0.0624203123152256,0.16192997992038727,-0.008599733002483845,0.13457992672920227,-0.06494759023189545,-0.15885713696479797,0.08916822820901871,0.05384046211838722,0.035354360938072205,0.08187665045261383,-0.1730945110321045,0.10026902705430984],[0.009887629188597202,-0.17119920253753662,-0.0068869455717504025,0.12626227736473083,-0.09715951979160309,0.11018380522727966,-0.04491009563207626,0.009442180395126343,-0.1761377602815628,-0.1259247362613678,-0.15307718515396118,-0.12643636763095856,0.09311243146657944,0.04902651533484459,-0.12374070286750793,-0.07201726734638214,0.07201607525348663,0.07328545302152634,-0.11891184747219086,0.14108902215957642,-0.0775948166847229,-0.0179904717952013,-0.16100941598415375,-0.07067932933568954,-0.10307428240776062,0.01471827831119299,-0.22336328029632568,-0.08950267732143402,0.048092566430568695,-0.008257748559117317,-0.01620475947856903,0.022069094702601433,-0.13029319047927856,-0.02102869749069214,-0.04622112959623337,-0.11171671748161316,0.05342625454068184,-0.0938308909535408,-0.04418366774916649,-0.0697009414434433,0.2308814823627472,-0.1302008479833603,-0.12729038298130035,0.13569621741771698,0.07114329189062119,-0.3213713467121124,0.08788160234689713,-0.4410134255886078],[-0.03946218267083168,-0.064224474132061,0.24192596971988678,-0.05194446071982384,-0.1667918860912323,-0.005534854251891375,-0.03389269486069679,-0.024734586477279663,-0.013965917751193047,-0.03871708735823631,-0.13697130978107452,-0.04635411128401756,-0.2284039855003357,-0.01711546815931797,-0.10360556840896606,-0.1949365735054016,0.18406714498996735,-0.04309786856174469,0.2569352686405182,0.10852521657943726,-0.09608621895313263,0.006610963959246874,0.1806430071592331,0.09719855338335037,0.2741071283817291,-0.30277612805366516,0.030374247580766678,-0.040527328848838806,-0.00757696945220232,0.015057475306093693,0.06814076751470566,0.12281389534473419,-0.049098022282123566,0.012757382355630398,-0.1395331621170044,-0.24254952371120453,-0.10762780159711838,-0.15184614062309265,-0.20323917269706726,0.0699930191040039,0.30054807662963867,-0.05211421474814415,0.03383997827768326,-0.05440788343548775,-0.11131343990564346,-0.16585753858089447,0.06365375220775604,0.07107733190059662],[0.19011537730693817,0.11653979122638702,0.02962871454656124,-0.04420088231563568,-0.1795160323381424,-0.17406949400901794,-0.09705968201160431,0.27517861127853394,-0.21447642147541046,-0.0671047642827034,0.08772941678762436,0.1568906605243683,-0.14335700869560242,0.027112197130918503,-0.027038393542170525,-0.0559731088578701,0.10580278187990189,-0.15277782082557678,-0.08535726368427277,0.27221938967704773,-0.015362639911472797,-0.09320724755525589,-0.26729413866996765,0.12881463766098022,-0.1284787356853485,0.06391242891550064,-0.07959553599357605,0.07812318950891495,-0.29456862807273865,-0.11322395503520966,-0.1429399847984314,0.08567222207784653,-0.08971798419952393,-0.12619756162166595,0.16999705135822296,-0.23568876087665558,-0.07776039838790894,0.02548694796860218,-0.20044732093811035,0.2717518210411072,-0.15041768550872803,-0.2199980616569519,0.10352588444948196,0.007270351517945528,0.11782344430685043,-0.059427667409181595,-0.23311808705329895,0.04763958230614662],[0.038527343422174454,-0.24025698006153107,-0.1475648283958435,-0.23870010673999786,0.08905986696481705,-0.019183294847607613,-0.0038452385924756527,-0.010759943164885044,-0.06759831309318542,-0.2665058374404907,-0.06478305906057358,-0.03282967582345009,0.2550341486930847,-0.10979639738798141,0.0013664793223142624,-0.1222359836101532,-0.1567765325307846,-0.10165269672870636,0.15695267915725708,0.03088727593421936,0.01150316372513771,0.02915227971971035,-0.20195315778255463,0.03205757588148117,-0.01463688351213932,-0.05626857653260231,-0.1088808998465538,-0.2589474022388458,-0.11339164525270462,0.05267956480383873,-0.06645672768354416,0.17203237116336823,0.3300558924674988,-0.19726410508155823,-0.2538962662220001,-0.018495015799999237,-0.15732865035533905,0.22788959741592407,-0.07328170537948608,-0.05010860040783882,-0.060826029628515244,0.23201097548007965,0.02679436095058918,-0.00893678329885006,0.1850290596485138,-0.06064542010426521,0.06266020983457565,-0.23813492059707642],[-0.09056691080331802,0.10992059111595154,0.13629087805747986,-0.13399489223957062,-0.12694481015205383,0.03557976335287094,0.05549982190132141,-0.10996079444885254,0.22270937263965607,0.1300286501646042,-0.23923464119434357,-0.056695327162742615,0.22644032537937164,0.3507699966430664,-0.10027845948934555,-0.10799726098775864,0.06835299730300903,0.0749572366476059,0.2787584066390991,-0.011939707212150097,0.17878299951553345,-0.12939278781414032,0.18654859066009521,0.09421635419130325,-0.028202660381793976,0.10854218155145645,-0.04419616982340813,-0.0015690068248659372,0.04737205058336258,0.10860120505094528,-0.11700310558080673,0.21651433408260345,-0.06916413456201553,0.014418087899684906,0.2838803231716156,-0.3613828122615814,-0.028640231117606163,0.17807601392269135,-0.11687792837619781,0.03487841412425041,-0.09283324331045151,0.05832401663064957,0.04765956103801727,-0.2910222113132477,0.07404471188783646,0.14435112476348877,-0.005576516967266798,-0.07235277444124222],[0.09568040072917938,-0.14278841018676758,0.27552610635757446,0.07887544482946396,-0.007107221055775881,-0.19987507164478302,0.17644211649894714,-0.060534656047821045,0.14400655031204224,0.04755071923136711,-0.006088642403483391,0.005659216083586216,-0.17895381152629852,0.1672443300485611,0.09663937240839005,0.2532508671283722,0.07104972749948502,-0.05982018634676933,0.22078905999660492,0.1343793123960495,0.10045310109853745,-0.01722314953804016,0.05742960795760155,0.0027909940108656883,0.0562141090631485,-0.008013193495571613,-0.028504636138677597,0.16563192009925842,-0.17345507442951202,-0.05077162757515907,0.06249513104557991,0.10436385869979858,-0.01475683692842722,0.014070685021579266,0.1773327738046646,-0.09375657141208649,-0.16715100407600403,0.12322057038545609,0.26602333784103394,-0.1662268489599228,-0.02987441048026085,-0.10171450674533844,0.13823147118091583,-0.16436360776424408,0.08306806534528732,-0.11092672497034073,-0.004669666290283203,-0.15401357412338257],[0.12466675788164139,0.016767842695116997,0.07613150775432587,0.1697435975074768,-0.03604571148753166,0.16796445846557617,-0.07441602647304535,0.0403677299618721,-0.04542044550180435,0.07857467234134674,-0.07943050563335419,0.08581338077783585,0.20459723472595215,-0.02680249884724617,-0.03937988728284836,-0.21211761236190796,-0.2013256549835205,-0.16607578098773956,0.0393940806388855,-0.2007032334804535,0.03801319748163223,-0.23344752192497253,-0.07794614136219025,-0.033696409314870834,-0.08882422745227814,0.23758623003959656,0.3188316226005554,0.07567636668682098,0.10109050571918488,0.1274438500404358,-0.2041797637939453,-0.13033899664878845,-0.14569923281669617,-0.013558872044086456,-0.014402617700397968,0.20736852288246155,0.101036436855793,-0.01983887143433094,-0.14576008915901184,-0.18375732004642487,-0.1952718198299408,-0.14190904796123505,0.09348805248737335,-0.09291297942399979,0.09926694631576538,-0.08187400549650192,0.06858187168836594,0.07149311900138855],[0.041060060262680054,0.258149117231369,-0.15042422711849213,-0.031945228576660156,0.1286560744047165,-0.13605637848377228,0.14865979552268982,0.2839190661907196,-0.3043974041938782,0.0995977595448494,-0.15610192716121674,-0.18893402814865112,-0.10074737668037415,-0.21249137818813324,-0.18969686329364777,0.2065589874982834,-0.01036321185529232,-0.06949755549430847,0.12954919040203094,0.04071633145213127,-0.09115292876958847,-0.03376004472374916,0.1344490349292755,0.21687163412570953,0.3480830490589142,-0.11579883098602295,0.019026419147849083,0.07890602946281433,-0.12197902053594589,-0.09004399925470352,0.026248671114444733,0.05993116647005081,-0.526236891746521,-0.22466225922107697,0.2256007343530655,0.31061193346977234,-0.01641957461833954,-0.05636744201183319,0.17332246899604797,-0.06390395760536194,0.01598982885479927,0.16850319504737854,0.014459209516644478,0.2171035259962082,0.04455680027604103,0.10413579642772675,-0.0370054729282856,-0.06840454787015915],[0.005823178682476282,0.0520932637155056,0.19690096378326416,-0.11182432621717453,0.15805768966674805,0.3880462348461151,0.16995899379253387,-0.3282221555709839,-0.029173599556088448,-0.11851372569799423,-0.07758671045303345,0.15273116528987885,-0.1718764454126358,0.39784663915634155,-0.31618690490722656,-0.07457368075847626,-0.020151058211922646,0.015773382037878036,0.14296190440654755,-0.06510000675916672,-0.07297348231077194,0.16261029243469238,0.1170729324221611,-0.009426048956811428,0.041572339832782745,-0.03742048144340515,-0.06727863848209381,-0.011263839900493622,0.018443115055561066,0.09096071869134903,-0.005152364261448383,0.02143283747136593,0.13871684670448303,0.15839993953704834,-0.003506943816319108,0.14041168987751007,0.15641851723194122,0.05391393601894379,-0.0034095325972884893,0.1258048564195633,-0.05416184663772583,0.07027528434991837,-0.04917401820421219,-0.023376772180199623,0.10207022726535797,-0.11311719566583633,-0.04419250413775444,-0.09513229876756668],[0.0556221529841423,-0.06471791118383408,0.09380287677049637,0.13352857530117035,0.02421327494084835,0.31732937693595886,-0.2589185833930969,0.07202144712209702,0.11593535542488098,0.24892695248126984,0.028474479913711548,-0.11516620218753815,-0.0468076691031456,0.05235397070646286,-0.02921796590089798,0.04018636792898178,0.03279883787035942,0.14787422120571136,0.013098337687551975,0.15985049307346344,-0.07016857713460922,-0.0580785796046257,0.16738519072532654,0.05702203884720802,0.13874676823616028,0.03809523209929466,0.18428228795528412,0.15836071968078613,-0.031607531011104584,-0.3770682215690613,0.1983717978000641,0.13244257867336273,0.07201749086380005,-0.3183104991912842,-0.14277730882167816,0.1382344663143158,0.026659410446882248,-0.11896578967571259,-0.052604928612709045,0.17840848863124847,0.2062821239233017,-0.15351241827011108,0.24501502513885498,0.11177091300487518,0.10877860337495804,0.09500256925821304,0.007440889719873667,-0.07589506357908249],[-0.27408668398857117,0.039349135011434555,0.004951803479343653,-0.17846237123012543,-0.01973915286362171,-0.15795762836933136,-0.11672459542751312,-0.11645682901144028,-0.12373487651348114,0.10708528757095337,0.16289636492729187,-0.1528870016336441,0.07720868289470673,-0.041764188557863235,-0.16560974717140198,-0.016013359650969505,-0.028571752831339836,0.1017034724354744,-0.038121212273836136,0.1145925521850586,0.19627457857131958,-0.0418766587972641,-0.08255936205387115,0.253133624792099,0.10615155100822449,0.0003386919270269573,0.06318497657775879,-0.359267920255661,0.0009575541480444372,0.04964741691946983,-0.06982683390378952,-0.16456061601638794,-0.2650941014289856,0.12048262357711792,0.0748947411775589,-0.03920117765665054,0.06747995316982269,-0.21567577123641968,0.1616450846195221,0.02609247714281082,0.07573158293962479,0.03601047396659851,0.04764171689748764,0.07729392498731613,0.12982822954654694,-0.06093830242753029,0.027189388871192932,0.06734348088502884],[0.30264970660209656,-0.1889866292476654,-0.08208837360143661,-0.3211463391780853,0.201677143573761,0.01476264838129282,-0.22801977396011353,0.06612817943096161,0.07193002104759216,0.07465782761573792,0.13895481824874878,0.14469516277313232,-0.2211237996816635,0.284908652305603,-0.031864866614341736,0.20757432281970978,-0.013731813058257103,-0.2557804584503174,-0.22924953699111938,0.02094578742980957,0.18448805809020996,-0.02104373276233673,-0.15694788098335266,-0.24816444516181946,0.24881517887115479,-0.1968437284231186,-0.13007764518260956,0.0021971366368234158,-0.10242608934640884,-0.13820688426494598,0.0003123746137134731,-0.00010962966189254075,-0.09373719245195389,-0.19652864336967468,-0.19657933712005615,0.02512435056269169,-0.09751645475625992,-0.2454758584499359,-0.014497490599751472,-0.14170770347118378,-0.22822751104831696,-0.13956348598003387,-0.09775900095701218,0.009305434301495552,-0.0678056925535202,0.07742981612682343,-0.02057546004652977,0.05190996453166008],[0.05756978690624237,-0.10323375463485718,-0.022692333906888962,0.15801644325256348,0.04034275934100151,-0.009773708879947662,0.03549639508128166,-0.2483830451965332,-0.12239588797092438,-0.19120989739894867,-0.1219627857208252,0.14771237969398499,-0.15072092413902283,0.11013306677341461,-0.038132671266794205,0.29355213046073914,0.2052779644727707,-0.04901193827390671,-0.051843661814928055,-0.11579475551843643,-0.02884024754166603,0.00798934418708086,-0.036559585481882095,0.1577116698026657,-0.19331689178943634,-0.14374305307865143,0.07590753585100174,-0.23268990218639374,0.06955384463071823,-0.2749146521091461,-0.04063502326607704,-0.13732969760894775,0.10248084366321564,-0.018589626997709274,-0.1730574518442154,-0.10529956221580505,-0.2281988263130188,-0.1522994041442871,0.040007349103689194,0.24176537990570068,0.027882661670446396,0.11857597529888153,-0.15634937584400177,0.10074374079704285,-0.08385055512189865,-0.10196684300899506,-0.35420411825180054,-0.13466666638851166],[0.07048610597848892,-0.0038690867368131876,0.025067266076803207,0.08955010771751404,0.04424804449081421,0.2573602497577667,-0.03723299503326416,-0.2248336672782898,0.08878565579652786,0.002350290771573782,-0.18700182437896729,0.16851913928985596,-0.16139675676822662,0.1672508716583252,-0.28052422404289246,0.056500859558582306,-0.11751897633075714,0.10366185754537582,-0.013734656386077404,-0.14845576882362366,-0.2739109694957733,0.10226158797740936,-0.00848377961665392,-0.024830210953950882,-0.021190345287322998,-0.13999150693416595,-0.06306637078523636,0.012186464853584766,0.13687516748905182,0.14664006233215332,-0.006318430881947279,-0.008262136951088905,-0.008918149396777153,-0.1012222170829773,-0.13633476197719574,0.3395749628543854,0.010251861065626144,-0.3150666356086731,0.13930408656597137,-0.05128534138202667,0.2060803920030594,0.022553101181983948,0.07119695842266083,-0.15352295339107513,-0.04296412318944931,0.08958485722541809,0.03689056634902954,-0.07248476892709732],[0.023035088554024696,0.03703216835856438,0.2425098419189453,0.11912412196397781,-0.091940738260746,0.0004923098022118211,-0.17543718218803406,0.2781558334827423,0.11258726567029953,-0.13969138264656067,-0.15973158180713654,-0.1149907112121582,0.020090367645025253,0.22312940657138824,0.25615382194519043,-0.021878929808735847,-0.12596124410629272,-0.23764818906784058,-0.1320357322692871,0.23361991345882416,0.060565851628780365,-0.1297319084405899,-0.06840956211090088,0.29410842061042786,-0.010449111461639404,0.09532736241817474,0.24171848595142365,-0.10865497589111328,0.06177552789449692,-0.0010174561757594347,0.1424511969089508,0.25185418128967285,0.14715136587619781,0.2888818681240082,0.08695361018180847,0.11718969792127609,0.03803973272442818,-0.048206936568021774,0.04790116846561432,-0.004154311027377844,-0.031169533729553223,-0.18059173226356506,0.2883073389530182,-0.1768539994955063,-0.022307218983769417,-0.04701373353600502,-0.01299349032342434,0.06184973940253258],[0.0890979990363121,0.09279347956180573,-0.039203792810440063,0.07357080280780792,0.03805745393037796,0.028355471789836884,0.13649867475032806,0.2364886850118637,0.2018522024154663,5.7324563385918736e-05,-0.06490737944841385,-0.13503769040107727,0.13636519014835358,-0.002493805717676878,0.04664408043026924,-0.16966980695724487,-0.21510198712348938,0.1767524927854538,-0.023578304797410965,0.24572224915027618,0.02211291901767254,0.22352316975593567,-0.039396513253450394,-0.10838424414396286,0.019120989367365837,-0.22821101546287537,0.04344753175973892,0.020927079021930695,0.28607070446014404,0.08969323337078094,-0.15260225534439087,0.13971921801567078,-0.02050948143005371,-0.002574396785348654,-0.018565557897090912,0.1797555387020111,0.023266233503818512,0.11502888053655624,-0.0808853730559349,0.08204411715269089,0.14303117990493774,-0.04910722374916077,-0.08629702776670456,-0.10619718581438065,0.137767493724823,-0.015347409062087536,-0.05045299232006073,-0.051612913608551025],[-0.11624071002006531,0.14641660451889038,0.02592240460216999,-0.045147188007831573,0.2531963288784027,0.30759337544441223,0.047144774347543716,-0.010862253606319427,-0.14980818331241608,-0.32981014251708984,0.0960530936717987,-0.08855177462100983,-0.12479826807975769,0.005664872471243143,-0.05889207124710083,-0.0029509395826607943,0.06734313070774078,-0.014180169440805912,0.1081618219614029,-0.06064074486494064,-0.07550650089979172,0.21332184970378876,0.17067810893058777,0.03378257527947426,-0.25037527084350586,0.2588156759738922,0.10462991148233414,-0.06485544890165329,-0.06848761439323425,0.016227062791585922,-0.01868959330022335,0.11636191606521606,-0.10015013813972473,-0.10977379232645035,-0.0014989548362791538,0.21499031782150269,-0.17094747722148895,0.06674440205097198,-0.06885960698127747,-0.09842073172330856,-0.08439578115940094,0.10528132319450378,0.02893196791410446,0.10515184700489044,-0.2572682201862335,-0.037532102316617966,0.13238953053951263,-0.1259736716747284],[0.1779247671365738,-0.19728396832942963,-0.17468640208244324,-0.0569760762155056,0.0964980348944664,-0.19291755557060242,-0.04358579218387604,-0.06991295516490936,0.13561934232711792,-0.13553091883659363,-0.23697887361049652,-0.024490587413311005,-0.04350092634558678,0.06696522980928421,0.2658926546573639,0.060380395501852036,0.10104788839817047,-0.09479499608278275,-0.08379269391298294,0.18246684968471527,-0.08964911848306656,0.010652211494743824,0.09039398282766342,-0.049688681960105896,0.13143055140972137,-0.0016955594765022397,-0.16588599979877472,0.0008965292363427579,0.14656515419483185,0.13103453814983368,0.09500347077846527,-0.01101529598236084,0.05587797984480858,0.15678903460502625,0.04881793633103371,-0.1655966341495514,0.1614098995923996,0.17755037546157837,-0.05043420568108559,0.14484000205993652,0.05068438500165939,0.2391849160194397,-0.14157433807849884,-0.08227375149726868,-0.3031123876571655,0.31690627336502075,-0.0846029594540596,-0.0790812224149704],[-0.004754809197038412,-0.1774730384349823,0.0009177842875942588,0.23974257707595825,0.039899032562971115,-0.08475159108638763,-0.2700187861919403,0.03934207186102867,-0.24806636571884155,-0.005838005803525448,0.1364414393901825,-0.12346277385950089,-0.09877020120620728,-0.054362401366233826,-0.2085331529378891,-0.12080149352550507,-0.15629348158836365,-0.14058130979537964,0.006636507343500853,0.2147509604692459,0.0039343154057860374,0.17626775801181793,0.06666763871908188,-0.01781538873910904,-0.09725595265626907,-0.22447530925273895,0.19496260583400726,-0.031858187168836594,-0.04661348834633827,-0.05413642153143883,0.0033894130028784275,0.27402856945991516,0.26439186930656433,-0.1377260386943817,-0.04620371758937836,0.11610662192106247,-0.014315165579319,0.1449464112520218,-0.014467240311205387,-0.1302141696214676,-0.1540418565273285,0.08961606025695801,0.14868980646133423,0.01728413999080658,-0.25140082836151123,0.04235456883907318,0.048923708498477936,0.03667072951793671],[0.24701246619224548,0.06715358048677444,0.2307022511959076,-0.2664734423160553,0.03942697495222092,-0.20640380680561066,0.1788133829832077,-0.08343469351530075,0.4208434820175171,0.07111469656229019,0.03404073789715767,0.06603045761585236,-0.1417563259601593,0.03899674117565155,0.09206459671258926,0.16342417895793915,-0.01291033998131752,-0.004567278549075127,-0.09784835577011108,-0.1386304348707199,0.06217023730278015,-0.06932353973388672,0.10885100811719894,0.16790741682052612,0.2392883449792862,-0.23504599928855896,0.018632926046848297,-0.23281562328338623,0.13678988814353943,-0.14073769748210907,-0.025719860568642616,0.09716207534074783,-0.11300450563430786,-0.16500501334667206,-0.16547740995883942,-0.1599472314119339,0.009842310100793839,0.09018000960350037,-0.15724389255046844,0.10080443322658539,-0.12457119673490524,0.08709293603897095,0.04098964110016823,-0.12761004269123077,-0.07060708105564117,0.041200798004865646,-0.15010087192058563,0.09302262216806412],[-0.05454295128583908,-0.015251529403030872,0.007106978911906481,-0.05473443865776062,0.25236719846725464,0.293496698141098,0.07822485268115997,0.03377678990364075,0.058652348816394806,-0.0393206924200058,-0.007591025438159704,-0.007929128594696522,0.15626457333564758,-0.18729479610919952,0.1448589712381363,0.20695528388023376,0.2412286400794983,0.027995940297842026,-0.09298532456159592,0.29604870080947876,0.08979830145835876,-0.2596004605293274,0.09939906746149063,0.036781057715415955,-0.09173033386468887,0.006460399832576513,0.28908470273017883,-0.2738055884838104,-0.0196598581969738,0.2017637938261032,-0.04655604064464569,-0.2313074916601181,0.07068075239658356,0.05562637001276016,0.06564579159021378,-0.08116190880537033,0.06796211004257202,-0.2035161256790161,-0.0952896699309349,0.18652725219726562,-0.10440388321876526,-0.09890873730182648,-0.04519549012184143,-0.1577821522951126,-0.11235076189041138,0.23491553962230682,-0.03589857742190361,0.01815008372068405],[0.04252154380083084,-0.0641084760427475,-0.06336047500371933,0.09767463058233261,-0.2422633022069931,0.11668133735656738,0.06609314680099487,0.12246140837669373,-0.1129046380519867,-0.14716629683971405,0.046519987285137177,0.043437059968709946,0.010481481440365314,-0.1296975165605545,-0.141048401594162,-0.0022173838224262,0.055852681398391724,0.2202194482088089,-0.24302595853805542,-0.1686173677444458,0.006853998173028231,-0.1853167861700058,-0.09087789803743362,-0.10933106392621994,-0.08579422533512115,-0.11632511764764786,0.19383633136749268,0.09733518213033676,0.07682820409536362,0.16930647194385529,0.06097688898444176,0.14636854827404022,0.10411308705806732,-0.4034610092639923,-0.06208769604563713,0.12948691844940186,-0.05382826551795006,0.16165229678153992,-0.09148070961236954,0.029597213491797447,0.02927032671868801,0.07464383542537689,-0.1884760856628418,0.06318904459476471,0.15503229200839996,0.02177775278687477,0.011166675016283989,-0.10413269698619843],[0.19584867358207703,-0.2234574854373932,0.20425163209438324,-0.11687371879816055,-0.0446288138628006,0.030177775770425797,0.08225103467702866,-0.07303024083375931,0.025810115039348602,0.18805985152721405,0.12152978777885437,0.12717652320861816,-0.055965352803468704,-0.14889317750930786,0.1988469809293747,0.020305156707763672,-0.03103156015276909,-0.15189523994922638,-0.07043012231588364,0.0349348746240139,0.15468966960906982,0.13929027318954468,-0.0998934879899025,0.26174646615982056,0.009988551028072834,-0.050538625568151474,-0.07708317041397095,-0.14908067882061005,-0.08585753291845322,0.22546477615833282,0.24002383649349213,-0.014121006242930889,-0.010715769603848457,0.04303397238254547,-0.098739393055439,-0.11935228854417801,0.09573335945606232,-0.05408529192209244,-0.27816030383110046,-0.007434473838657141,-0.203231081366539,-0.3096620738506317,0.046346306800842285,0.0468432642519474,0.06061313673853874,-0.11032301932573318,0.0554213747382164,0.04032350331544876],[0.1974910944700241,-0.031522128731012344,-0.010915429331362247,-0.07203921675682068,0.1015055701136589,-0.04908885434269905,-0.07261423766613007,-0.12761449813842773,-0.2543788552284241,-0.13416548073291779,0.17878955602645874,-0.08233363926410675,0.19888070225715637,-0.029508525505661964,-0.24644361436367035,0.0069322045892477036,-0.0595947690308094,-0.07373779267072678,-0.13299420475959778,0.11595139652490616,0.055508557707071304,-0.17318136990070343,-0.033746059983968735,0.03960173949599266,0.029125764966011047,0.15560227632522583,-0.2124922126531601,0.07612180709838867,-0.03571196272969246,0.023561138659715652,-0.1019788309931755,-0.019626514986157417,-0.18173626065254211,0.09055912494659424,-0.15457646548748016,0.08775916695594788,0.19111423194408417,0.012617330998182297,-0.05834655091166496,-0.19080913066864014,-0.01827368326485157,-0.0324699841439724,-0.4418315887451172,-0.01568443514406681,-0.04258742555975914,0.029610218480229378,0.12454555183649063,-0.06558102369308472],[0.17365725338459015,-0.0524434894323349,0.01585446484386921,-0.1988280713558197,0.02384456992149353,-0.09736046940088272,0.10135212540626526,-0.15754173696041107,-0.2306438684463501,0.1048380583524704,-0.0022211407776921988,-0.02591385878622532,-0.040960874408483505,-0.046253882348537445,0.12221906334161758,-0.02512955106794834,0.2987886369228363,-0.174621120095253,0.24976642429828644,0.15237143635749817,0.32021644711494446,-0.14680008590221405,-0.22771717607975006,0.0980437844991684,0.07279881834983826,-0.16743041574954987,0.14109380543231964,0.035578612238168716,0.05988265201449394,0.16463404893875122,0.14365193247795105,-0.05134917050600052,-0.09889143705368042,-0.16274623572826385,-0.08201271295547485,0.06059769168496132,-0.057792019098997116,-0.08089905977249146,0.267895370721817,0.011661594733595848,0.07894011586904526,-0.21863886713981628,-0.22836317121982574,0.025386622175574303,0.09924416244029999,0.13359373807907104,-0.026375019922852516,0.013326372019946575],[-0.25922054052352905,0.2431095540523529,-0.06340091675519943,-0.02683715708553791,-0.18481405079364777,-0.11192169785499573,0.024447759613394737,-0.23405352234840393,0.07352272421121597,0.036865029484033585,0.23826083540916443,0.054521165788173676,-0.2200859785079956,-0.1467965990304947,0.21585342288017273,0.11322778463363647,-0.050078943371772766,0.11501969397068024,0.037358228117227554,-0.27089640498161316,-0.20894475281238556,-0.0018814270151779056,-0.12812352180480957,0.10689891129732132,-0.1376299411058426,0.09920181334018707,-0.016169186681509018,-0.08849935978651047,-0.04912649840116501,0.039261143654584885,-0.034774232655763626,-0.08162175863981247,0.005605692509561777,0.23855991661548615,0.07187595963478088,0.12332398444414139,-0.10076456516981125,-0.10494814813137054,0.1312858909368515,0.3445884883403778,0.08745139837265015,0.03198167309165001,0.006288617383688688,-0.1255275160074234,0.06353072077035904,-0.21739231050014496,0.14809145033359528,0.10001108795404434],[0.10273018479347229,0.20054960250854492,-0.03579114377498627,-0.0698578953742981,0.13934537768363953,0.0021023035515099764,-0.06650163978338242,0.03246471658349037,0.04281936213374138,0.06733141094446182,-0.1943625807762146,-0.23478342592716217,-0.27259260416030884,0.18236808478832245,0.18334728479385376,0.26092758774757385,-0.0603947639465332,-0.027904383838176727,0.06944365799427032,0.011825598776340485,0.1101740375161171,0.1750875562429428,-0.024738477542996407,-0.12044022977352142,0.02568935975432396,-0.15407100319862366,-0.07902821898460388,0.01299441047012806,0.029033396393060684,0.03628237545490265,-0.022062605246901512,0.01597769744694233,-0.06768877059221268,-0.04847427085042,-0.06931281089782715,0.009163043461740017,0.042424190789461136,-0.1264374703168869,-0.2754451334476471,-0.062437284737825394,-0.12782815098762512,-0.2159828245639801,-0.1235688328742981,0.09721816331148148,0.05660489201545715,-0.09949683398008347,0.099654421210289,0.170524463057518],[-0.0859360471367836,-0.08900392800569534,0.1292182207107544,0.03764132037758827,0.1351708322763443,0.1365083009004593,-0.09855134040117264,-0.004973235540091991,-0.18909426033496857,-0.04419850930571556,-0.15520377457141876,0.21363471448421478,-0.09515060484409332,-0.0424887090921402,-0.13383081555366516,-0.004994688555598259,0.06448084115982056,0.044484447687864304,0.08387193083763123,0.1443408727645874,-0.24965643882751465,0.07439680397510529,0.02848508208990097,0.07938240468502045,-0.0660523995757103,-0.2541259825229645,-0.07277412712574005,0.08572240173816681,-0.04475226625800133,0.107452891767025,0.034685201942920685,-0.14921604096889496,-0.10630770027637482,0.15890127420425415,0.2521269917488098,-0.10489686578512192,0.22964394092559814,-0.24879790842533112,0.12725727260112762,-0.08205321431159973,-0.012232119217514992,1.5033815543574747e-05,-0.006401479709893465,-0.09489689022302628,-0.1310366541147232,-0.24313506484031677,0.0514499694108963,0.3190397620201111],[0.2717433273792267,0.09762903302907944,0.1443726271390915,-0.25898316502571106,-0.07929661124944687,0.07669177651405334,-0.007421800401061773,0.02991274930536747,0.1375572234392166,0.27449554204940796,0.15559351444244385,-0.07395380735397339,0.1429523527622223,0.020899971947073936,-0.05506376922130585,0.1018475815653801,-0.3416616916656494,-0.03497061878442764,0.025486214086413383,-0.17227530479431152,0.03666546195745468,-0.06124226748943329,-0.22052308917045593,0.07897232472896576,-0.15517204999923706,0.051141247153282166,-0.13881181180477142,0.3224804401397705,0.1433296948671341,-0.13572989404201508,-0.014184555038809776,0.015148233622312546,0.04138404503464699,-0.18270349502563477,0.2711717188358307,-0.046043649315834045,-0.027337821200489998,-0.26655322313308716,-0.024545148015022278,-0.09195850789546967,-0.11863607168197632,-0.0829252228140831,-0.256374716758728,0.1433524787425995,-0.09874198585748672,0.07170625776052475,0.1412230283021927,-0.05764874443411827],[-0.18530036509037018,0.04348381236195564,0.058041129261255264,0.027782544493675232,-0.06390231847763062,-0.0727122575044632,0.2625961899757385,-0.014191504567861557,0.03207508847117424,0.03763852268457413,-0.05632757022976875,0.17158280313014984,0.0466141439974308,0.1508084386587143,-0.43196552991867065,0.165522962808609,-0.024833107367157936,0.08282831311225891,0.11416231840848923,-0.2014324963092804,-0.3064211905002594,-0.020985230803489685,-0.13941900432109833,0.017833556979894638,0.08364544808864594,0.1112980917096138,-0.23020106554031372,0.051908910274505615,0.09560514241456985,-0.04291902855038643,-0.22927618026733398,0.1466549038887024,0.10499770939350128,-0.05608101189136505,-0.012202396057546139,-0.017545875161886215,0.09996138513088226,-0.1222405880689621,0.3177613615989685,-0.16604864597320557,0.11790015548467636,0.15664032101631165,-0.13643786311149597,0.11976423114538193,0.12026970088481903,0.03689749166369438,0.31653881072998047,0.08108878880739212],[0.07708407193422318,-0.026931947097182274,-0.02710336446762085,0.09052868187427521,0.16505686938762665,0.10238178819417953,-0.04034257307648659,0.032805588096380234,-0.2216721922159195,0.016892021521925926,-0.16492727398872375,-0.12649334967136383,0.031871337443590164,0.17713487148284912,-0.2338913083076477,0.2954308092594147,0.06860905140638351,0.10197790712118149,0.007605868391692638,-0.06401216238737106,0.19406861066818237,0.03508320450782776,0.0871782898902893,0.013291507959365845,0.09267552196979523,-0.17777684330940247,0.044312670826911926,0.14529967308044434,-0.11231763660907745,0.0808459147810936,0.149726003408432,0.1188964769244194,-0.15237431228160858,-0.0039739147759974,0.012151125818490982,0.020953796803951263,0.033969804644584656,-0.34308430552482605,0.10767292976379395,0.02393466793000698,-0.08083249628543854,0.1760653257369995,-0.16616618633270264,-0.06856471300125122,-0.04177241027355194,-0.07512777298688889,-0.07400786876678467,-0.020114896818995476],[-0.02406300976872444,-0.024818474426865578,0.04796607792377472,0.1724817305803299,-0.12897853553295135,0.02664470113813877,-0.012698732316493988,0.21925221383571625,-0.3689008057117462,-0.032998356968164444,0.06863206624984741,-0.047660134732723236,-0.07967715710401535,-0.25288695096969604,0.06740616261959076,0.06121959537267685,0.002869537565857172,0.15767084062099457,0.05568496137857437,-0.12989768385887146,-0.37845906615257263,-0.1650667041540146,-0.09204543381929398,-0.2108456939458847,0.004517850000411272,0.041827909648418427,0.08774054050445557,0.047318026423454285,-0.012230071239173412,-0.12388624250888824,-0.080190509557724,-0.030511602759361267,0.23534592986106873,-0.14101356267929077,-0.22165164351463318,0.21068961918354034,-0.12120603024959564,-0.0619308277964592,-0.06066124513745308,-0.1336621344089508,-0.32601889967918396,-0.16267934441566467,0.10043644160032272,0.19262360036373138,0.019768182188272476,-0.14189426600933075,-0.03310097008943558,-0.02056816965341568],[-0.09046470373868942,-0.018175499513745308,0.10442923754453659,-0.17285943031311035,0.3778665065765381,0.3097817301750183,-0.035019777715206146,-0.012244484387338161,0.13744693994522095,0.18578603863716125,0.006804900709539652,0.15390881896018982,0.2099146991968155,0.09860264509916306,-0.12156069278717041,-0.09196165949106216,-0.022909728810191154,0.06947608292102814,-0.193411186337471,-0.10647040605545044,0.03777597099542618,-0.02808295376598835,0.1515415757894516,-0.18268762528896332,-0.26858627796173096,0.2995056211948395,-0.08961464464664459,0.05614028871059418,0.059749774634838104,-0.12706626951694489,-0.12673340737819672,0.16650046408176422,-0.004398179706186056,0.045475658029317856,-0.01886424794793129,0.04122275859117508,0.10964074730873108,-0.17574162781238556,0.06834178417921066,0.06497275829315186,0.08279542624950409,-0.13943816721439362,0.08477089554071426,-0.11739198118448257,-0.3205093741416931,-0.009323446080088615,-0.26497891545295715,-0.016288598999381065],[0.2566862404346466,-0.2806788682937622,-0.18064332008361816,-0.2280019223690033,-0.025017112493515015,-0.17219585180282593,-0.11173713952302933,-0.09636235237121582,-0.23883144557476044,-0.07034662365913391,0.08682342618703842,0.22121186554431915,0.09448041021823883,-0.23883531987667084,0.025688238441944122,0.10743511468172073,-0.01165997888892889,-0.05062389001250267,0.10016445815563202,-0.14985008537769318,0.04321284219622612,-0.1267666220664978,0.029181960970163345,-0.14571918547153473,-0.1667255312204361,0.03715416043996811,0.014463691972196102,0.2841750681400299,-0.03713829442858696,0.14298386871814728,7.616464426973835e-05,0.1442783921957016,-0.18409503996372223,0.11043264716863632,0.04607526212930679,0.06341207027435303,-0.11417360603809357,-0.07366839796304703,-0.022921914234757423,-0.039784736931324005,-0.08982130140066147,-0.11216126382350922,0.11154139786958694,-0.045121464878320694,0.1789444088935852,0.023853430524468422,0.19658412039279938,-0.0550481379032135],[-0.22453927993774414,0.0020585088059306145,-0.01902942545711994,-0.2931945323944092,-0.17002564668655396,-0.1491248458623886,-0.3305671513080597,-0.07928777486085892,0.05122316628694534,0.044332120567560196,-0.1787502020597458,0.09751138091087341,0.10480256378650665,-0.042940959334373474,-0.07746047526597977,-0.006373383570462465,0.10771074891090393,-0.08566455543041229,-0.23226945102214813,0.0537090040743351,0.013612855225801468,0.11010760813951492,0.1440669596195221,0.19553834199905396,0.06416656821966171,0.1071840301156044,0.00011139676644233987,0.05104092136025429,0.05570473149418831,0.12333949655294418,0.21672749519348145,0.03830423951148987,0.14277032017707825,0.08185669779777527,-0.06621076911687851,0.008233652450144291,0.22278344631195068,-0.16828553378582,-0.22976553440093994,0.00587047403678298,0.2340892255306244,-0.08031740039587021,0.000825966359116137,-0.015289442613720894,0.05069859325885773,0.14531193673610687,0.027004648000001907,0.26505663990974426],[0.0990360826253891,-0.2063562422990799,0.11198531091213226,-0.07815112918615341,0.023347247391939163,-0.05345786362886429,-0.006699466146528721,-0.3018737733364105,0.07305057346820831,0.018847310915589333,-0.3103139400482178,0.10363201797008514,0.2639506161212921,0.19985851645469666,-0.10202834755182266,0.18906894326210022,-0.11221207678318024,0.22130811214447021,-0.15917925536632538,0.04855433478951454,-0.036028895527124405,-0.01466171070933342,-0.0874146893620491,-0.08289200812578201,0.07451805472373962,-0.04847661033272743,0.05597846210002899,-0.1523878276348114,-0.07842032611370087,0.30087050795555115,-0.17790499329566956,-0.10579004138708115,-0.06417263299226761,0.12196878343820572,-0.008317659609019756,-0.11528504639863968,-0.09009479731321335,0.1213301494717598,-0.011758618988096714,-0.019432170316576958,-0.005222648847848177,-0.311200350522995,-0.038049910217523575,-0.012344463728368282,0.05914611369371414,0.34955447912216187,-0.08726056665182114,0.05659037455916405],[0.26086896657943726,0.05231358855962753,-0.0030046505853533745,-0.0163110364228487,-0.1338014155626297,0.2836155593395233,0.02806229516863823,0.0577310249209404,0.06010445952415466,-0.07636894285678864,-0.2623118758201599,0.02955290675163269,0.07710284739732742,-0.21426093578338623,0.05757220461964607,-0.10971368104219437,-0.04000746086239815,0.023042311891913414,-0.39830538630485535,-0.15721990168094635,-0.17491330206394196,0.03553377836942673,0.11507915705442429,-0.24307499825954437,0.1195269301533699,-0.08064340054988861,-0.17623715102672577,-0.12726418673992157,-0.1341838538646698,-0.12481508404016495,-0.0758218765258789,-0.05373595654964447,0.029891209676861763,0.14166273176670074,-0.1800515502691269,0.05404902622103691,0.13675005733966827,0.18168595433235168,0.017134524881839752,0.17553704977035522,-0.008947326801717281,-0.07359255850315094,-0.27347397804260254,-0.010339993983507156,-0.12071125954389572,-0.2090800404548645,-0.04709563031792641,-0.20007966458797455],[0.10869360715150833,-0.06539765745401382,0.07137349992990494,-0.08125164359807968,-0.046244945377111435,-0.21021538972854614,0.12381665408611298,-0.19568057358264923,0.06474114954471588,0.19258032739162445,-0.23077134788036346,-0.10452981293201447,0.03242052346467972,0.1893720030784607,-0.05041389539837837,-0.0056853946298360825,-0.15224096179008484,-0.014580059796571732,-0.13970619440078735,-0.1698835790157318,-0.061613187193870544,-0.05294080078601837,-0.026227055117487907,-0.025654707103967667,-0.004484749864786863,-0.1890515387058258,-0.11244018375873566,-0.295576810836792,-0.016530416905879974,0.12638700008392334,-0.056113243103027344,0.12268749624490738,-0.09454930573701859,-0.04553113505244255,0.09036178141832352,-0.11144378036260605,-0.31531456112861633,-0.11365910619497299,0.06335075199604034,0.13534893095493317,-0.20399804413318634,-0.09408661723136902,-0.16565021872520447,-0.1612471491098404,0.07114303112030029,-0.14414407312870026,0.043511517345905304,0.056227970868349075],[0.004892314784228802,0.10880821198225021,-0.3633764982223511,-0.11957544088363647,-0.07232604920864105,0.0980125218629837,0.1854962706565857,-0.05728316679596901,-0.1456792652606964,0.0669955462217331,-0.20699641108512878,0.044057417660951614,0.03777508810162544,0.10805574804544449,0.043688107281923294,0.1872900277376175,-0.04933873191475868,-0.06838224828243256,0.12180338054895401,0.21105925738811493,-0.01587820239365101,-0.08320577442646027,0.2890845835208893,-0.01588515006005764,0.02114837057888508,-0.05202769115567207,-0.042212821543216705,0.11439350247383118,-0.029053276404738426,0.22659346461296082,-0.11087594926357269,-0.18719148635864258,-0.24319645762443542,0.07539307326078415,0.20617297291755676,0.03651276230812073,0.13618157804012299,0.06902313232421875,-0.03201139718294144,0.23527255654335022,-0.033782996237277985,0.0018648268887773156,0.12549267709255219,-0.3049657642841339,-0.02123023010790348,0.006721713114529848,-0.10667088627815247,0.19708630442619324],[-0.22170455753803253,0.010648049414157867,-0.00646786205470562,0.18091292679309845,0.028244027867913246,0.09084297716617584,-0.2116474062204361,-0.053511567413806915,0.07680930942296982,-0.11818753927946091,-0.021956345066428185,0.31603601574897766,-0.03249507024884224,-0.30259281396865845,0.00680918525904417,0.15157896280288696,-0.19121034443378448,-0.034811001271009445,-0.2464287132024765,0.08032222092151642,-0.10097731649875641,-0.1304371953010559,0.1075265035033226,0.05611269176006317,0.16555966436862946,-0.08588886260986328,0.19931846857070923,-0.055341023951768875,0.01359910424798727,-0.07605154067277908,-0.12018043547868729,-0.050566621124744415,0.0817653015255928,0.014532821252942085,0.007170084398239851,0.20268210768699646,-0.09304950386285782,0.04217088222503662,-0.13297715783119202,-0.07960551977157593,0.15290600061416626,0.18643994629383087,-0.03185732290148735,-0.08545408397912979,-0.15291060507297516,0.024778995662927628,0.24030040204524994,0.01707945019006729],[-0.10664957016706467,-0.009355854243040085,-0.006706041283905506,-0.2956807613372803,-0.020463649183511734,0.2178523689508438,0.088606096804142,0.10218515247106552,-0.01918885111808777,-0.19852465391159058,2.5447248845011927e-05,0.05804092064499855,-0.13844344019889832,-0.10842087119817734,-0.1432017683982849,-0.015430990606546402,0.08470096439123154,0.10704439133405685,0.27968093752861023,0.23835323750972748,0.24632932245731354,-0.044753652065992355,-0.02501470223069191,0.07961119711399078,-0.07905100286006927,-0.10452627390623093,0.05282899737358093,-0.03609234094619751,0.09087520837783813,0.11336851119995117,-0.06533108651638031,0.061064284294843674,-0.004499767906963825,-0.06494957208633423,-0.11878305673599243,0.00843569915741682,-0.15947629511356354,-0.16380487382411957,-0.10540316253900528,-0.1414855718612671,-0.1204419881105423,-0.15030644834041595,0.04996749386191368,-0.08601400256156921,-0.2644065320491791,-0.004431057721376419,0.08456286787986755,-0.24133934080600739]],"bias":[-0.0015457073459401727,0.0024689892306923866,-0.002941104816272855,0.003198224352672696,0.0021435688249766827,-0.0007407011580653489,-0.0020146705210208893,-0.006112201604992151,0.0030352564062923193,-0.00015951991372276098,0.004736683331429958,0.00018980586901307106,-9.899311407934874e-05,0.0003410312347114086,0.0033612283878028393,0.0010333554819226265,-0.0020527841988950968,0.001319180242717266,-0.0031987675465643406,-0.0005948837497271597,0.0035532114561647177,-0.0016735739773139358,-0.002340853912755847,0.00354130775667727,0.000542035442776978,0.000854449172038585,-0.0005149870412424207,-0.0005675239954143763,-0.0002652914263308048,-0.0005843962426297367,0.00033469285699538887,0.0029732584953308105,0.000338723068125546,-0.0012731744209304452,-0.002392907626926899,-0.00016712353681214154,0.0026734715793281794,0.0023453894536942244,0.0020834512542933226,0.0004847636737395078,3.68227920262143e-05,0.0014449250884354115,0.002068514935672283,0.004490726627409458,-0.001765287248417735,-0.0004898476763628423,0.002828689757734537,-0.0015353863127529621]}],"trunk":[{"weight":[[0.058682721108198166,-0.06470596790313721,0.07887700945138931,0.017165912315249443,-0.04468477517366409,-0.05279521271586418,-0.08047464489936829,-0.0951225757598877,0.045165643095970154,-0.02744872495532036,0.08164914697408676,-0.06928542256355286,-0.007238191086798906,0.10838937759399414,0.03643661364912987,-0.09274061769247055,0.17446032166481018,0.08707499504089355,0.047641903162002563,-0.015684029087424278,0.10913120955228806,-0.0914909839630127,0.028323734179139137,-0.04258105158805847,-0.03330017626285553,-0.05268097296357155,0.10679085552692413,0.019918588921427727,-0.19329644739627838,0.08428849279880524,0.05357598885893822,0.25159725546836853,0.008593620732426643,0.010599941946566105,-0.07967814058065414,-0.02633562684059143,0.05319876968860626,-0.14543157815933228,0.02782827615737915,-0.0047720856964588165,0.10077880322933197,0.007464451249688864,0.22536058723926544,-0.15090660750865936,-0.10499480366706848,0.14351898431777954,0.188516303896904,0.006779606454074383,-0.2414015680551529,-0.15391920506954193,0.030916666612029076,0.13261358439922333,0.10375536978244781,-0.09047091007232666,0.09173189103603363,-0.27899426221847534,-0.09194959700107574,0.028892967849969864,0.12929467856884003,-0.05021138861775398,-0.08409126847982407,0.08361147344112396,-0.04082590714097023,0.10036038607358932,0.013707821257412434,-0.15684503316879272,-0.08473575860261917,0.06560011208057404,-0.09433189034461975,0.06167719140648842,-0.012418974190950394,-0.24067682027816772,0.018563592806458473,-0.07094725966453552,-0.03065546788275242,-0.04331204667687416,-0.05608593299984932,-0.06370128691196442,-0.14898313581943512,-0.10049539804458618,0.09807299822568893,0.12259770184755325,0.133064866065979,0.0950067788362503,0.13616707921028137,-0.060500215739011765,-0.10293719917535782,-0.026450421661138535],[-0.16927121579647064,0.019836172461509705,-0.0036901391576975584,-0.05472153425216675,-0.010364641435444355,-0.026692736893892288,0.006128792185336351,0.07177941501140594,0.09794676303863525,0.0467439629137516,-0.11392630636692047,0.050780899822711945,-0.042359691113233566,-0.023322902619838715,-0.04855643957853317,-0.1102755069732666,-0.24068614840507507,0.0028147113043814898,-0.19640086591243744,0.04243295267224312,0.05111220106482506,0.008147253654897213,-0.22728045284748077,-0.06279848515987396,-0.18448540568351746,0.1964176893234253,-0.003548819338902831,0.07522495090961456,0.17164550721645355,0.13466624915599823,0.1561422199010849,-0.055937509983778,0.14418736100196838,-0.01075565442442894,-0.019926568493247032,-0.2055807262659073,0.1167091429233551,-0.13296326994895935,-0.08500439673662186,-0.06853976100683212,-0.06747106462717056,-0.08332197368144989,-0.03244011849164963,-0.1362251192331314,-0.06686382740736008,0.12790639698505402,0.11361653357744217,-0.1360931247472763,0.057643722742795944,-0.13296622037887573,-0.07921487092971802,-0.08270595967769623,-0.035659417510032654,0.03381890803575516,-0.0641021654009819,0.004610384814441204,-0.06572429090738297,0.012152383103966713,0.06279201060533524,-0.14179590344429016,0.1461455523967743,0.2520347535610199,0.12723098695278168,-0.14926841855049133,0.03275412321090698,-0.002491709077730775,-0.07863463461399078,0.03261334449052811,0.06957239657640457,0.07802602648735046,0.11355044692754745,-0.1527661681175232,-0.07676156610250473,-0.23734129965305328,-0.04079720750451088,0.04346456378698349,0.1980452537536621,-0.044695593416690826,0.0180212389677763,-0.07331020385026932,0.03367389366030693,0.025256065651774406,-0.06942743062973022,-0.006444954313337803,-0.030229419469833374,0.02233746647834778,-0.03933951258659363,-0.24271607398986816],[-0.08914266526699066,0.09537939727306366,-0.1067170649766922,0.1427917331457138,0.20787176489830017,0.07752905786037445,0.024362267926335335,0.016383904963731766,0.1577868014574051,0.2328137308359146,0.1510915756225586,0.22200502455234528,-0.06402412801980972,-0.07107515633106232,-0.017619339749217033,0.17032819986343384,0.027119508013129234,-0.08833169937133789,0.026439914479851723,-0.08245274424552917,-0.2120656669139862,0.1456223577260971,0.19216527044773102,0.031229300424456596,-0.16088804602622986,-0.15461519360542297,-0.14833079278469086,0.054237812757492065,0.0546514056622982,0.06350929290056229,0.06760171055793762,-0.06539759784936905,-0.018094033002853394,-0.121284119784832,0.024833405390381813,0.16683676838874817,-0.003945463802665472,-0.08222533762454987,-0.030382847413420677,-0.17287227511405945,0.11664674431085587,-0.007619126234203577,0.10218676924705505,0.07939070463180542,-0.07301166653633118,-0.10304977744817734,-0.0433875173330307,0.06717418879270554,-0.06664998084306717,0.014894559979438782,0.029487788677215576,-0.05892482027411461,0.25002142786979675,0.02763838693499565,0.17318502068519592,-0.06289991736412048,0.2580450177192688,0.13158361613750458,0.13436415791511536,-0.09531201422214508,0.059508066624403,0.02299603447318077,-0.03173507750034332,0.17136119306087494,-0.03539418801665306,-0.08974257856607437,0.12524299323558807,-0.1563216894865036,-0.0776807963848114,0.025762738659977913,0.02944939397275448,0.09559297561645508,-0.028255825862288475,-0.00319631677120924,0.07124336063861847,0.09953455626964569,0.007031960878521204,0.010669049806892872,-0.005272398237138987,0.11230313032865524,-0.060232970863580704,0.14504265785217285,-0.11306743323802948,-0.0045875925570726395,0.07645102590322495,0.011166354641318321,-0.04090775176882744,0.09363673627376556],[-0.2273484170436859,0.19535310566425323,0.05409027263522148,-0.2510107457637787,0.05538584664463997,-0.04845428466796875,0.03826000168919563,-0.02726893313229084,-0.1336635798215866,-0.13492754101753235,-0.009930573403835297,0.013639084063470364,-0.03844819962978363,0.1961498260498047,-0.13636291027069092,-0.04159940034151077,-0.011176773346960545,0.050319261848926544,-0.08312142640352249,-0.0150433499366045,0.03691843897104263,0.04551897943019867,0.03690015897154808,0.053116265684366226,-0.10248678177595139,-0.06295295059680939,0.1183706596493721,0.09907602518796921,0.002143724588677287,0.030049005523324013,0.03458379954099655,0.11538040637969971,-0.011295907199382782,-0.027828091755509377,0.1028851717710495,-0.15142889320850372,0.1666623204946518,0.07200507819652557,0.007728680968284607,-0.040364280343055725,-0.10971831530332565,0.03371565043926239,0.1240655779838562,-0.0037597438786178827,0.06023393198847771,-0.10406755656003952,0.06407131254673004,0.11801967769861221,-0.23042815923690796,-0.13149723410606384,0.003959681373089552,-0.211133673787117,0.12691010534763336,0.019592054188251495,0.10069091618061066,-0.004213317297399044,0.08416687697172165,-0.03386109322309494,-0.1694316864013672,-0.1315423995256424,-0.039461132138967514,-0.09851761162281036,0.02485390566289425,0.05004258081316948,0.010141505859792233,-0.04399045929312706,-0.0281912200152874,-0.07105831056833267,0.0811876580119133,-0.027157293632626534,0.04637392982840538,0.013454468920826912,-0.17200636863708496,0.030570870265364647,0.09849677234888077,0.07736288011074066,-0.1026495099067688,-0.1277054101228714,-0.2024233341217041,-0.021204248070716858,0.10129590332508087,-0.06371594965457916,-0.003222555620595813,0.06347750127315521,-0.09738988429307938,-0.18276990950107574,-0.007199282757937908,-0.0011643365724012256],[0.003361825132742524,-0.10029492527246475,0.2857602834701538,0.04919402301311493,0.10549827665090561,-0.030026763677597046,-0.027288155630230904,0.31336092948913574,-0.011651610024273396,-0.054432209581136703,0.0133891012519598,0.0354963056743145,-0.11614201962947845,-0.05416569113731384,-0.012048115022480488,0.05812420696020126,0.17616401612758636,-0.15970927476882935,-0.20188438892364502,0.10102146863937378,-0.03645303472876549,-0.027534762397408485,-0.2637684941291809,0.14392980933189392,0.123370461165905,-0.003818141994997859,-0.07806726545095444,-0.07939770817756653,-0.07218248397111893,0.099449023604393,0.0478595569729805,0.07163701206445694,0.01595824770629406,-0.06683957576751709,-0.037711601704359055,0.21747076511383057,0.12358967959880829,-0.1638628989458084,0.02972271852195263,-0.02285705879330635,-0.02710067480802536,-0.034092605113983154,0.048899441957473755,0.05844150856137276,0.17622831463813782,-0.026595087721943855,-0.07185320556163788,-0.10763739794492722,0.09869206696748734,-0.06592375785112381,0.11152118444442749,-0.1443108171224594,0.1597883403301239,0.04002317413687706,-0.08341939747333527,0.03771042451262474,0.10802684724330902,-0.08185701817274094,0.07842499017715454,-0.05973513424396515,-0.009005626663565636,0.09853118658065796,0.014214692637324333,0.07114749401807785,-0.044019680470228195,-0.13640810549259186,-0.03229610621929169,-0.2820976674556732,0.05206797644495964,-0.05245786905288696,0.04653210937976837,0.03741779178380966,-0.15400010347366333,0.011819636449217796,-0.04964667931199074,0.002690043766051531,0.13641026616096497,0.16061072051525116,-0.02448163740336895,0.036604199558496475,0.009230265393853188,-0.008302864618599415,-0.044412899762392044,0.08952154964208603,-0.0020901504904031754,-0.07453221827745438,0.0740472599864006,0.050082046538591385],[-0.020089775323867798,0.08157399296760559,-0.0015755142085254192,0.045760974287986755,0.026239430531859398,-0.017586153000593185,0.175018772482872,-0.05876965820789337,0.017748957499861717,-0.02100735902786255,0.26280882954597473,0.0942937433719635,0.09981529414653778,-0.03721964359283447,0.05405207723379135,-0.14588329195976257,0.1335698664188385,-0.031155403703451157,0.14010828733444214,0.0011087236925959587,0.022693054750561714,-0.07581581920385361,0.11113152652978897,-0.06271255761384964,-0.17924602329730988,-0.1282324194908142,-0.13590054214000702,0.04763951525092125,-0.0035241052974015474,-0.08936399221420288,0.10454757511615753,-0.008439213037490845,-0.046407777816057205,0.019515644758939743,0.03210752457380295,0.11243189126253128,-0.06977749615907669,-0.16685044765472412,-0.0967288464307785,0.16777804493904114,0.15773387253284454,0.00954200979322195,0.05120686814188957,-0.0308522991836071,-0.058170173317193985,0.026820842176675797,0.1444789171218872,-0.07579464465379715,0.166661337018013,-0.014840449206531048,0.007460022810846567,0.05017750710248947,-0.17925003170967102,-0.07193311303853989,-0.10304974764585495,0.19997486472129822,0.059427764266729355,0.25049498677253723,-0.11253270506858826,-0.1057908907532692,-0.17109623551368713,-0.07808040827512741,-0.048259880393743515,-0.04834042489528656,0.09940571337938309,0.05606355890631676,0.008155666291713715,-0.06248004361987114,0.22439539432525635,0.14594942331314087,0.01983395218849182,0.028494734317064285,0.10767892003059387,0.020930036902427673,-0.11608173698186874,0.1250016987323761,-0.2650451958179474,-0.049585215747356415,0.22288869321346283,0.17680875957012177,-0.016024325042963028,-0.09679879993200302,0.13033239543437958,-0.007346875034272671,0.03119933418929577,0.13230659067630768,-0.04852168634533882,-0.008853474631905556],[0.005863170139491558,0.1884763538837433,-0.1895836442708969,0.10395980626344681,0.17259161174297333,-0.09278290718793869,0.08464116603136063,0.09024018049240112,-0.0070831249468028545,-0.29170435667037964,0.0291286651045084,0.2112988978624344,0.16403216123580933,-0.06975290924310684,0.021213151514530182,0.08117623627185822,-0.06493517011404037,0.005963657516986132,0.046360574662685394,0.013263336382806301,0.08809033036231995,-0.04152100160717964,0.18098925054073334,-0.09715043753385544,0.015784144401550293,0.06506621837615967,-0.07060341536998749,-0.0851631686091423,0.10856586694717407,-0.02883622609078884,-0.14593300223350525,0.0017946861917153,-0.04874177649617195,0.025639068335294724,-0.12375856190919876,-0.022184329107403755,0.14477713406085968,-0.03659991919994354,-0.0019379127770662308,-0.023628097027540207,0.032865364104509354,-0.14754949510097504,0.004632523749023676,0.07622785121202469,0.12376585602760315,0.05637378618121147,0.10990742594003677,-0.013626818545162678,0.09681374579668045,-0.0023343688808381557,-0.0927109345793724,0.10355184227228165,-0.1188441663980484,-0.05329468473792076,0.23757216334342957,0.01664462313055992,0.16802959144115448,-0.07465538382530212,-0.037782665342092514,-0.21260616183280945,0.009608911350369453,0.10331889241933823,0.12615638971328735,0.042275674641132355,0.14562825858592987,-0.002477779285982251,-0.08076591044664383,-0.0015297118807211518,0.08414830267429352,-0.11729896813631058,0.15251152217388153,0.17237544059753418,-0.08009451627731323,0.0056376405991613865,0.02599019557237625,0.010755321010947227,-0.07243834435939789,0.04950466379523277,0.008978389203548431,0.01771123893558979,0.031239302828907967,0.0036446405574679375,0.11807654798030853,-0.008240828290581703,0.01931966282427311,-0.025154959410429,-0.10986848920583725,-0.09790682792663574],[-0.1504923403263092,-0.09342404454946518,0.0024954357650130987,0.20561404526233673,-0.14372798800468445,0.030261285603046417,-0.10991931706666946,-0.10772537440061569,0.04670551046729088,0.033654455095529556,0.08836300671100616,0.11451027542352676,0.021203724667429924,-0.14812353253364563,0.03667980432510376,-0.14058776199817657,0.03157981112599373,-0.006003125105053186,0.0006861812435090542,0.04828144237399101,0.14076143503189087,0.09044379740953445,0.052058685570955276,0.11423643678426743,0.04975944012403488,-0.0430164635181427,0.11819915473461151,-0.12329644709825516,-0.06575129926204681,-0.005731014534831047,-0.08379796892404556,0.06492619216442108,0.12643416225910187,0.11705674976110458,0.2511242926120758,-0.061958421021699905,0.04819754883646965,-0.007083384785801172,-0.14685188233852386,0.14792709052562714,0.03719688206911087,-0.09608060866594315,0.026736728847026825,0.11625201255083084,0.006898614577949047,-0.09390849620103836,0.12796534597873688,0.08013775944709778,0.023994753137230873,0.08849555999040604,-0.18017813563346863,-0.10082490742206573,-0.012101971544325352,-0.10282453894615173,-0.09557849168777466,0.012158548459410667,-0.14142051339149475,-0.10395301133394241,0.10115209966897964,0.3507007658481598,-0.06052044406533241,0.07816945761442184,-0.07491383701562881,0.09705421328544617,0.09788110852241516,0.05764945596456528,-0.010828477330505848,-0.12634506821632385,-0.022277390584349632,-0.0957539975643158,-0.014539687894284725,0.0812867060303688,0.15739598870277405,-0.0061721112579107285,-0.07900914549827576,0.080973319709301,0.26896509528160095,-0.0749523714184761,-0.19901040196418762,-0.12105078250169754,0.045640189200639725,-0.019037125632166862,0.14923526346683502,-0.14996583759784698,0.08131477236747742,0.12487845122814178,-0.3325625956058502,-0.05193117633461952],[-0.06466018408536911,0.10613954067230225,-0.03610462322831154,0.1738709658384323,0.0905022844672203,-0.04987224191427231,-0.026854218915104866,-0.009228263981640339,-0.017721043899655342,-0.07691698521375656,-0.05395345017313957,-0.09586022049188614,0.0024613982532173395,-0.24492524564266205,-0.06287381052970886,0.03642696887254715,-0.14835265278816223,0.014378976076841354,0.012809195555746555,-0.08806545287370682,-0.15939493477344513,-0.027832038700580597,0.09480015933513641,-0.04968472942709923,0.19656917452812195,-0.1526995301246643,0.07691140472888947,0.03604244068264961,-0.18245957791805267,0.060943398624658585,-0.05468807741999626,-0.31194719672203064,0.007379157468676567,0.17195913195610046,0.06609170138835907,0.10486482828855515,0.11968228220939636,0.05638079345226288,-0.13286279141902924,-0.09717954695224762,0.02577206864953041,-0.11374669522047043,0.021030932664871216,-0.01993841491639614,0.016659529879689217,-0.015132308006286621,-0.13569697737693787,0.033238884061574936,0.01671934314072132,-0.038876041769981384,-0.03225843235850334,0.08613940328359604,0.03432977572083473,0.03107166290283203,-0.010798403061926365,-0.021704163402318954,-0.16424500942230225,0.05853831395506859,-0.04986649379134178,-0.09745559841394424,-0.06616706401109695,-0.049976225942373276,-0.05857708305120468,0.00876522809267044,-0.030662626028060913,-0.05128032714128494,-0.04058526083827019,0.01332251075655222,-0.15510772168636322,0.052233487367630005,-0.0667695477604866,0.07206299901008606,0.11282262951135635,0.06932076066732407,0.008740507997572422,-0.12648731470108032,-0.017504898831248283,0.07107783854007721,-0.003340112743899226,-0.09381530433893204,0.06353873759508133,-0.12624767422676086,-0.01256986428052187,0.05079885199666023,0.09037154167890549,0.020718205720186234,-0.21063068509101868,-0.0024712849408388138],[-0.20338936150074005,0.030592000111937523,0.1833086609840393,0.006908560171723366,0.20889140665531158,0.09964504092931747,-0.005609163548797369,-0.025718966498970985,-0.12618893384933472,-0.08662839978933334,0.18568813800811768,0.0018550236709415913,-0.0014055832289159298,-0.1404261440038681,0.025993511080741882,0.09562724828720093,0.20829033851623535,-0.10760603845119476,-0.060308877378702164,0.1561361402273178,-0.08392374962568283,-0.13370895385742188,-0.12301559746265411,-0.04105810075998306,0.14214909076690674,0.025659654289484024,-0.02008385956287384,0.21175046265125275,0.1511167585849762,-0.10099095851182938,-0.17594163119792938,-0.21376973390579224,0.020360179245471954,0.1264357566833496,0.08203915506601334,0.10135220736265182,-0.08847282081842422,-0.1529393345117569,-0.002911934396252036,0.17203056812286377,0.0033839689567685127,0.034869484603405,0.027904696762561798,0.2431211769580841,0.013958573341369629,-0.021808790042996407,-0.06329590827226639,0.21101847290992737,0.06441570073366165,-0.052861474454402924,-0.15075206756591797,0.07298695296049118,0.03501571714878082,-0.04536306485533714,0.015760567039251328,0.04221145063638687,0.013891275972127914,0.1358717381954193,-0.046068549156188965,-0.16818192601203918,-0.17972584068775177,-0.016518915072083473,0.02572801522910595,0.0891430675983429,0.03630024939775467,0.056012582033872604,-0.11395005136728287,0.006196989677846432,0.023835424333810806,0.15348030626773834,0.10256819427013397,0.03218221291899681,0.16098123788833618,-0.0013538702623918653,-0.14209866523742676,-0.13704895973205566,-0.055886462330818176,-0.018134096637368202,0.11348938941955566,-0.04123710095882416,0.185887411236763,-0.06004275381565094,-0.05615958198904991,-0.05983465909957886,-0.04229571297764778,-0.22102978825569153,0.135104700922966,-0.1261313408613205],[0.10313861817121506,0.13570129871368408,-0.10575419664382935,0.14085787534713745,-0.09236474335193634,-0.020757604390382767,-0.011703753843903542,0.06930771470069885,-0.09931021183729172,-0.12640544772148132,0.1563650369644165,-0.09688933193683624,0.06660578399896622,0.0184449702501297,-0.11460679024457932,-0.14313513040542603,-0.11269312351942062,-0.11327265948057175,-0.04638054966926575,-0.10658034682273865,-0.23948560655117035,-0.006952744908630848,-0.06711800396442413,-0.041203971952199936,-0.13510750234127045,0.028350569307804108,0.036058664321899414,0.18614061176776886,-0.028202038258314133,-0.030733197927474976,0.029817305505275726,0.11060794442892075,-0.003653057152405381,0.12546797096729279,0.012478255666792393,0.01533260103315115,-0.01670679822564125,0.10846811532974243,-0.3658182621002197,-0.012110375799238682,0.004243704956024885,-0.09153282642364502,0.011948352679610252,-0.21603408455848694,0.1559465527534485,0.11390510201454163,0.066924549639225,-0.032857321202754974,-0.06119596213102341,0.17559030652046204,-0.0989159345626831,0.10423464328050613,-0.011262474581599236,-0.005051775369793177,0.09680754691362381,0.08511573076248169,-0.03103317879140377,-0.07434958964586258,-0.00034103606594726443,0.03893428295850754,0.11189225316047668,-0.21908433735370636,0.05860571935772896,0.08807261288166046,0.013972250744700432,0.051375582814216614,0.06894614547491074,-0.16766150295734406,0.0017845610855147243,-0.008658824488520622,-0.09483307600021362,0.11281859129667282,-0.18569251894950867,0.008010980673134327,0.0851646289229393,-0.04946017265319824,0.021870741620659828,-0.05329078435897827,-0.022519219666719437,0.0884108692407608,0.1656709611415863,0.11445895582437515,0.1606525182723999,0.05980481207370758,-0.011937306262552738,0.16462315618991852,0.09631403535604477,0.0006853154045529664],[-0.03663055971264839,-0.2217206507921219,-0.07349343597888947,0.07222581654787064,0.10445085167884827,0.04379056394100189,0.05046919360756874,0.06947700679302216,0.03800733759999275,0.06668350100517273,0.10754220932722092,-0.12485425919294357,0.05917339026927948,-0.004798519425094128,0.2656003534793854,0.1407794952392578,-0.20300693809986115,0.050861336290836334,-0.029840096831321716,-0.021338418126106262,0.05811376869678497,0.06941968202590942,0.15293216705322266,-0.03964589163661003,0.05327277630567551,0.13056723773479462,0.13050591945648193,-0.04858218505978584,0.047836244106292725,0.05973592400550842,0.11022288352251053,-0.04405566677451134,-0.2249312847852707,-0.02300088480114937,-0.04728139564394951,0.029216505587100983,-0.004706600680947304,0.052644867449998856,-0.16015911102294922,-0.025987185537815094,0.010852483101189137,-0.07260870188474655,-0.006862688343971968,0.02969464100897312,-0.022982874885201454,0.051017217338085175,0.0668262168765068,0.09358270466327667,-0.08706231415271759,-0.17781949043273926,-0.037636347115039825,-0.08016744256019592,-0.0677982047200203,-0.0888611227273941,0.13119810819625854,-0.02644907310605049,0.10281440615653992,0.01243413146585226,-0.09700411558151245,0.10389453172683716,-0.15256211161613464,0.15370681881904602,-0.1974366456270218,0.01185670681297779,-0.03503674641251564,-0.0673397108912468,0.02815389446914196,-0.004554497543722391,0.11829531937837601,0.08358819037675858,0.17778335511684418,-0.28657788038253784,-0.039202772080898285,0.09670313447713852,0.03144466504454613,0.060152050107717514,0.036080412566661835,-0.05595299229025841,0.010486219078302383,-0.01750025525689125,0.11427885293960571,-0.03626612201333046,0.07017521560192108,-0.05722690001130104,-0.11914992332458496,-0.12395964562892914,-0.030736390501260757,-0.0715143084526062],[-0.09223060309886932,0.011211971752345562,-0.047596562653779984,0.12696807086467743,-0.030643101781606674,-0.004456129856407642,0.13532619178295135,-0.0499756745994091,0.050207510590553284,0.11982176452875137,0.025138195604085922,-0.14977842569351196,0.03331182897090912,0.0006627131951972842,-0.04588572680950165,0.08186981827020645,0.16218619048595428,-0.10140331834554672,-0.17674309015274048,-0.16229405999183655,-0.18284045159816742,-0.16105391085147858,0.02735692448914051,0.11086906492710114,0.13114966452121735,-0.10999033600091934,0.1585218906402588,-0.17591199278831482,-0.015778159722685814,0.11769568175077438,-0.0641573891043663,-0.07675781100988388,-0.0822419673204422,0.08395975828170776,-0.23522858321666718,-0.08953604847192764,-0.16489148139953613,0.14081025123596191,-0.019360437989234924,-0.007177970837801695,0.032999034970998764,-0.009260105900466442,0.13634264469146729,0.14721806347370148,0.030241765081882477,-0.06478264182806015,0.12308084964752197,-0.17996883392333984,0.08214891701936722,-0.0002286995731992647,-0.010221421718597412,0.16554448008537292,0.13479916751384735,-0.03386594355106354,0.11079089343547821,-0.11962025612592697,-0.056393902748823166,-0.0656396821141243,-0.008588551543653011,-0.03311864286661148,0.0906994640827179,0.010114547796547413,-0.08049428462982178,-0.036143846809864044,-0.21424560248851776,-0.013338100165128708,-0.08415794372558594,-0.01919769123196602,-0.02330501563847065,-0.046439893543720245,0.0513358935713768,-0.2032519280910492,-0.006326121278107166,0.003946696408092976,-0.010304759256541729,0.05598466843366623,-0.00688810832798481,-0.02299274504184723,0.02382790669798851,-0.03168535977602005,0.1405976265668869,-0.05742273107171059,0.061757463961839676,0.16567696630954742,0.13132616877555847,-0.041228387504816055,0.15399503707885742,0.14366480708122253],[-0.0007864573854021728,-0.21652191877365112,0.07128065824508667,-0.01756093092262745,-0.15409576892852783,0.0753038078546524,0.18644151091575623,-0.055410075932741165,0.13036030530929565,0.05284302309155464,0.08254394680261612,-0.11735554784536362,-0.04314554110169411,0.198280468583107,0.07509050518274307,0.07348539680242538,-0.08766242861747742,-0.14130637049674988,-0.14662659168243408,-0.07809414714574814,0.016723893582820892,-0.011969382874667645,0.03154224902391434,0.07912548631429672,0.2190011888742447,0.032271429896354675,-0.02252039685845375,0.01186363585293293,0.15344512462615967,0.045990344136953354,-0.10407060384750366,-0.120901919901371,-0.19877193868160248,0.0008143407758325338,-0.0876011922955513,-0.2837883234024048,0.06823396682739258,-0.17365485429763794,-0.005146860145032406,-0.024317093193531036,-0.018970530480146408,0.15908144414424896,-0.032244425266981125,0.18854551017284393,-0.0833406001329422,0.03737812489271164,0.045285265892744064,0.06640441715717316,-0.020592745393514633,-0.008039488457143307,0.14038637280464172,-0.018265997990965843,-0.11052210628986359,0.20631566643714905,-0.022370675578713417,0.04613277688622475,-0.018588922917842865,0.04163268581032753,0.09641338884830475,-0.04054864123463631,-0.11396472156047821,-0.11757103353738785,-0.13805918395519257,-0.08773893117904663,-0.094916433095932,-0.21398590505123138,0.065971240401268,-0.03331226855516434,-0.05237529054284096,0.0007340634474530816,-0.1924888789653778,0.07487145811319351,-0.08855092525482178,0.018369991332292557,0.0037281662225723267,-0.1424250453710556,-0.018164951354265213,0.00019727819017134607,-0.0003477435384411365,-0.0005650290986523032,0.12843653559684753,-0.01887485198676586,0.04275437444448471,0.1695883423089981,-0.14345544576644897,-0.11967514455318451,0.006531267426908016,-0.009081884287297726],[-0.19707882404327393,0.07059971988201141,-0.06582339107990265,-0.05215323343873024,-0.11115571111440659,0.1929706335067749,0.15762551128864288,-0.11683080345392227,-0.07367101311683655,-0.040894489735364914,-0.0698222666978836,0.10242288559675217,-0.1019306480884552,-0.12638160586357117,0.07396788895130157,-0.16924017667770386,0.05229795351624489,-0.05758772790431976,0.03344763442873955,0.10351496189832687,0.1696997880935669,-0.0027695856988430023,0.2536473572254181,0.16883638501167297,0.05537586286664009,0.11518469452857971,-0.12276467680931091,0.13490349054336548,0.0057869949378073215,0.03895101696252823,0.09105230122804642,0.00735852587968111,0.111173614859581,-0.15160448849201202,-0.08974294364452362,0.1296686977148056,-0.04498111084103584,0.09780874848365784,0.05210120603442192,0.029096201062202454,0.19768096506595612,0.11021101474761963,0.023379791527986526,-0.06294270604848862,-0.18374332785606384,-0.017189256846904755,-0.09337790310382843,-0.06273399293422699,0.06374096125364304,0.03801606968045235,0.028347158804535866,-0.009924122132360935,-0.021619701758027077,-0.060814980417490005,0.09674008190631866,-0.11598044633865356,0.005764190107584,0.02699284628033638,0.0007678979309275746,-0.11912741512060165,-0.09149304777383804,0.03814055398106575,-0.05575502663850784,-0.04270144924521446,0.06108389049768448,0.06388222426176071,-0.06252166628837585,0.018467625603079796,-0.10016520321369171,-0.01515391655266285,-0.0326407253742218,-0.041630811989307404,-0.2664024531841278,0.01339917816221714,0.005805141758173704,-0.12381193041801453,-0.10316111892461777,0.04058218002319336,-0.15429428219795227,0.11317392438650131,-0.014835589565336704,0.11611483991146088,0.1460198014974594,0.25925272703170776,0.052963390946388245,0.08814261108636856,-0.1366364061832428,0.3679814636707306],[-0.0540274940431118,0.23326325416564941,0.05634734034538269,0.1102718636393547,-0.2336723655462265,-0.10167514532804489,-0.17899246513843536,0.046411532908678055,-0.11960349231958389,-0.013016976416110992,-0.13108208775520325,0.03660476952791214,-0.05947427824139595,0.010353180579841137,0.13279029726982117,-0.032741107046604156,0.08242165297269821,0.11994379013776779,-0.037217479199171066,-0.03337321802973747,-0.1267070770263672,0.052336227148771286,0.138954758644104,0.0071469140239059925,-0.027846237644553185,0.07039280235767365,0.09494257718324661,0.2064136564731598,0.10023769736289978,-0.01907954551279545,0.29170095920562744,0.12574966251850128,0.1340821385383606,0.0012771947076544166,0.21121397614479065,-0.015582866966724396,0.16535887122154236,0.16235816478729248,-0.0339999794960022,0.19488337635993958,0.06639847904443741,-0.04490131512284279,-0.027315009385347366,0.16949163377285004,-0.11174477636814117,0.11092731356620789,0.08356258273124695,-0.19656290113925934,0.01141614094376564,0.006665757857263088,-0.20594145357608795,0.06091243773698807,0.2054172307252884,-0.07394378632307053,-0.06051364541053772,0.04533211514353752,0.1945207267999649,-0.07985950261354446,-0.014632835052907467,-0.06381464004516602,-0.15053515136241913,-0.024275656789541245,-0.04178542643785477,-0.09575574100017548,-0.07146691530942917,-0.19360506534576416,0.09553471952676773,-0.048278290778398514,-0.06922536343336105,0.04342709481716156,0.04586305469274521,-0.04700604826211929,-0.026163652539253235,-0.04446959123015404,-0.11177343875169754,-0.1047862246632576,0.010163717903196812,-0.01653875596821308,0.0423426479101181,0.06147850304841995,0.10186027735471725,-0.048628564924001694,-0.04431722313165665,0.028003105893731117,-0.04173523932695389,0.1444072425365448,-0.04014616459608078,0.1411525160074234],[-0.05879967287182808,0.06843957304954529,0.005047295242547989,0.008633565157651901,-0.017549002543091774,-0.15251527726650238,-0.10999652743339539,0.16413050889968872,0.08828496187925339,0.012300204485654831,0.025654375553131104,-0.012087777256965637,-0.11829966306686401,-0.01824982464313507,0.029065540060400963,-0.17686715722084045,0.201777845621109,-0.01597011834383011,-0.05289322882890701,0.030019013211131096,0.1712295413017273,0.0695488452911377,-0.15205182135105133,-0.01693210005760193,0.022768959403038025,0.028350284323096275,-0.030442630872130394,-0.015444960445165634,0.15754280984401703,0.02939647063612938,0.025451907888054848,0.13785983622074127,0.10518372803926468,-0.00650981068611145,-0.07019109278917313,0.1617979258298874,0.0950731486082077,-0.0809563398361206,-0.08214569836854935,-0.22235997021198273,0.081728994846344,-0.04633653908967972,0.11572759598493576,-0.0306581798940897,0.15921491384506226,0.08608740568161011,-0.054212212562561035,-0.07542885839939117,-0.06929178535938263,0.07071967422962189,0.12724636495113373,0.023887502029538155,0.1455889493227005,-0.041381385177373886,0.026944397017359734,-0.03506173938512802,0.01639479584991932,0.08884457498788834,-0.027964599430561066,0.06314394623041153,-0.19674724340438843,0.048584748059511185,-0.21840794384479523,0.11075623333454132,0.021062804386019707,-0.07754261791706085,-0.007101530209183693,-0.02557787112891674,-0.08279707282781601,0.11374995112419128,-0.06427199393510818,0.17613531649112701,0.03885304927825928,-0.004038797225803137,-0.01998501643538475,-0.06582850217819214,0.06121150404214859,-0.09916102141141891,-0.019111130386590958,0.08976577967405319,-0.038192108273506165,0.02233634889125824,0.09345552325248718,-0.020512090995907784,-0.08673878759145737,-0.19412530958652496,0.11062292754650116,-0.0029165034648030996],[0.196544349193573,0.027511682361364365,0.14759354293346405,0.07638239860534668,0.016065096482634544,0.01002211682498455,0.07835949957370758,0.12181161344051361,-0.09078933298587799,0.16729867458343506,-0.022820014506578445,0.1536690890789032,0.16272008419036865,-0.0294985119253397,-0.07267113775014877,-0.07088907808065414,0.0523863323032856,-0.08184786885976791,-0.12786680459976196,0.10510306060314178,0.04111763462424278,-0.10598589479923248,0.33731263875961304,-0.03749600425362587,0.1110776737332344,0.09030788391828537,0.029322605580091476,-0.00898823607712984,-0.062095675617456436,-0.1285906434059143,0.1638234704732895,-0.13394534587860107,-0.027995221316814423,0.0074665904976427555,0.1285082995891571,-0.23236368596553802,-0.002182440599426627,0.036306966096162796,0.18575932085514069,0.2325126677751541,-0.051041554659605026,-0.08771833777427673,-0.07794034481048584,-0.12483339756727219,-0.09003163874149323,-0.06468583643436432,0.014286368153989315,-0.009004171006381512,-0.050760891288518906,0.02298753336071968,-0.12665721774101257,-0.06855376809835434,-0.0076384576968848705,0.09764545410871506,0.06688070297241211,-0.002776250708848238,0.012566878460347652,0.049841031432151794,-0.10317853838205338,-0.13704058527946472,0.125454843044281,0.03344280272722244,0.011956145986914635,-0.09279046952724457,-0.016256926581263542,-0.04500271752476692,-0.007164346519857645,0.08716600388288498,0.07515694200992584,-0.11465255171060562,-0.022070294246077538,0.055435389280319214,0.08127003163099289,0.0315282978117466,-0.1250971108675003,-0.051923707127571106,-0.1260354220867157,0.0418987013399601,0.022622661665081978,-0.14197328686714172,-0.0674305185675621,-0.006445388775318861,-0.05567102134227753,-0.029568364843726158,-0.07450135797262192,-0.13446123898029327,-0.017178794369101524,0.03984185308218002],[0.1593996286392212,-0.12087448686361313,0.06547794491052628,0.05829990655183792,-0.10445810109376907,-0.24848835170269012,-0.14409145712852478,0.10186385363340378,0.04929066449403763,0.05270257964730263,0.03785043954849243,-0.06282436102628708,-0.05940934643149376,0.005912633612751961,-0.024857209995388985,-0.04871486499905586,-0.01613941788673401,0.18130271136760712,0.0061321682296693325,-0.058853909373283386,-0.09678485244512558,0.17828994989395142,0.17628957331180573,0.13932235538959503,0.016344919800758362,-0.09585008025169373,0.13330142199993134,-0.06068739295005798,-0.14424021542072296,-0.016779229044914246,0.06772556900978088,-0.034049808979034424,-0.03363844379782677,0.04413914680480957,0.1471852958202362,0.012357148341834545,0.09089992940425873,0.008044750429689884,0.11236317455768585,-0.11116857826709747,-0.009283685125410557,-0.08087462186813354,-0.07566861808300018,0.024765057489275932,-0.018365999683737755,-0.06498586386442184,-0.07441317290067673,-0.2693641483783722,0.05099393427371979,-0.19051504135131836,-0.05718713253736496,-0.03956526517868042,0.04330989718437195,-0.032746098935604095,0.18620403110980988,0.04533623531460762,-0.09354105591773987,0.06268429011106491,-0.11078503727912903,-0.10027609020471573,0.16490960121154785,0.11886139214038849,-0.1207212284207344,0.09683150053024292,0.1063808724284172,0.035923197865486145,-0.06120143458247185,-0.020735519006848335,-0.02782137505710125,0.00028084084624424577,0.028629163280129433,-3.197037585778162e-05,-0.10347890108823776,0.24223287403583527,0.0022542269434779882,0.19914138317108154,-0.08705446124076843,0.06920196861028671,-0.22937257587909698,0.11211153864860535,-0.01585530862212181,0.2138555943965912,0.13997648656368256,-0.31043365597724915,-0.03725350648164749,0.06114565581083298,-0.10605747252702713,-0.004089325666427612],[0.0676276683807373,0.06785988807678223,0.028611021116375923,-0.143680602312088,-0.0725206658244133,0.006453933659940958,0.0803476870059967,0.11188393086194992,-0.04016067460179329,0.03657630831003189,-0.0029120580293238163,0.08000153303146362,0.1645067036151886,0.09535110741853714,0.07024316489696503,-0.08040343225002289,0.05849394574761391,-0.05304377153515816,0.035164885222911835,0.040888819843530655,0.1250787377357483,0.14721177518367767,0.15254297852516174,0.12492801249027252,0.05847189575433731,0.12079513818025589,-0.11823192238807678,0.04649152234196663,-0.13925699889659882,0.0386185459792614,-0.013864587061107159,0.0668664202094078,-0.14119462668895721,-0.19600656628608704,0.16820257902145386,-0.11519511044025421,-0.05077448859810829,0.17950312793254852,-0.22416512668132782,0.12204129248857498,0.13706180453300476,-0.1376665234565735,0.006405958440154791,-0.026408294215798378,-0.1225983127951622,0.18306593596935272,0.05710553377866745,-0.05557265877723694,-0.20988710224628448,0.040687497705221176,0.003917591646313667,0.11232613772153854,0.11414391547441483,0.05611824989318848,-0.12938465178012848,-0.028538262471556664,0.07795603573322296,0.003752043005079031,0.07664766162633896,-0.05830979719758034,-0.059112951159477234,-0.07798515260219574,0.0074192010797560215,0.059142064303159714,0.076054148375988,0.103767529129982,-0.2482030689716339,-0.0084915766492486,-0.15780913829803467,0.09036794304847717,0.04193732887506485,0.1409810185432434,0.018672868609428406,-0.05952708423137665,0.12029676884412766,0.08016373217105865,0.06079728156328201,0.1341172158718109,0.08715485781431198,-0.04855192452669144,0.12285540252923965,-0.13185256719589233,-0.20011068880558014,0.08372793346643448,0.0786387100815773,-0.007159423548728228,0.0988224595785141,-0.06564188003540039],[0.2103956937789917,-0.05826229974627495,0.10488245636224747,-0.0899430438876152,-0.014917565509676933,-0.10159943252801895,-0.039239995181560516,0.017658261582255363,0.07763152569532394,-0.18932296335697174,-0.05549204349517822,-0.02532053552567959,-0.003184092231094837,-0.17365919053554535,-0.02561059221625328,0.1855941116809845,0.010715020820498466,-0.01913329027593136,0.03414495661854744,-0.0035990558099001646,0.04753812402486801,0.06481610983610153,0.05502160266041756,-0.04785186052322388,-0.018925560638308525,-0.16320990025997162,0.1160561814904213,-0.021935274824500084,0.1637873649597168,-0.0633658766746521,0.06589397042989731,-0.03932664170861244,0.13376359641551971,-0.16732272505760193,0.08835984766483307,-0.004996912088245153,-0.09304464608430862,0.10785358399152756,0.008524559438228607,-0.10932361334562302,0.09045742452144623,0.3189077377319336,-0.0843546986579895,-0.09535769373178482,0.127868190407753,-0.17226630449295044,0.20454758405685425,-0.06618468463420868,-0.01696045510470867,0.16958840191364288,-0.06698650121688843,-0.014360381290316582,-0.055282048881053925,0.09489833563566208,0.0019424427300691605,-0.21580463647842407,-0.1443973034620285,-0.017303094267845154,-0.03083913028240204,0.040665607899427414,0.07950729876756668,-0.11195307970046997,-0.05900034308433533,0.11844135820865631,-0.035625945776700974,0.04460299760103226,0.19025841355323792,-0.031203530728816986,-0.15015527606010437,0.038148634135723114,-0.05959933251142502,0.07977854460477829,-0.07092201709747314,-0.1931140422821045,-0.05742216110229492,-0.006147697567939758,-0.1051502674818039,0.2661546468734741,-0.016720836982131004,-0.08765564113855362,0.20392341911792755,-0.18552444875240326,0.16287250816822052,-0.019378695636987686,-0.11133068799972534,-0.1805177927017212,0.020456144586205482,0.12142571806907654],[0.22229349613189697,-0.0056763566099107265,-0.020725667476654053,0.006226805970072746,0.16135640442371368,0.13746942579746246,-0.16034837067127228,-0.1486114114522934,-0.036931395530700684,0.015164165757596493,-0.009279642254114151,-0.06173665449023247,0.013091329485177994,0.056489888578653336,0.022160660475492477,-0.19058039784431458,0.05293744429945946,0.1837281435728073,0.22987110912799835,-0.09045165777206421,-0.13350732624530792,-0.11536014825105667,-0.004501671064645052,-0.031308602541685104,-0.15517589449882507,-0.051291875541210175,0.1313799023628235,-0.16258443892002106,0.13607414066791534,0.036330923438072205,-0.1217399314045906,0.036518413573503494,-0.041221555322408676,-0.08721277117729187,0.12208633869886398,-0.0621466226875782,-0.12312348186969757,0.11799352616071701,-0.01005240622907877,0.23812325298786163,-0.059910453855991364,-0.07359423488378525,0.0446198508143425,-0.023553818464279175,0.0930294319987297,-0.12167234718799591,0.030238769948482513,-0.14548105001449585,-0.17998822033405304,0.09955719113349915,-0.03975893557071686,0.04514896497130394,0.0383593775331974,0.18965424597263336,0.1545846164226532,0.00020624324679374695,-0.1591271311044693,0.018779946491122246,0.06378442794084549,-0.11141973733901978,-0.01566765084862709,-0.22064019739627838,-0.11618310213088989,0.13944528996944427,-0.17247417569160461,0.10559326410293579,-0.13393530249595642,0.13126380741596222,-0.3365223705768585,0.1961490511894226,-0.033540111035108566,0.0041254302486777306,-0.08161777257919312,0.07496477663516998,-0.09584977477788925,-0.0019065317464992404,-0.03208474442362785,-0.046371687203645706,0.030274465680122375,-0.07465812563896179,0.07062537223100662,0.12539401650428772,-0.012760872021317482,0.03958196938037872,-0.05074163153767586,0.10198748856782913,-0.04123389720916748,0.03556695953011513],[-0.02796592004597187,-0.11739299446344376,0.13416741788387299,0.05913573503494263,-0.0972554013133049,-0.1430968940258026,0.047181636095047,0.08296947181224823,-0.1647837609052658,-0.07933353632688522,0.1818259209394455,0.023502295836806297,0.15685302019119263,0.041529521346092224,-0.24306322634220123,0.040654364973306656,-0.050167616456747055,0.058946095407009125,-0.06013820692896843,-0.07781271636486053,-0.016283178701996803,-0.060663849115371704,-0.03191104158759117,0.012594121508300304,0.02735445648431778,-0.019782962277531624,0.02863144874572754,0.021160101518034935,0.03210657835006714,-0.07803446799516678,0.049545276910066605,0.05584809184074402,-0.072444386780262,-0.05733523145318031,-0.09687354415655136,0.192985400557518,-0.10298498719930649,-0.01062769629061222,-0.07469064742326736,-0.013875900767743587,-0.04387829452753067,0.03735345974564552,-0.14172616600990295,0.0039118132553994656,-0.11026722937822342,-0.10049590468406677,-0.00904699508100748,-0.10439635813236237,0.09130652993917465,-0.15783962607383728,0.0691516324877739,-0.12144402414560318,0.012494283728301525,-0.22641360759735107,-0.00035825083614327013,-0.07342326641082764,0.12735512852668762,0.0697837844491005,-0.012643205001950264,0.03868795186281204,0.11395196616649628,-0.03932970017194748,-0.1868971735239029,0.06662920117378235,0.0706416666507721,-0.11333712935447693,0.05821073800325394,0.004875266458839178,0.12701433897018433,-0.12577088177204132,-0.10490507632493973,-0.04664454609155655,0.049142200499773026,0.18357330560684204,-0.029552990570664406,-0.03498588129878044,0.1903567612171173,-0.02797761745750904,0.13544215261936188,0.05028605833649635,0.08345979452133179,0.036847613751888275,-0.04953384026885033,0.10154964029788971,-0.0659206435084343,0.07583586126565933,0.017297007143497467,0.09585455060005188],[0.08310403674840927,-0.06642318516969681,0.0980953499674797,-0.14112143218517303,0.18897105753421783,-0.0033775833435356617,0.11134357750415802,0.050139255821704865,-0.11468689143657684,-0.10683341324329376,0.05899471417069435,-0.15356864035129547,0.12064093351364136,0.014136203564703465,0.1479324847459793,-0.04809524491429329,0.06057491898536682,-0.09947182238101959,-0.18385100364685059,-0.051413752138614655,-0.03712376952171326,0.07871624082326889,-0.2021363228559494,-0.1733972728252411,0.1784636378288269,0.2277248352766037,-0.0905267521739006,-0.027289830148220062,0.042286209762096405,0.2531610429286957,0.23912252485752106,0.11943313479423523,0.04381384700536728,-0.22016890347003937,-0.06086648628115654,-0.31186217069625854,0.02705046534538269,0.13769026100635529,0.029616190120577812,-0.05248450115323067,0.024192042648792267,-0.16935837268829346,-0.005306671839207411,0.03948219493031502,-0.1225498765707016,0.07130005210638046,-0.03376324102282524,-0.07357137650251389,-0.10136336088180542,0.018506916239857674,0.0012106782523915172,-0.1355193704366684,0.09732580929994583,-0.03452039510011673,0.05396346002817154,0.03084149770438671,-0.06272930651903152,-0.007908393628895283,0.1095661073923111,-0.017140520736575127,-0.2054007202386856,-0.11095012724399567,0.28517359495162964,0.06762374937534332,0.04679290950298309,0.0072225299663841724,-0.04514817148447037,0.0008050308097153902,-0.21229125559329987,0.06944644451141357,-0.10779523849487305,0.16367536783218384,-0.0009681365918368101,0.03856504335999489,0.11603060364723206,-0.017935384064912796,0.09904740005731583,0.04380275309085846,0.034047357738018036,0.14937099814414978,0.14601203799247742,-0.11754254251718521,-0.08251132071018219,-0.22755105793476105,0.0794735923409462,0.07393290102481842,-0.05584457144141197,-0.005857585929334164],[0.11256834864616394,-0.026593564078211784,0.05291459709405899,0.004620901774615049,0.14102502167224884,-0.21905352175235748,-0.05335665121674538,0.11337249726057053,-0.022847410291433334,-0.043243538588285446,0.14869526028633118,-0.07829045504331589,-0.10273236036300659,-0.07709769159555435,-0.032824836671352386,-0.10863632708787918,0.029737498611211777,0.032303255051374435,-0.03512614965438843,0.017729146406054497,-0.020141558721661568,0.06561499089002609,0.18941351771354675,0.11105747520923615,0.02201479859650135,-0.012159081175923347,0.10279005765914917,-0.07332741469144821,0.01804688759148121,-0.10544982552528381,0.2530365288257599,0.10472216457128525,-0.12255600094795227,0.011659163981676102,-0.030652517452836037,-0.0008262514602392912,0.164528951048851,-0.05836684629321098,-0.003666922217234969,0.09001555293798447,-0.09827442467212677,-0.015464123338460922,0.09590161591768265,-0.12079257518053055,0.10748914629220963,-0.003102693008258939,0.02500459924340248,-0.01581481285393238,-0.037683796137571335,-0.06268256902694702,0.0358722098171711,0.12135549634695053,0.06859570741653442,-0.04227942228317261,-0.020663555711507797,-0.058017369359731674,0.09235215932130814,-0.0643586739897728,-0.19007164239883423,0.0999816507101059,-0.023124778643250465,-0.08196748793125153,0.10851958394050598,0.00026742651243694127,-0.12940901517868042,0.13591468334197998,-0.08009221404790878,-0.08305786550045013,0.13018512725830078,-0.0543556772172451,-0.1127905398607254,-0.04460116848349571,-0.06977401673793793,0.02111019752919674,-0.0476834699511528,0.03447018191218376,-0.0900716632604599,-0.22601711750030518,-0.081940658390522,0.07780743390321732,0.29120996594429016,0.03101601079106331,0.12926551699638367,-0.04618871212005615,0.14039833843708038,-0.044297099113464355,0.05996854230761528,-0.06465929746627808],[0.16253487765789032,0.009567352943122387,-0.04662652686238289,-0.017212888225913048,0.09985239803791046,0.005710957106202841,-0.06675649434328079,-0.1362481564283371,-0.06450893729925156,-0.12470296770334244,0.19160473346710205,0.2455805540084839,0.16254857182502747,0.07358814775943756,-0.06637478619813919,0.08066532760858536,0.002068715402856469,0.2311560958623886,0.03294849395751953,0.12577126920223236,-0.13246558606624603,-0.12020084261894226,0.07941659539937973,-0.12639319896697998,-0.03822403401136398,0.19442972540855408,-0.09756194055080414,-0.1683378964662552,-0.04199076071381569,0.1387627273797989,0.15458062291145325,0.076624795794487,-0.1471118927001953,-0.10697347670793533,0.10995063185691833,-0.12145325541496277,0.013122476637363434,0.06907401233911514,-0.021197665482759476,0.030747169628739357,0.08237456530332565,-0.011763122864067554,0.08460066467523575,0.109835185110569,-0.06824354082345963,0.03578929975628853,-0.029290098696947098,-0.031046457588672638,-0.10337111353874207,0.06789494305849075,-0.17134365439414978,-0.09775663167238235,0.03317812457680702,0.007765010464936495,0.21882173418998718,0.022394318133592606,-0.06995195895433426,-0.14588792622089386,0.05318596959114075,0.05989385396242142,-0.04675637185573578,0.08766639232635498,-0.016246892511844635,-0.03054032102227211,0.2553403079509735,-0.1266488879919052,-0.18018846213817596,0.0709899440407753,-0.09922336041927338,-0.04762757942080498,0.07977141439914703,-0.14993488788604736,0.006773941684514284,-0.15189027786254883,-0.03180818259716034,-0.02496129833161831,0.17149588465690613,-0.013597209006547928,0.10068309307098389,0.025316271930933,-0.04167689383029938,0.21493199467658997,-0.037254899740219116,-0.257203608751297,0.16962434351444244,0.06316836923360825,0.20060613751411438,-0.16134342551231384],[0.1555398404598236,0.14044706523418427,-0.17913591861724854,0.10459177941083908,-0.02068335935473442,0.08477867394685745,0.0738387405872345,0.10841136425733566,-0.13118645548820496,0.32819151878356934,-0.04231793060898781,-0.019539013504981995,0.09887946397066116,0.09600619971752167,-0.10232564806938171,0.1819273829460144,-0.02172159217298031,0.05968264490365982,0.09258102625608444,-0.03455426171422005,0.052816346287727356,0.11522217839956284,-0.006469414569437504,