{"architecture":{"input_dim":20,"hidden_dim":64,"hidden_layers":4,"output_dim":4,"activation":"tanh","num_fourier_frequencies":10},"weights":{"layer_0":{"weight":[[-0.056848715990781784,0.07933543622493744,-0.017962545156478882,-0.20489563047885895,0.05364716053009033,0.20898622274398804,0.1559409350156784,-0.2034551501274109,-0.04820600524544716,0.09925901144742966,0.03303026035428047,0.4460032284259796,-0.49761080741882324,0.2054813951253891,0.008741077035665512,-0.25212734937667847,0.11258067935705185,-0.014414387755095959,-0.09094209969043732,0.05256861820816994],[0.343285471200943,0.15379410982131958,-0.06499475240707397,-0.19255423545837402,0.19085504114627838,0.26780369877815247,-0.07318194210529327,0.02599489316344261,0.3136972188949585,-0.06425843387842178,0.16754207015037537,0.1915050894021988,0.04355522617697716,0.1615903228521347,0.09801752120256424,0.06556634604930878,-0.006869824603199959,-0.07200538367033005,-0.08193477243185043,0.14513614773750305],[0.23036840558052063,-0.10152067989110947,-0.1715453565120697,0.13228937983512878,-0.007569756358861923,-0.07534901797771454,-0.10851125419139862,0.07718329131603241,0.1567666381597519,-0.06275945156812668,-0.065815269947052,0.17315664887428284,0.04802593216300011,-0.08885356038808823,-0.10471765697002411,-0.10766413062810898,0.1825258731842041,0.06628823280334473,-0.014026161283254623,-0.07348871976137161],[-0.15450164675712585,0.22472508251667023,-0.1540219485759735,-0.19119331240653992,0.005201804917305708,0.3424378037452698,0.09286680072546005,-0.02839416265487671,0.1555129587650299,0.008301196619868279,-0.050800666213035583,-0.03729213401675224,0.0667467936873436,0.027361037209630013,-0.2982405126094818,-0.19636814296245575,0.30704739689826965,-0.004862535744905472,-0.09924940019845963,0.15640035271644592],[-0.07874341309070587,-0.024245915934443474,0.020862890407443047,0.06707339733839035,0.017543897032737732,0.05814085900783539,0.22887873649597168,0.11365721374750137,0.13613414764404297,-0.1150544062256813,0.18649403750896454,0.16208544373512268,0.016072865575551987,-0.1842404007911682,-0.11518564820289612,0.13265234231948853,-0.15446354448795319,-0.0643373355269432,0.10278446972370148,-0.057386741042137146],[-0.14285846054553986,-0.22589270770549774,-0.1289573311805725,-0.13129030168056488,0.04152274131774902,0.027150481939315796,0.0873781070113182,-0.02895776554942131,0.046395860612392426,0.055039629340171814,0.12826049327850342,-0.1748470813035965,0.12217429280281067,-0.1819431185722351,-0.08971106261014938,-0.07254722714424133,0.03010515868663788,0.13619215786457062,0.15545110404491425,0.17624101042747498],[0.2192525416612625,-0.21047484874725342,0.21010816097259521,-0.002304681111127138,0.04335107281804085,-0.24738186597824097,-0.054549697786569595,0.004748895298689604,-0.044058285653591156,0.013207236304879189,0.07225213944911957,0.12719866633415222,0.2203149050474167,-0.07630321383476257,-0.026345407590270042,-0.04674133285880089,0.04252508655190468,0.038821276277303696,0.07693397253751755,-0.27101215720176697],[0.040862422436475754,0.21009156107902527,0.16183114051818848,-0.03662007302045822,-0.04439185932278633,0.13945376873016357,0.021766042336821556,-0.12616203725337982,0.1421520709991455,0.013315919786691666,0.1659393012523651,-0.1021718680858612,-0.004869615659117699,0.07272977381944656,-0.09259411692619324,-0.17534616589546204,-0.12871721386909485,-0.06945879012346268,-0.08958133310079575,0.19302377104759216],[-0.11755461990833282,0.15343570709228516,-0.14432531595230103,0.026025699451565742,0.14259326457977295,-0.09026823192834854,0.20830073952674866,0.14124593138694763,0.1688634157180786,-0.19082008302211761,-0.19450895488262177,0.24371500313282013,-0.0761011391878128,-0.2904199957847595,0.1460730880498886,0.17298303544521332,-0.04052409529685974,0.035658255219459534,0.1292259395122528,-0.24099639058113098],[0.16462214291095734,0.26786327362060547,-0.17581109702587128,-4.706581239588559e-05,0.016865305602550507,-0.062654510140419,0.32277047634124756,0.011440502479672432,0.028925877064466476,0.14822006225585938,-0.19841670989990234,-0.107045978307724,0.01901538111269474,0.1508941650390625,-0.19413375854492188,0.2868089973926544,0.07699985802173615,-0.11324561387300491,0.06844667345285416,0.20911771059036255],[0.17460289597511292,0.004595506936311722,0.34177255630493164,-0.1719367653131485,-0.07451825588941574,0.15267963707447052,-0.09405280649662018,-0.04785939306020737,-0.11635760217905045,0.1871020346879959,0.05050172656774521,-0.330818772315979,0.15803292393684387,0.015772320330142975,-0.1370009332895279,-0.09834117442369461,-0.44244062900543213,0.04528854042291641,0.0041668349876999855,-0.24633952975273132],[0.0006825367454439402,-0.029645802453160286,-0.3108803629875183,-0.08631712198257446,-0.12440783530473709,-0.24113044142723083,-0.011393966153264046,-0.0483391098678112,0.07681943476200104,-0.052465930581092834,0.13025695085525513,-0.18761779367923737,0.2895469665527344,-0.07556917518377304,-0.2897593379020691,-0.06912311911582947,0.22415682673454285,0.11728358268737793,-0.01913490891456604,0.08521029353141785],[0.129169300198555,0.1083323210477829,-0.07144484668970108,-0.0945219174027443,-0.1818193942308426,0.11135899275541306,-0.033450234681367874,-0.023062948137521744,0.009645124897360802,0.23600687086582184,0.038565922528505325,-0.17352880537509918,0.016534805297851562,-0.10132347792387009,-0.025343842804431915,0.10672852396965027,-0.2325686663389206,0.30182749032974243,-0.11986415088176727,0.19346334040164948],[-0.07065190374851227,-0.08061069995164871,-0.10971464216709137,0.04102780297398567,-0.15616101026535034,0.08279666304588318,-0.06909845024347305,-0.09867096692323685,0.09403964132070541,0.06793421506881714,0.13141268491744995,0.2728220820426941,-0.13415154814720154,0.0005329290870577097,0.06741481274366379,-0.15074704587459564,0.03174630180001259,-0.09596487134695053,0.17498856782913208,-0.03653543442487717],[-0.20337660610675812,0.28485873341560364,0.053514230996370316,0.08682715147733688,0.13650235533714294,-0.02885313145816326,-0.004692150745540857,-0.0178426094353199,-0.1741487979888916,0.1976640373468399,-0.01828606054186821,-0.11493807286024094,-0.07123184949159622,0.09689593315124512,0.08838809281587601,-0.16364562511444092,-0.0011815394973382354,0.07019508630037308,-0.23909512162208557,0.1485617458820343],[0.039488110691308975,0.019823186099529266,-0.14243029057979584,0.10790199041366577,-0.08860316127538681,-0.0968913659453392,-0.17663799226284027,-0.06522870063781738,-0.062160737812519073,-0.02541239932179451,0.383800745010376,-0.09711940586566925,0.0671011433005333,0.13362398743629456,0.012965992093086243,0.020409369841217995,0.13988827168941498,0.34473752975463867,0.1385076940059662,0.06404922902584076],[0.16905726492404938,-0.07711727917194366,-0.18831120431423187,0.10021404922008514,-0.027209537103772163,-0.07223567366600037,-0.25283730030059814,0.006729546934366226,-0.006165917031466961,-0.24739034473896027,-0.005990321282297373,-0.27079662680625916,-0.10767783969640732,-0.08854740858078003,0.17506186664104462,-0.1674586534500122,0.05074723809957504,-0.07493644207715988,-0.044580668210983276,-0.18518990278244019],[-0.3442457914352417,-0.10941421240568161,-0.028483062982559204,-0.09021438658237457,-0.06514497101306915,-0.14897845685482025,-0.11857558786869049,-0.021538781002163887,0.21310807764530182,-0.17781926691532135,-0.09068288654088974,0.1939494013786316,0.07302819192409515,0.006453025154769421,0.04808635637164116,-0.056647494435310364,0.051685161888599396,-0.0600615069270134,-0.06783818453550339,-0.11109007149934769],[0.16515493392944336,0.05711654946208,-0.024447977542877197,-0.016156122088432312,-0.2010914534330368,-0.0327688567340374,-0.12457101047039032,-0.06477455794811249,-0.10693712532520294,-0.24059699475765228,-0.2610558271408081,0.10304269939661026,-0.09170933067798615,0.1145530715584755,0.2690369486808777,-0.02380266971886158,0.04652416706085205,0.021538840606808662,0.05604637414216995,-0.031849730759859085],[-0.3396953046321869,0.04140404239296913,-0.28259873390197754,0.05122449994087219,0.07181946933269501,-0.20903854072093964,0.027353569865226746,0.013963229022920132,-0.09071475267410278,-0.09226201474666595,0.12841036915779114,0.13383221626281738,-0.2141953855752945,-0.21339274942874908,-0.4117893576622009,0.40302589535713196,0.20692026615142822,-0.10391969233751297,-0.024389369413256645,0.072079598903656],[-0.31124258041381836,0.1343536227941513,0.12409156560897827,-0.2247074544429779,0.18065139651298523,0.024379517883062363,-0.05091991275548935,0.16701659560203552,0.11368845403194427,0.0026903206016868353,-0.07161731272935867,0.09354342520236969,-0.03513281047344208,0.1892242431640625,0.22184346616268158,-0.0638396367430687,0.09043247252702713,-0.09024161845445633,0.06655989587306976,-0.025565993040800095],[-0.06545563042163849,0.05753863975405693,-0.011673470959067345,0.16552402079105377,-0.13692253828048706,-0.12203365564346313,0.052888184785842896,0.17278891801834106,0.08579546213150024,0.044175103306770325,0.15714319050312042,0.10112165659666061,-0.06247733533382416,-0.18898804485797882,0.030696392059326172,-0.10059482604265213,0.14424604177474976,0.24130630493164062,-0.108979731798172,0.1759248822927475],[-0.24184714257717133,-0.023159349337220192,-0.18816256523132324,0.056188687682151794,0.10337106883525848,-0.10389311611652374,0.12875624001026154,-0.03503041714429855,0.058120451867580414,0.056025873869657516,-0.3963516056537628,-0.26668480038642883,0.15575900673866272,-0.14854934811592102,0.12880165874958038,-0.0770813450217247,-0.04891142249107361,0.22306202352046967,-0.02644776925444603,-0.09777466207742691],[-0.11637579649686813,-0.03869189694523811,0.07357515394687653,0.041062261909246445,-0.0556548535823822,-0.20193363726139069,0.07215512543916702,0.06205412372946739,-0.05044720694422722,0.08068513125181198,-0.29110094904899597,0.051486797630786896,0.14005015790462494,-0.2977287173271179,-0.16768868267536163,0.08495934307575226,-0.003212426556274295,-0.08198820799589157,0.1315390020608902,-0.04434124007821083],[0.05178815498948097,-0.24313433468341827,-0.04367024451494217,0.17757731676101685,-0.009370129555463791,-0.07366791367530823,0.049195822328329086,-0.018013300374150276,-0.0863475576043129,-0.11526372283697128,0.21557645499706268,0.09658826142549515,0.1427973508834839,-0.16863641142845154,-0.16384847462177277,0.06406943500041962,-0.15840935707092285,-0.07448980957269669,-0.41135063767433167,-0.009752262383699417],[-0.2530023753643036,0.11440951377153397,0.10112035274505615,-0.1598530262708664,0.17311792075634003,-0.1156625896692276,0.18677711486816406,0.021439800038933754,-0.07199546694755554,0.1652885526418686,0.11837763339281082,0.28576329350471497,-0.015906034037470818,-0.042386312037706375,0.07422193884849548,0.060963746160268784,0.07556077092885971,-0.08298823982477188,-0.13533572852611542,-0.3339788019657135],[0.00733040040358901,-0.2639401853084564,0.10280967503786087,-0.09072479605674744,-0.4048960506916046,0.35267001390457153,-0.2462439090013504,0.1916588544845581,0.01315680518746376,0.22786417603492737,-0.02105184644460678,0.05217118561267853,-0.018669020384550095,0.08264670521020889,-0.20569998025894165,-0.21162424981594086,0.10857199877500534,0.140455961227417,-0.15929372608661652,-0.05044827237725258],[0.2018001675605774,-0.2276907116174698,0.011917405761778355,-0.01964876987040043,0.10609898716211319,0.08792091906070709,0.17038556933403015,-0.13776162266731262,0.07584226131439209,0.1129746288061142,0.16098587214946747,0.15727101266384125,0.30685755610466003,0.12611530721187592,0.12347318977117538,0.038188185542821884,9.047354251379147e-05,-0.16461533308029175,0.13180918991565704,-0.2626801133155823],[0.28378739953041077,0.07595852017402649,0.03953774645924568,-0.054613757878541946,0.20794519782066345,-0.16348356008529663,-0.051814258098602295,0.21827098727226257,-0.007564945612102747,0.047947876155376434,-0.011576684191823006,0.059187449514865875,0.03554899990558624,-0.08700883388519287,0.0012553143315017223,-0.02796403132379055,0.07815683633089066,-0.17168861627578735,-0.05566699430346489,-0.006760750897228718],[0.06326965242624283,-0.037374768406152725,-0.131792351603508,0.012508133426308632,-0.05799870938062668,-0.0024766915012151003,0.14247474074363708,-0.0732814371585846,-0.051512084901332855,-0.04477256163954735,0.35745739936828613,-0.09988915175199509,0.1245804876089096,0.1049671620130539,-0.1045922040939331,-0.0545024648308754,0.038066741079092026,-0.19179297983646393,0.05875374749302864,-0.21449090540409088],[-0.46749502420425415,-0.040718257427215576,-0.03804425522685051,0.09982813149690628,0.0609746016561985,0.024960482493042946,-0.14093215763568878,0.2809169292449951,0.16972383856773376,0.017523525282740593,0.06913775205612183,0.15697044134140015,0.05788024142384529,-0.1986737698316574,0.016728298738598824,-0.0690954253077507,-0.08102522045373917,0.4610600471496582,-0.1528717428445816,0.05754715949296951],[0.10803548246622086,-0.08214057981967926,0.1790492832660675,0.32569363713264465,0.010686242021620274,-0.25114989280700684,0.21049368381500244,-0.20904932916164398,0.14867685735225677,-0.005759501829743385,0.24465975165367126,-0.04623793438076973,-0.025684108957648277,0.03728822246193886,0.04179077968001366,0.2017756700515747,0.005733514670282602,0.01802690140902996,0.00893905945122242,0.08739972114562988],[-0.13082455098628998,-0.0469980463385582,0.18685831129550934,-0.08463449031114578,-0.10076817870140076,-0.09138631075620651,-0.004917694255709648,0.011542481370270252,0.09907837212085724,-0.0039311363361775875,-0.4975058436393738,-0.36732837557792664,-0.03390733152627945,0.14835180342197418,0.024132385849952698,-0.15218546986579895,-0.03590719774365425,0.12973974645137787,-0.24475440382957458,0.3137263357639313],[0.3966163694858551,0.005018970929086208,0.10973062366247177,-0.33117708563804626,0.2850784957408905,-0.11340764164924622,-0.20147547125816345,0.010248077102005482,-0.03395640105009079,-0.02921306900680065,-0.03426748886704445,-0.08197510987520218,-0.05882745608687401,0.06688933819532394,-0.0035276354756206274,0.15205419063568115,0.3875119388103485,0.013337292708456516,0.22729137539863586,-0.017835211008787155],[-0.23157861828804016,-0.17573359608650208,0.16882270574569702,-0.11844318360090256,-0.1528938114643097,-0.0448245145380497,0.15666133165359497,0.03405836969614029,0.06745527684688568,-0.06539446115493774,-0.13691416382789612,-0.2055368274450302,-0.024649059399962425,0.19295065104961395,0.08560928702354431,-0.0831066220998764,0.06113377958536148,0.04027290642261505,0.10725231468677521,-0.03848254308104515],[0.24889537692070007,-0.04510601609945297,0.024481235072016716,-0.11364776641130447,-0.06234452873468399,0.30271434783935547,0.051329467445611954,-0.2531765103340149,-0.1269691288471222,0.11923699080944061,0.007766879163682461,-0.11464564502239227,-0.07665048539638519,0.2705342471599579,0.031656939536333084,-0.031353436410427094,0.1550048142671585,-0.2769242525100708,0.0716724544763565,-0.27913698554039],[0.328715443611145,-0.23239801824092865,-0.1170293390750885,0.20748162269592285,-0.17566627264022827,0.010991347953677177,-0.1137486919760704,-0.0035620008129626513,0.05532844737172127,0.07581596076488495,-0.2760266363620758,-0.2936684191226959,-0.14813068509101868,0.11644963920116425,0.186763197183609,-0.09457061439752579,-0.09982431679964066,-0.11221107840538025,0.015837224200367928,0.2994634509086609],[-0.060373611748218536,0.08742162585258484,0.09386467188596725,-0.32511818408966064,-0.016500277444720268,0.03875532001256943,-0.026938466355204582,-0.05061490461230278,0.003479262813925743,-0.16331468522548676,0.08465995639562607,-0.08404263108968735,0.020104127004742622,0.06715060770511627,0.01961543969810009,0.11263544112443924,-0.328200101852417,-0.016987184062600136,0.1806984394788742,0.0410524383187294],[0.16646957397460938,-0.14001980423927307,0.38784080743789673,0.14396153390407562,0.1621106117963791,-0.1342184990644455,0.015295746736228466,0.08333661407232285,0.12993350625038147,-0.08105846494436264,-0.19177228212356567,0.10910362750291824,-0.39563244581222534,-0.2804144322872162,-0.1775553822517395,-0.10250290483236313,0.1656653732061386,-0.1341680884361267,-0.03106697089970112,-0.12872372567653656],[-0.0029901775997132063,-0.13927528262138367,0.02664727345108986,-0.1247892901301384,0.16766831278800964,-0.06981644034385681,-0.022492391988635063,0.12244302779436111,-0.05561179295182228,-0.001411372795701027,-0.018700214102864265,0.1564485877752304,-0.07288786768913269,-0.07895535230636597,0.08983596414327621,-0.05051371827721596,-0.13371875882148743,0.034764282405376434,-0.27034705877304077,0.2653099000453949],[0.01754465140402317,0.1857955902814865,0.025446368381381035,0.13550575077533722,0.013606542721390724,-0.002066843444481492,-0.01830187812447548,0.05594290792942047,0.09346853941679001,0.24229289591312408,-0.009828119538724422,0.14264650642871857,-0.14146152138710022,0.09276150912046432,-0.2598920166492462,0.2069612443447113,0.058418385684490204,0.2072148472070694,-0.18167880177497864,0.12586292624473572],[-0.1613796353340149,-0.11390294134616852,0.20447540283203125,0.16324980556964874,-0.022639241069555283,-0.002314530545845628,0.2111893743276596,0.03801274672150612,0.08512885123491287,0.1148340180516243,-0.29034194350242615,0.21540813148021698,-0.046648770570755005,0.05530714616179466,0.2626500129699707,-0.09195652604103088,0.22470596432685852,-0.16067397594451904,-0.0015901506412774324,0.09064103662967682],[-0.08422021567821503,-0.04848987236618996,-0.027727540582418442,0.3504384458065033,0.09236603230237961,-0.046569958329200745,0.11622633785009384,-0.21035103499889374,0.1010332852602005,-0.1110662892460823,-0.17665500938892365,0.09085900336503983,-0.12576031684875488,0.20314349234104156,0.022716056555509567,0.04646974056959152,-0.3850276470184326,-0.06942387670278549,-0.017245551571249962,-0.16462844610214233],[-0.16603802144527435,-0.08387065678834915,0.1548084020614624,-0.01680230163037777,0.1720479130744934,0.042823582887649536,-0.16643960773944855,-0.0031016815919429064,-0.13073094189167023,-0.046511806547641754,0.09995835274457932,0.08387720584869385,-0.16603052616119385,-0.060298796743154526,0.2054201364517212,-0.031709857285022736,0.05635584518313408,-0.4110873341560364,0.025699738413095474,0.24966390430927277],[-0.03410088270902634,0.1053701862692833,-0.09509261697530746,-0.07526110112667084,0.03418130427598953,0.1923282891511917,-0.11643723398447037,-0.04048370197415352,-0.15313394367694855,0.031601257622241974,-0.09110605716705322,0.05145702138543129,-0.055157117545604706,0.004978334065526724,0.23004618287086487,0.030245279893279076,-0.15682215988636017,0.017509307712316513,0.14903347194194794,-0.010149355046451092],[0.04889172688126564,-0.14897312223911285,0.08354952931404114,-0.31925198435783386,-0.13607795536518097,0.13824889063835144,0.19440653920173645,0.02812572568655014,0.0029415879398584366,0.055850788950920105,-0.07551869750022888,-0.2611573040485382,0.31014469265937805,0.2076675146818161,-0.12234888225793839,0.10477875173091888,0.04357540234923363,0.01908227428793907,0.006754735484719276,-0.1391371637582779],[0.11875510960817337,0.12543563544750214,0.2335621565580368,0.316310316324234,-0.06049332395195961,-0.2591498792171478,0.13338999450206757,0.15967945754528046,0.17629574239253998,-0.03298036754131317,0.02385270595550537,0.011305448599159718,-0.15675632655620575,-0.20695699751377106,-0.03147198259830475,0.3251354396343231,-0.05542580410838127,-0.10879433900117874,-0.18023881316184998,-0.026192696765065193],[0.43051639199256897,-0.09084323048591614,-0.16133248805999756,-0.26027950644493103,0.05409301817417145,0.12520867586135864,0.2841557562351227,-0.10744153708219528,0.23806239664554596,0.09985372424125671,0.01806369051337242,-0.22524484992027283,0.3023489713668823,-0.16313998401165009,-0.07141421735286713,0.17434187233448029,0.14353150129318237,-0.12193947285413742,0.0005070770857855678,0.1139766275882721],[-0.21169404685497284,0.1577882468700409,0.028330175206065178,0.08766908943653107,0.2554011046886444,0.054398249834775925,-0.17376431822776794,-0.005429315380752087,0.039760611951351166,-0.17425239086151123,0.01869838498532772,0.024511201307177544,-0.11193042248487473,-0.08072734624147415,0.07806192338466644,0.1613779217004776,0.1880113184452057,0.05124339461326599,-0.07562220096588135,-0.017081931233406067],[0.09164131432771683,-0.04315328598022461,-0.0125510198995471,-0.15717381238937378,0.21815307438373566,0.043510552495718,0.13158151507377625,0.16296209394931793,0.21166417002677917,-0.1510639786720276,0.06337335705757141,0.15771318972110748,-0.009701098315417767,0.2361234873533249,-0.012572066858410835,0.012230652384459972,-0.06855827569961548,-0.10175897926092148,0.0038163550198078156,0.09743186831474304],[-0.01572904735803604,0.3457748293876648,-0.00203617918305099,-0.056730031967163086,-0.0170420091599226,0.12165126204490662,0.02255447767674923,0.12230619788169861,0.018383190035820007,0.023618878796696663,0.016863923519849777,0.028259402140975,-0.23933249711990356,0.0643688440322876,0.17086273431777954,0.10270515829324722,0.26640236377716064,-0.022910721600055695,0.38411417603492737,0.04132991284132004],[-0.36899787187576294,-0.20547764003276825,-0.08755023777484894,0.15927088260650635,0.044171854853630066,-0.27700570225715637,-0.04300766810774803,0.0045936875976622105,-0.06499196588993073,-0.015468689613044262,0.1574885994195938,-0.24108019471168518,0.10328806936740875,-0.1938115805387497,0.1845616102218628,-0.018315846100449562,0.028683384880423546,-0.21663442254066467,0.1238117665052414,0.266033798456192],[-0.1315384954214096,-0.1650439351797104,0.04653666913509369,-0.1117333248257637,0.0052537620067596436,0.2638493478298187,-0.12439991533756256,-0.0006742192781530321,-0.14435315132141113,0.06884685903787613,0.2992295026779175,-0.045228756964206696,-0.06084999814629555,0.06451352685689926,0.11644424498081207,-0.03620206192135811,-0.11472316086292267,0.16519756615161896,-0.04249212518334389,0.003473434131592512],[0.44185078144073486,0.13638518750667572,0.0645604357123375,0.1767648458480835,-0.0006823757430538535,0.2151462286710739,0.18507754802703857,-0.13013584911823273,-0.09164780378341675,0.08652495592832565,-0.05810588225722313,0.17782729864120483,0.02156919427216053,-0.2514030933380127,0.007096892222762108,-0.018893832340836525,-0.009322965517640114,0.1775691658258438,0.2131485641002655,0.03592929616570473],[-0.012781577184796333,0.1613241583108902,-0.5315160155296326,0.008605638518929482,0.05951034277677536,0.08842391520738602,0.20433440804481506,-0.04235551133751869,-0.07000946253538132,0.00034428416984155774,0.04500172659754753,-0.167928084731102,0.0005477242521010339,-0.26450327038764954,-0.201605424284935,0.34912800788879395,0.06839831918478012,0.10478217154741287,-0.12748558819293976,0.10570842772722244],[0.0404251366853714,0.047004178166389465,0.04832981899380684,0.22767621278762817,0.08296652883291245,0.19841107726097107,0.05147311091423035,-0.3186386823654175,0.04978247731924057,-0.2169957011938095,0.005571766756474972,0.11418117582798004,0.318275511264801,0.2636049687862396,-0.26659849286079407,-0.05771028622984886,0.14502926170825958,0.19072788953781128,-0.3375622630119324,-0.014340746216475964],[0.10074887424707413,-0.11978859454393387,-0.37058502435684204,0.19357454776763916,0.014865050092339516,-0.30600109696388245,0.02003299631178379,0.08167286217212677,0.06405892968177795,0.19786901772022247,0.04969558119773865,-0.09587524086236954,-0.40568166971206665,0.02822953835129738,0.14723913371562958,0.1534690260887146,-0.17860230803489685,0.17465080320835114,0.048305246978998184,-0.00643974170088768],[0.22970512509346008,0.15819203853607178,-0.09122610092163086,0.10274472087621689,-0.058089565485715866,-0.180153027176857,0.02165984734892845,-0.15043482184410095,-0.2393149584531784,-0.03209783509373665,-0.2500370144844055,0.20808260142803192,0.03918154165148735,0.35332050919532776,-0.018895674496889114,-0.0365232490003109,0.045769475400447845,-0.1585046350955963,-0.07660718262195587,0.17740702629089355],[0.22368867695331573,-0.20092883706092834,-0.05355260148644447,0.017202073708176613,-0.21473607420921326,0.07431922107934952,-0.10220087319612503,0.09567249566316605,-0.15136083960533142,0.15105518698692322,-0.19998455047607422,0.2893970310688019,0.029574479907751083,0.07553226500749588,-0.06361868232488632,0.15014612674713135,0.2590153217315674,-0.06950488686561584,0.10775182396173477,0.021293433383107185],[0.04982106015086174,0.08331094682216644,-0.16269128024578094,-0.025153271853923798,0.07828054577112198,-0.07832949608564377,0.025695739313960075,0.0717238187789917,0.06750724464654922,-0.06742428988218307,-0.08493602275848389,-0.005368796642869711,0.1331339329481125,0.13988569378852844,-0.025137055665254593,0.3721078336238861,0.03899780288338661,0.01834973320364952,0.05397920683026314,0.13731397688388824],[0.061807624995708466,0.10140292346477509,0.022803330793976784,0.23256398737430573,-0.18831348419189453,-0.22229374945163727,0.08583638072013855,0.04312212020158768,-0.03810396045446396,0.0709621012210846,0.2523066997528076,0.0971042811870575,0.06180381029844284,0.06808425486087799,-0.11386387050151825,-0.04645959287881851,-0.3332451581954956,-0.14640353620052338,-0.1541893482208252,0.043276552110910416],[-0.24903713166713715,-0.12240282446146011,0.020993124693632126,-0.2291857898235321,0.1965734362602234,-0.067496657371521,-0.10898812860250473,-0.025725215673446655,-0.18063189089298248,0.04393305256962776,-0.19964097440242767,0.2830684781074524,-0.08659940212965012,-0.012336368672549725,-0.11264755576848984,-0.12040795385837555,0.18981124460697174,-0.23529468476772308,-0.09155464917421341,0.047602277249097824],[0.4465504586696625,0.1246417835354805,-0.13058553636074066,-0.10021743923425674,0.0796680897474289,-0.0885612964630127,0.05950606241822243,0.07487116754055023,-0.247166708111763,-0.03934106230735779,-0.26521408557891846,0.2316872924566269,-0.24081557989120483,-0.14690041542053223,-0.006280199624598026,-0.09035751968622208,0.17638054490089417,-0.02653079479932785,-0.1936887949705124,0.07184266299009323],[0.24841070175170898,0.00543022807687521,-0.16090182960033417,0.2874920666217804,-0.08931034058332443,0.04435047134757042,0.16078297793865204,0.010699909180402756,0.15627045929431915,0.14452029764652252,0.2684600353240967,0.0366678461432457,-0.11626768857240677,-0.17275479435920715,0.08515694737434387,0.03733966127038002,-0.08847450464963913,0.015412005595862865,-0.16040068864822388,0.058249425143003464]],"bias":[-0.0018013253575190902,-0.0008875281782820821,-0.010927222669124603,-0.001796071301214397,-0.01729506440460682,-0.012009813450276852,-0.010864299722015858,0.004686512518674135,-0.02359914407134056,0.006827074568718672,0.004328208975493908,-0.015375307761132717,-0.01016764622181654,-0.00510166771709919,0.0052540358155965805,-0.03848952800035477,0.027084622532129288,-0.007920773699879646,0.00040238717338070273,0.01837020553648472,0.00020591194333974272,-0.009215091355144978,0.028735853731632233,0.034543007612228394,0.001716103171929717,-0.0046403189189732075,0.017129957675933838,-0.01145115029066801,0.0024423212744295597,-0.00014560521231032908,0.001361949136480689,-0.0351707823574543,0.03754100576043129,-0.018150586634874344,0.005566990934312344,0.0014174613170325756,0.016995681449770927,-0.011154319159686565,0.010569932870566845,-0.003233513096347451,-0.0026802702341228724,-0.0031607993878424168,0.008990631438791752,-0.01341496966779232,-0.008051634766161442,-0.05055259168148041,0.0161533672362566,-0.008896798826754093,-0.02165769785642624,-0.015944283455610275,-0.004770895931869745,-0.006941009312868118,0.0007512987358495593,-0.003996372688561678,0.03401719033718109,-0.002761316718533635,-0.0026947655715048313,0.009735622443258762,-0.01523186918348074,-0.03745036572217941,0.0007430388941429555,0.007072662003338337,0.007133570034056902,0.019885335117578506]},"layer_1":{"weight":[[-0.03107560984790325,-0.08992946892976761,0.1069500669836998,-0.21047894656658173,-0.11430837213993073,0.06663040071725845,0.23908771574497223,0.13713544607162476,-0.22727712988853455,-0.08613931387662888,-0.07845985144376755,-0.2960171103477478,-0.1532396823167801,0.04002395644783974,0.07085547596216202,0.0376417338848114,-0.14208756387233734,-0.09125220775604248,-0.15265628695487976,0.0041654459200799465,-0.03313815966248512,0.05522720515727997,0.1756213754415512,0.25478318333625793,0.16163206100463867,-0.044074155390262604,0.03282804414629936,-0.2593661844730377,0.14458900690078735,-0.028893280774354935,-0.0014275589492172003,-0.08581443876028061,0.08290141820907593,-0.18597398698329926,-0.006469352170825005,0.07741706818342209,0.14855708181858063,0.017078854143619537,0.0652448832988739,0.14790430665016174,-0.0046215602196753025,0.0773269459605217,0.22297319769859314,0.09444660693407059,-0.009862742386758327,-0.08850588649511337,-0.046800050884485245,-0.20633503794670105,-0.10782104730606079,-0.19191566109657288,0.21032215654850006,0.06215842813253403,0.020909173414111137,-0.28800278902053833,-0.01519690454006195,0.32685938477516174,0.029568888247013092,0.13048890233039856,-0.1481507420539856,-0.06601598858833313,-0.14431439340114594,0.08848895877599716,0.26322922110557556,-0.022760944440960884],[-0.08552557975053787,0.2351507544517517,0.06049055978655815,-0.15921570360660553,0.04560556262731552,0.08519807457923889,-0.041778575628995895,-0.0770396962761879,-0.014713764190673828,0.25916919112205505,0.06054644659161568,-0.0016498123295605183,-0.07001253217458725,0.13571520149707794,-0.055909812450408936,-0.110581174492836,-0.06303101778030396,0.16430599987506866,-0.026499874889850616,-0.13056878745555878,-0.017430102452635765,0.09514010697603226,0.049621984362602234,0.13323338329792023,0.09713184833526611,-0.04362430050969124,-0.02740025520324707,-0.04268142208456993,0.29238563776016235,-0.3084467947483063,0.014326884411275387,-0.1137949526309967,0.09959742426872253,-0.04933279752731323,-0.03707471117377281,-0.09539680182933807,0.024762306362390518,-0.02282843180000782,-0.016578899696469307,-0.2328001707792282,0.1032831072807312,-0.17345361411571503,0.33666399121284485,0.23770250380039215,0.09214737266302109,0.07958720624446869,-0.005887863226234913,0.12788307666778564,0.08186908066272736,-0.07890424132347107,-0.023573728278279305,0.002384551102295518,0.23018905520439148,0.08843809366226196,-0.010952368378639221,0.018739081919193268,0.28737640380859375,-0.008052182383835316,-0.2028144747018814,-0.07351303100585938,-0.30630916357040405,0.057395197451114655,-0.06328283995389938,0.19959089159965515],[0.0926775261759758,-0.23718105256557465,0.018071696162223816,0.17103606462478638,-0.06784605979919434,0.022119645029306412,0.06486783176660538,0.001682434813119471,0.12049821764230728,0.09223958849906921,-0.14374135434627533,-0.025517955422401428,-0.19376564025878906,-0.05679968371987343,0.01646592654287815,-0.1331327110528946,0.19384454190731049,-0.17109893262386322,-0.024375883862376213,0.08073452115058899,0.2514360547065735,0.08402402698993683,-0.0013633668422698975,-0.12296995520591736,0.06956864148378372,-0.08027908205986023,0.05360214039683342,-0.2192264050245285,0.17102360725402832,-0.13680556416511536,-0.06756237894296646,-0.0015537168364971876,0.09465645998716354,-0.00925702415406704,-0.09990391880273819,0.04799340292811394,-0.2786175012588501,0.11165820807218552,0.060909681022167206,-0.10204560309648514,-0.11840672045946121,0.11400111764669418,-0.267609566450119,-0.11353744566440582,-0.040809061378240585,-0.04592939838767052,-0.04009348899126053,0.05264399200677872,0.04060047119855881,-0.07142508774995804,0.21850910782814026,0.15158168971538544,-0.2103843092918396,-0.08311987668275833,0.018872937187552452,-0.13939015567302704,0.09430824965238571,-0.026466261595487595,-0.09188137203454971,-0.1845601201057434,0.05875566974282265,0.03745431825518608,0.10990998893976212,-0.14327821135520935],[-0.07262492179870605,0.058028481900691986,-0.1380811184644699,0.1257207989692688,0.0476616807281971,0.01169108971953392,0.09571272134780884,-0.011657263152301311,-0.07946978509426117,-0.01554824784398079,0.2226964682340622,0.27473148703575134,-0.10443314164876938,0.21203859150409698,-0.09915138781070709,-0.04310982674360275,0.11373420059680939,-0.0005483361892402172,0.010033397004008293,0.21072563529014587,0.09071991592645645,-0.019054165109992027,-0.13604016602039337,0.24323907494544983,-0.16154959797859192,-0.23033300042152405,0.18475304543972015,0.02599208988249302,0.15713416039943695,0.17621579766273499,-0.00452598137781024,0.2381524294614792,-0.12024559825658798,0.1326160430908203,-0.17759233713150024,0.21124647557735443,-0.07935440540313721,-0.08151466399431229,-0.23626524209976196,-0.005119822919368744,0.06011282652616501,-0.021954182535409927,0.13895460963249207,-0.007063613273203373,0.06539053469896317,0.04202748462557793,0.099087655544281,-0.0775560736656189,-0.10777884721755981,0.01705983467400074,-0.050834525376558304,0.1080164685845375,0.03776936233043671,0.04374867305159569,-0.04766329750418663,-0.2727415859699249,-0.031215230002999306,-0.21538157761096954,-0.0840427502989769,-0.051163073629140854,0.012225834652781487,-0.11545597016811371,0.10536430776119232,0.09214635193347931],[-0.02633567340672016,0.1357714831829071,-0.028380705043673515,0.26647698879241943,-0.06712230294942856,0.01852024346590042,0.09181348979473114,0.1077321395277977,-0.23194560408592224,-0.03455733507871628,-0.051175765693187714,0.049399953335523605,-0.12079981714487076,-0.15088756382465363,-0.01285943016409874,-0.04089018702507019,0.033196352422237396,0.09219350665807724,-0.080691859126091,-0.14793288707733154,-0.10158783197402954,0.02226254530251026,-0.221394881606102,0.19391842186450958,-0.14179785549640656,0.2241705060005188,0.24789053201675415,0.07324476540088654,-0.035298947244882584,-0.09652049839496613,0.029913783073425293,0.0896005779504776,0.208021342754364,0.004423752427101135,-0.06894494593143463,-0.11934173107147217,0.1451794058084488,0.04187924787402153,-0.17385853826999664,0.12150325626134872,-0.12086112797260284,-0.15896201133728027,-0.1590581089258194,0.0376390777528286,0.0779389962553978,0.05698760598897934,0.014504879713058472,-0.027192948386073112,0.008543900214135647,-0.05995914340019226,-0.20975445210933685,0.33943238854408264,-0.11616794019937515,-0.09146592020988464,-0.21399571001529694,-0.11476568877696991,0.12053094059228897,-0.0236834567040205,0.008898062631487846,0.11065840721130371,0.08834023028612137,0.09642121195793152,-0.003988653887063265,-0.07130209356546402],[-0.20250333845615387,-0.029602278023958206,-0.005663566291332245,-0.1314127892255783,0.12125448137521744,0.18583236634731293,-0.11210302263498306,0.11512801051139832,-0.027990927919745445,-0.004895550198853016,-0.03746279701590538,0.1930014193058014,-0.007856026291847229,0.2636803686618805,-0.03814668953418732,0.01969916559755802,-0.10667506605386734,0.35588908195495605,-0.043467190116643906,0.12534986436367035,0.00850249920040369,0.024142470210790634,-0.07368204742670059,0.16141414642333984,-0.057185057550668716,0.18484511971473694,-0.15185125172138214,0.13952435553073883,0.19558687508106232,-0.002490042243152857,-0.11433760076761246,-0.0015948694199323654,0.1091708242893219,0.010901049710810184,0.04417770728468895,0.19839058816432953,0.19092562794685364,-0.004396396689116955,0.012870763428509235,0.2405705451965332,0.0758742094039917,0.10073936730623245,-0.02607714757323265,-0.26292920112609863,0.1837136149406433,0.04684323072433472,-0.033689018338918686,0.18119493126869202,-0.014834455214440823,0.09735181927680969,0.16685399413108826,0.14955903589725494,-0.06861290335655212,-0.13225047290325165,-0.08218055218458176,0.004322250373661518,-0.05170087888836861,0.11371028423309326,0.06552232801914215,0.12256591767072678,0.0009679500944912434,-0.029285073280334473,0.15060169994831085,0.07966302335262299],[0.06206437945365906,-0.029327260330319405,-0.04527786374092102,0.07647161185741425,-0.05914558842778206,0.061297427862882614,0.03599632903933525,0.073790542781353,-0.036973949521780014,0.09896041452884674,0.10004587471485138,0.04101639613509178,0.03172175958752632,-0.0259774811565876,-0.17160218954086304,0.03902076557278633,0.03521798551082611,-0.07033956050872803,0.11813053488731384,0.1548694372177124,-0.08988737314939499,-0.05959649756550789,-0.021577125415205956,0.0781659185886383,-0.11357370018959045,-0.07520446181297302,0.1781228929758072,-0.09489627927541733,-0.1551344096660614,0.10218364745378494,-0.3238886892795563,0.161431223154068,-0.09274280071258545,-0.05432819947600365,0.3457552194595337,-0.09806882590055466,-0.022220192477107048,-0.16471919417381287,0.0627678856253624,0.2455415427684784,-0.17673328518867493,0.05838445574045181,-0.08264672011137009,-0.2180565893650055,0.01406033243983984,0.037146296352148056,0.0010742021258920431,-0.1747712939977646,0.004031025338917971,0.07386231422424316,-0.14889264106750488,0.06141792982816696,-0.006618792656809092,0.09960276633501053,0.16228365898132324,-0.21425049006938934,-0.13879355788230896,0.15715037286281586,0.2452126294374466,0.11374374479055405,0.08107045292854309,0.030872767791152,0.08811771124601364,-0.09087470173835754],[0.06378520280122757,-0.10890178382396698,-0.18041911721229553,0.17883636057376862,0.12300197780132294,-0.06920352578163147,-0.1745271235704422,0.11164600402116776,0.004849367309361696,-0.17550711333751678,-0.1150132566690445,0.10600101947784424,-0.08954828977584839,0.003389958059415221,-0.051641132682561874,-0.12410875409841537,-0.0027363495901226997,0.028782742097973824,0.0025444929488003254,-0.0217181034386158,0.26020345091819763,-0.18375569581985474,0.08771925419569016,0.2480102777481079,-0.22515851259231567,-0.034974295645952225,0.07840105146169662,-0.009013610891997814,-0.17734909057617188,0.28898361325263977,0.027092136442661285,0.011980462819337845,0.018171709030866623,0.11016160249710083,0.040195122361183167,-0.11575855314731598,-0.020813897252082825,-0.10893496125936508,-0.15752607583999634,0.03423677384853363,0.11017812788486481,0.07470978051424026,-0.053755275905132294,-0.13313055038452148,0.3114854395389557,0.1841650903224945,-0.003610441694036126,0.27516496181488037,0.025845471769571304,-0.005037393420934677,0.21808139979839325,0.00930337980389595,0.021194297820329666,-0.027886690571904182,-0.04202156513929367,-0.055623363703489304,0.1525777131319046,0.09105008095502853,-0.11563479155302048,-0.2919190526008606,-0.04592635855078697,-0.06077710911631584,-0.20794767141342163,0.06199640780687332],[0.11987511068582535,0.002124681370332837,-0.17183558642864227,0.12390029430389404,-0.11387152969837189,0.19587276875972748,-0.0606481097638607,-0.033168256282806396,-0.19326640665531158,0.11244434118270874,0.11932040750980377,-0.17992003262043,0.03169441968202591,-0.06462232023477554,-0.054260991513729095,0.001720911473967135,0.2306918352842331,0.10354531556367874,-0.11810848861932755,0.118637815117836,0.16594721376895905,-0.01446342933923006,0.17346204817295074,0.05081821605563164,-0.09237721562385559,0.06676970422267914,-0.12265671789646149,0.04002406820654869,0.004704638384282589,-0.21133862435817719,0.06152498349547386,-0.042640168219804764,-0.1339196115732193,0.07666048407554626,0.058780211955308914,-0.07313747704029083,0.007976541295647621,-0.15163254737854004,-0.053136635571718216,-0.11925699561834335,0.044782090932130814,0.01780691184103489,-0.023852678015828133,-0.13500696420669556,-0.09985039383172989,0.03346441313624382,0.1099284365773201,0.09478678554296494,-0.11194077134132385,-0.06761028617620468,-0.21371087431907654,-0.12658573687076569,-0.09871901571750641,-0.029675178229808807,-0.0673174187541008,0.07899788022041321,-0.10454908013343811,0.22123503684997559,0.13808868825435638,0.09629002213478088,-0.2822704613208771,0.04477608948945999,0.05915290117263794,-0.03518827259540558],[0.08841796964406967,-0.16091585159301758,0.12054077535867691,0.09877261519432068,-0.0038882114458829165,-0.02027275413274765,-0.11704078316688538,-0.009393851272761822,0.0038520200178027153,0.03527509793639183,0.0731683075428009,-0.012138932012021542,0.03416196629405022,-0.09153024107217789,0.2785053253173828,-0.07311110198497772,-0.07976191490888596,-0.21993213891983032,0.06274127215147018,0.02466072142124176,-0.26075324416160583,-0.10008707642555237,0.09620566666126251,0.13581985235214233,-0.04048764705657959,0.018563151359558105,-0.03853742033243179,-0.17613434791564941,0.07252064347267151,-0.06259658187627792,0.11862534284591675,-0.06314633786678314,-0.10797329246997833,-0.1536249816417694,0.16752834618091583,0.2532990872859955,-0.04329412803053856,0.052686069160699844,-0.027305839583277702,0.2152818739414215,-0.15003834664821625,-0.13848017156124115,-0.024699149653315544,0.03489333391189575,-0.11024998128414154,0.013406641781330109,-0.10646248608827591,0.09458330273628235,-0.10935834050178528,0.08177062124013901,0.05107233673334122,0.24250105023384094,-0.005950754974037409,0.17545711994171143,0.21404266357421875,-0.0065583400428295135,-0.0047976174391806126,0.248652383685112,-0.10315096378326416,-0.05547637492418289,0.138430655002594,0.045314691960811615,-0.013980116695165634,-0.04988792911171913],[0.2688693702220917,0.1412729024887085,0.044876303523778915,-0.21192945539951324,-0.057862069457769394,-0.07169022411108017,0.05818704515695572,-0.007746098097413778,-0.09147333353757858,-0.16810055077075958,0.02159162424504757,0.037549085915088654,0.023619286715984344,0.13221022486686707,-0.24354475736618042,-0.07961022108793259,-0.04032471776008606,-0.19637304544448853,-0.15427865087985992,-0.18176373839378357,0.042823273688554764,0.03544728457927704,-0.015344242565333843,0.030425721779465675,0.15908879041671753,0.02037467621266842,0.22815491259098053,0.13549602031707764,0.14099904894828796,0.21410247683525085,-0.1478310078382492,0.08799314498901367,0.1489095240831375,-0.19744382798671722,0.12616683542728424,-0.06125104799866676,-0.055492449551820755,0.1225096732378006,0.050498586148023605,-0.07340676337480545,-0.014717916958034039,0.051099151372909546,-0.15770822763442993,-0.006441147997975349,0.17215803265571594,-0.06856470555067062,0.10280965268611908,-0.160334050655365,0.1404314786195755,0.1439560055732727,0.18033717572689056,0.0886041447520256,0.19826222956180573,-0.032054878771305084,-0.046561140567064285,-0.010065204463899136,-0.017569202929735184,-0.17790374159812927,-0.2099541276693344,0.07696320116519928,0.1481987088918686,-0.08522778749465942,-0.026262370869517326,0.09539294242858887],[0.02893863245844841,-0.03414306044578552,-0.12542682886123657,-0.031201649457216263,0.20271077752113342,0.08626364171504974,0.03135429322719574,-0.09599314630031586,0.15870313346385956,-0.2553849220275879,0.07696042954921722,0.10552147030830383,0.1680954098701477,0.06500416249036789,0.10751428455114365,-0.0025976067408919334,-0.09678689390420914,0.04950141906738281,-0.16119785606861115,0.07659894973039627,-0.15170304477214813,-0.2013215720653534,0.08622874319553375,0.08144412934780121,-0.03689293935894966,0.3475007712841034,-0.14052711427211761,-0.10143669694662094,0.02638472057878971,0.04558989405632019,0.028672926127910614,-0.175986647605896,-0.18491484224796295,-0.09720050543546677,0.33430981636047363,-0.057474534958601,-0.0854928195476532,-0.1416746824979782,-0.3242730498313904,-0.0032937247306108475,0.07782287895679474,0.19935785233974457,-0.1410304754972458,0.15147404372692108,0.11604560911655426,-0.088847815990448,-0.08506561815738678,-0.06496451050043106,0.15732480585575104,0.0463440828025341,-0.14371873438358307,-0.19671480357646942,0.010433836840093136,-0.09716377407312393,-0.07752255350351334,0.10908405482769012,-0.14054591953754425,-0.10599823296070099,-0.01784886047244072,0.04155901074409485,-0.07322533428668976,-0.026092268526554108,-0.016721447929739952,0.023642363026738167],[-0.09182048588991165,0.052847445011138916,0.059885792434215546,-0.05478401854634285,0.19988322257995605,-0.1942920833826065,0.0016149242874234915,-0.07384276390075684,-0.1308400183916092,-0.050928354263305664,0.085466668009758,0.09933566302061081,-0.06803896278142929,0.05823373422026634,-0.1533459722995758,-0.05643511563539505,0.17131106555461884,-0.2833433449268341,-0.021801022812724113,0.10061930119991302,0.10481523722410202,0.2823482155799866,-0.09002461284399033,-0.012615323998034,-0.0936570018529892,0.2715587913990021,0.21627765893936157,-0.034832581877708435,-0.35484498739242554,-0.004688004497438669,0.10472342371940613,-0.28495869040489197,0.03953982889652252,-0.11391999572515488,-0.014340956695377827,-0.2915462255477905,0.1144939512014389,0.10532865673303604,0.00845701340585947,-0.10480255633592606,-0.20797181129455566,-0.3500346839427948,-0.1060233786702156,-0.010061611421406269,0.06329359859228134,0.03951423615217209,-0.04782164469361305,-0.2228126972913742,-0.013379223644733429,0.009088040329515934,-0.07213146984577179,-0.014862345531582832,0.2584187090396881,-0.10897576808929443,0.02242952026426792,-0.07258933037519455,0.012517658062279224,0.13631252944469452,-0.1689242571592331,0.053040213882923126,-0.18218564987182617,-0.11110849678516388,-0.16049161553382874,0.22079379856586456],[-0.10039443522691727,-0.16888336837291718,-0.00209574936889112,0.05390150845050812,0.012286963872611523,0.13085874915122986,-0.0710051879286766,-0.17744366824626923,0.1660449504852295,-0.08773833513259888,0.042505115270614624,-0.06186800077557564,0.05272672697901726,-0.015872491523623466,0.1965385526418686,0.0833488255739212,-0.1489189863204956,-0.03363477438688278,-0.049409594386816025,-0.0907212570309639,0.00985682476311922,-0.018666954711079597,0.25269070267677307,0.16571274399757385,0.15304794907569885,-0.10634686797857285,0.03827116638422012,0.011219500564038754,-0.024089401587843895,-0.181923046708107,0.08316649496555328,-0.286806583404541,0.10038129985332489,0.06241806223988533,0.07498878240585327,0.12394009530544281,0.21518883109092712,0.08342685550451279,-0.20619583129882812,0.08845073729753494,-0.07337067276239395,-0.047991570085287094,0.09225591272115707,0.09830337017774582,0.12584121525287628,0.1221918985247612,0.040242355316877365,0.14516453444957733,-0.03138028830289841,0.006555854342877865,-0.1560036689043045,-0.15309055149555206,-0.1063881367444992,0.0070953224785625935,-0.07860149443149567,0.2321067452430725,-0.050527747720479965,0.13106609880924225,-0.10204131156206131,-0.07168758660554886,0.13987256586551666,-0.25161778926849365,0.06495501101016998,-0.056304045021533966],[-0.01850942149758339,-0.2690679132938385,0.263373464345932,0.06475640833377838,0.01101296953856945,0.004907710012048483,0.04178418591618538,0.057419367134571075,0.02064519189298153,0.10021045058965683,0.18702462315559387,0.03924540802836418,0.09279108792543411,-0.08920971304178238,-0.06757638603448868,0.07851917296648026,-0.010646549053490162,0.12375994026660919,-0.06156730279326439,0.052269548177719116,0.001282517914660275,-0.08304333686828613,-0.010183257050812244,-0.19346113502979279,-0.04359818622469902,-0.043045852333307266,0.06053842976689339,-0.01496178563684225,-0.09070603549480438,0.3058010935783386,-0.058687660843133926,-0.009406856261193752,-0.02984275482594967,0.15894421935081482,-0.011724071577191353,0.08066722005605698,0.015545183792710304,0.3480992019176483,-0.17956028878688812,0.17139685153961182,0.10292717814445496,0.24294839799404144,-0.039827246218919754,0.04919000715017319,-0.10824993252754211,0.1165352538228035,-0.003798439633101225,-0.02610861323773861,-0.1662503182888031,-0.05246708169579506,-0.055976297706365585,0.0674283355474472,0.029854122549295425,0.14260824024677277,0.04753057658672333,0.08266741037368774,-0.056499186903238297,0.1314743161201477,0.13200679421424866,-0.17932750284671783,-0.08516330271959305,-0.19165761768817902,-0.010770481079816818,0.1373274177312851],[0.14090785384178162,0.004234115593135357,-0.08679177612066269,0.04519544914364815,0.032933201640844345,-0.11810751259326935,0.09535147994756699,-0.15246275067329407,0.1799801141023636,0.26531147956848145,0.033264562487602234,-0.0636109933257103,-0.10698150843381882,-0.2954157590866089,0.0226364117115736,0.004147443920373917,-0.04422972351312637,0.1584411859512329,-0.16229534149169922,-0.07111893594264984,0.013673017732799053,0.022577041760087013,0.1574116200208664,-0.11389777809381485,-0.005919015966355801,0.08254527300596237,0.06432659924030304,-0.021061409264802933,-0.1968913972377777,0.014505897648632526,0.20728659629821777,0.11193107068538666,-0.023462824523448944,-0.020919684320688248,-0.279727965593338,-0.0141464127227664,0.043653640896081924,-0.05745484307408333,-0.26340746879577637,-0.1435977816581726,-0.12613321840763092,-0.07874848693609238,0.30154451727867126,0.040096767246723175,-0.0963754951953888,0.12366603314876556,0.017574571073055267,-0.2551911175251007,-0.15947632491588593,-0.061154481023550034,0.1648731678724289,0.21344098448753357,-0.01761815696954727,0.12348391860723495,-0.07332854717969894,0.07238755375146866,0.006318491417914629,-0.03360988572239876,-0.021905947476625443,-0.07382485270500183,-0.09774063527584076,-0.08874988555908203,-0.07985108345746994,0.1470165103673935],[0.027224136516451836,-0.018720777705311775,0.003961327951401472,-0.02094060741364956,-0.10152656584978104,-0.29015570878982544,-0.05696440860629082,-0.05422190949320793,0.11202311515808105,-0.23753157258033752,-0.04541371762752533,0.08180467039346695,-0.11806084960699081,-0.10107573121786118,0.0004911213181912899,-0.07093881815671921,0.11673348397016525,-0.009749598801136017,-0.12181088328361511,0.011673610657453537,-0.19439005851745605,-0.1680876612663269,0.10980062186717987,-0.009655552916228771,0.16570115089416504,-0.13946445286273956,0.1120474711060524,0.20873649418354034,-0.11201388388872147,-0.0128293102607131,-0.12874959409236908,-0.08642889559268951,0.034788139164447784,-0.03217850252985954,0.10196716338396072,0.020234491676092148,0.04647800326347351,-0.07993888854980469,0.07455014437437057,0.0038953861221671104,-0.14428630471229553,0.17204096913337708,-0.2509133219718933,-0.13924600183963776,0.021097391843795776,-0.08857999742031097,-0.17205478250980377,-0.023761607706546783,-0.23884031176567078,-0.13544903695583344,0.02055649273097515,0.11348534375429153,0.0285115335136652,0.024031786248087883,0.06581636518239975,-0.0936952456831932,0.027051955461502075,-0.04983825609087944,-0.18809114396572113,-0.12829087674617767,0.2267446517944336,-0.009166833944618702,0.2034413367509842,0.18736322224140167],[-0.03047553077340126,0.11266610026359558,0.2876054644584656,0.07188727706670761,-0.06286197155714035,0.03670267388224602,-0.07927735894918442,0.03929847851395607,0.06468791514635086,-0.024285780265927315,-0.09832209348678589,-0.007146105170249939,-0.027215909212827682,0.08233582973480225,0.039027512073516846,-0.09250852465629578,-0.26248422265052795,-0.29743555188179016,-0.10163787752389908,0.0073963431641459465,0.0865602195262909,0.1039971113204956,0.036776915192604065,0.06752126663923264,-0.14351406693458557,0.10861977934837341,-0.017565961927175522,-0.05165320262312889,0.059870395809412,-0.18498319387435913,-0.06103716790676117,0.003236263757571578,-0.011099145747721195,0.12222141772508621,0.10109739750623703,-0.005399281624704599,0.09519422054290771,-0.16230738162994385,0.08583199232816696,0.07738126069307327,-0.3982768952846527,-0.14499787986278534,-0.064463309943676,-0.15305575728416443,-0.15174630284309387,-0.054542575031518936,-0.03565562143921852,0.032345790416002274,0.04321957007050514,-0.2887187600135803,0.18250969052314758,-0.07103890180587769,0.09014784544706345,0.15005573630332947,-0.08401067554950714,-0.049360476434230804,-0.043515801429748535,-0.08911791443824768,0.17671403288841248,-0.14739249646663666,0.05602375790476799,0.13502727448940277,0.09555843472480774,-0.1382652223110199],[0.024748420342803,0.04685563966631889,0.04942856356501579,0.33657306432724,-0.023316090926527977,-0.18896250426769257,-0.1932825744152069,0.08132229745388031,-0.1464710831642151,0.12925691902637482,-0.0660712867975235,-0.05840204283595085,-0.030539430677890778,0.13811616599559784,-0.06522098928689957,-0.027299320325255394,0.16848187148571014,-0.04317726567387581,-0.027099082246422768,0.05606269836425781,0.027354354038834572,-0.03166346251964569,-0.04637287184596062,0.23939724266529083,-0.02080550603568554,-0.2644461989402771,-0.0654301866889,0.41587644815444946,0.117865189909935,-0.016053933650255203,-0.013795841485261917,-0.08696403354406357,0.030183296650648117,0.03246205672621727,-0.00032148484024219215,0.03530237823724747,0.05992433801293373,-0.01720910146832466,-0.03744005411863327,0.209055095911026,-0.18256881833076477,0.0065358346328139305,-0.05449699983000755,0.056894537061452866,0.1216510683298111,-0.13178835809230804,0.11146003007888794,-0.17990274727344513,-0.06085652858018875,-0.040447622537612915,0.08263418823480606,-0.03952988237142563,-0.08147802948951721,0.025557998567819595,-0.004228139296174049,-0.03882920742034912,-0.006828261539340019,-0.08934126794338226,0.07368217408657074,-0.01547231338918209,-0.12931957840919495,0.053053684532642365,-0.10347216576337814,-0.1432197540998459],[-0.0355805829167366,0.06268469244241714,-0.118956059217453,-0.03518110513687134,0.09751226752996445,-0.1226472407579422,-0.061873432248830795,-0.10723554342985153,-0.2486964762210846,0.16140912473201752,-0.10290584713220596,-0.09708455204963684,0.0068095531314611435,0.04405173659324646,0.09646546840667725,0.009824276901781559,0.2131779044866562,0.18350358307361603,0.006783816497772932,-0.0034326575696468353,-0.15577799081802368,0.17965605854988098,-0.026084277778863907,0.02473238669335842,-0.09718724340200424,0.037960849702358246,0.07896704971790314,-0.1122235506772995,-0.1397334486246109,-0.2416979819536209,-0.014332223683595657,0.08270484209060669,-0.14877238869667053,-0.24338676035404205,0.086879663169384,0.05346950516104698,0.0701717659831047,0.07866550981998444,0.18902115523815155,-0.017988301813602448,-0.07201261073350906,0.07145766168832779,-0.1856449842453003,0.03456017002463341,-0.04288647696375847,-0.1818658858537674,-0.1060827374458313,0.12822803854942322,0.11163460463285446,-0.07538343220949173,0.1324959099292755,-0.07160355150699615,-0.028560908511281013,-0.09020014852285385,-0.1317828893661499,0.18803009390830994,0.016930708661675453,-0.11884361505508423,-0.02913949079811573,-0.023854613304138184,-0.17594723403453827,0.16014504432678223,0.010485698468983173,-0.12648144364356995],[0.023306379094719887,0.11741061508655548,0.14532315731048584,-0.2803232669830322,0.03568192571401596,0.06064809858798981,-0.0471452921628952,0.09197384864091873,0.22239039838314056,-0.038828764110803604,-0.24944454431533813,-0.2039211243391037,-0.14523132145404816,-0.16927947103977203,0.06523758918046951,0.20840159058570862,0.11407773941755295,0.019307350739836693,-0.06734201312065125,0.23316623270511627,0.058916907757520676,0.022726837545633316,0.07786423712968826,0.11376623809337616,-0.08142805099487305,0.18143483996391296,0.049203842878341675,0.009588361717760563,-0.0033424224238842726,-0.034653689712285995,0.02845952659845352,0.08288368582725525,0.14325998723506927,0.024616515263915062,0.04391205310821533,-0.04777856543660164,-0.04890170693397522,-0.1086704209446907,-0.02138601429760456,0.28253281116485596,-0.0007274729432538152,-0.04969177395105362,-0.022985590621829033,-0.1131305918097496,-0.08200262486934662,-0.09244942665100098,0.004536880180239677,-0.035729967057704926,0.061052385717630386,0.3128044605255127,0.1436481475830078,0.05691869929432869,0.011202595196664333,0.12023662775754929,-0.06338795274496078,-0.04835972189903259,-0.22966012358665466,-0.09378444403409958,0.026513811200857162,-0.21709100902080536,0.10234614461660385,0.11877469718456268,0.20421145856380463,-0.11778035759925842],[0.08492012321949005,0.03876154124736786,0.0012064303737133741,0.1488773077726364,0.1280989944934845,0.11812091618776321,-0.1324402391910553,-0.16679248213768005,-0.060774125158786774,0.07381626218557358,0.07506883889436722,-0.034307848662137985,0.0045346845872700214,0.22504769265651703,0.028923260048031807,-0.03562438488006592,0.05630689859390259,-0.08938657492399216,-0.07468026876449585,0.10902056097984314,-0.17938609421253204,0.1518160104751587,-0.08732549846172333,-0.10849608480930328,-0.1383301168680191,-0.06431808322668076,-0.20998652279376984,-0.10263184458017349,0.07337513566017151,-0.01677151396870613,-0.20551863312721252,-0.20315223932266235,0.08037178963422775,-0.06122776120901108,0.2965332567691803,-0.02569810301065445,0.0045433565974235535,-0.021063655614852905,0.20921902358531952,0.012827891856431961,-0.03995572030544281,0.06880028545856476,0.11845307052135468,0.012020080350339413,-0.1456734538078308,0.1340051293373108,-0.08747289329767227,-0.10936885327100754,0.23232485353946686,-0.4018610417842865,0.16366663575172424,-0.05902193486690521,-0.042647235095500946,0.019800683483481407,0.19484542310237885,-0.1921524554491043,-0.05732356384396553,0.03045475296676159,0.20405074954032898,0.05704047530889511,-0.027902156114578247,-0.263593852519989,-0.22591494023799896,-0.03318385034799576],[0.14157742261886597,0.118851438164711,0.13637112081050873,0.05542328208684921,0.3414531648159027,0.09259384870529175,-0.08475984632968903,0.19925333559513092,-0.05667177215218544,0.014638232067227364,0.06700531393289566,0.06921451538801193,-0.008520239032804966,0.3198428452014923,0.0476490743458271,0.116618812084198,-0.15621958673000336,-0.08799399435520172,0.012521757744252682,0.030489809811115265,0.00723116984590888,-0.08475954830646515,-0.04230264946818352,0.022897105664014816,0.1084858700633049,0.1281193196773529,-0.07212363183498383,0.15733961760997772,0.16954010725021362,0.31940242648124695,0.11282413452863693,0.12075257301330566,0.018528005108237267,0.28234046697616577,0.07894020527601242,0.008488347753882408,-0.10184641927480698,-0.22934742271900177,-0.1290353387594223,0.10430214554071426,0.17041762173175812,-0.1117434874176979,-0.11837998777627945,0.09443967044353485,0.10385305434465408,-0.08498892188072205,0.18508028984069824,-0.1048261746764183,0.039757147431373596,0.06002826616168022,0.06576160341501236,-0.023795925080776215,0.032891757786273956,0.06819646805524826,-0.1885848343372345,0.1780916005373001,0.11847982555627823,0.11329440772533417,-0.05117550492286682,-0.19135843217372894,-0.025583432987332344,-0.38414639234542847,-0.21570158004760742,0.10718122124671936],[0.2850361764431,-0.06180964410305023,-0.07969821244478226,0.010033988393843174,0.08110560476779938,-0.004583028610795736,0.20584332942962646,0.09579819440841675,0.17212414741516113,0.044084809720516205,0.05128549784421921,0.048269111663103104,0.02661658264696598,-0.15384775400161743,0.018413269892334938,0.0398966409265995,-0.15198320150375366,-0.08623701333999634,-0.061206359416246414,-0.03914639726281166,0.008478422649204731,-0.06579706817865372,0.08301647007465363,-0.020935511216521263,0.039764367043972015,-0.12069634348154068,-0.14735578000545502,-0.04453790932893753,-0.07993325591087341,0.1217944473028183,0.11386331170797348,-0.08763954043388367,0.0075586228631436825,-0.1407603770494461,-0.1362365335226059,-0.18647870421409607,-0.11492609232664108,0.17350591719150543,-0.025428274646401405,0.14869283139705658,0.16349712014198303,0.09182454645633698,-0.0956243947148323,-0.11492134630680084,0.22237525880336761,-0.04752910137176514,-0.048101574182510376,0.014790637418627739,0.12710699439048767,-0.01384451612830162,-0.22397838532924652,0.08077690750360489,-0.2607417404651642,0.2772669494152069,0.098838210105896,-0.1035650372505188,0.12587454915046692,0.08064626902341843,-0.09566843509674072,-0.359514981508255,-0.0017532124184072018,0.17699773609638214,-0.061757612973451614,0.09127490222454071],[-0.015560222789645195,-0.007560997735708952,-0.033726755529642105,0.044684454798698425,-0.034546248614788055,0.22390063107013702,0.04795536771416664,0.013404790312051773,-0.06525292992591858,-0.07763104140758514,0.034097928553819656,-0.04351144656538963,0.1357310712337494,-0.05288354679942131,0.07230014353990555,0.10784720629453659,-0.1874779611825943,0.21144382655620575,-0.09334374219179153,-0.0022798848804086447,0.061737656593322754,0.15350821614265442,-0.01112823374569416,0.07486187666654587,-0.20437276363372803,0.19783596694469452,-0.014600660651922226,0.018123280256986618,-0.1812240034341812,-0.16302284598350525,0.001679896144196391,0.07557354122400284,-0.043061766773462296,-0.17648863792419434,-0.10607822984457016,-0.13637934625148773,-0.019478484988212585,-0.019737467169761658,-0.17329329252243042,0.019743651151657104,-0.15251198410987854,-0.014205285347998142,0.08237176388502121,-0.1516769677400589,-0.012939034029841423,-0.100669726729393,-0.012236326932907104,-0.07921931147575378,-0.145192489027977,-0.17238089442253113,-0.08621437102556229,-0.09793455898761749,-0.009787015616893768,0.036983590573072433,0.04628913477063179,-0.14486312866210938,0.01355781964957714,-0.00421201903373003,-0.17529182136058807,-0.02502424269914627,0.205387681722641,-0.15376678109169006,0.09375855326652527,0.03482287377119064],[-0.06816130876541138,-0.14445175230503082,0.1858297437429428,0.07665327936410904,-0.2368529587984085,-0.074016273021698,0.2061898410320282,0.19925379753112793,-0.10207392275333405,-0.08009885996580124,-0.13847078382968903,-0.005373673513531685,-0.02450479008257389,0.11241647601127625,0.2315172404050827,0.10890267044305801,-0.12454576790332794,0.10760287195444107,0.16524261236190796,0.11073127388954163,-0.15966321527957916,0.15746629238128662,0.05837785825133324,-0.23045852780342102,0.14633575081825256,-0.1079215407371521,0.07784117758274078,-0.0002458639210090041,-0.25522518157958984,0.30890992283821106,0.09204136580228806,0.1623481959104538,0.039184682071208954,-0.09741804003715515,0.1309301257133484,0.11840097606182098,-0.22020787000656128,0.2795729637145996,-0.07112052291631699,-0.18138235807418823,0.2664882242679596,-0.05969123914837837,0.013069834560155869,-0.09263791888952255,-0.008116507902741432,-0.127153679728508,-0.17029573023319244,-0.062459636479616165,-0.005169339943677187,0.007720539346337318,0.1265043020248413,0.12085684388875961,-0.03298085182905197,-0.2423398345708847,-0.07714225351810455,-0.03444751352071762,-0.13848541676998138,-0.0807371586561203,0.022957393899559975,0.1282551884651184,-0.0941457524895668,0.23247914016246796,0.02470575086772442,0.007608290761709213],[0.3041628301143646,0.032558124512434006,0.018245557323098183,-0.059230949729681015,0.19014205038547516,0.14860095083713531,-0.4155728816986084,-0.19352538883686066,-0.08809378743171692,0.02080541104078293,0.040090832859277725,0.1160905510187149,0.0672755315899849,-0.24222929775714874,0.04182262346148491,0.10802015662193298,-0.11956099420785904,0.011393564753234386,-0.05017238110303879,0.07334645837545395,0.06290289014577866,-0.18630190193653107,0.10822782665491104,0.06879758089780807,0.142343670129776,-0.045366398990154266,0.1370479017496109,-0.15264646708965302,-0.18217401206493378,0.16107912361621857,-0.03973758593201637,-0.10939642786979675,-0.10547024756669998,-0.17442981898784637,-0.04328768700361252,0.0548720620572567,0.002523204544559121,0.051530685275793076,-0.10897094011306763,0.0326516330242157,-0.07840635627508163,-0.022996407002210617,0.05708731710910797,0.07302822917699814,-0.21772174537181854,-0.23877593874931335,0.04886314272880554,-0.27162787318229675,0.008208693005144596,-0.13649271428585052,0.01504541002213955,0.09736476838588715,-0.019083620980381966,0.07614123821258545,-0.0396205373108387,-0.07520163059234619,0.11457435041666031,-0.14141641557216644,0.08671583980321884,-0.10394129157066345,-0.07577204704284668,-0.06078624725341797,-0.006321199703961611,-0.08151683956384659],[-0.0663195252418518,-0.03201001510024071,-0.020211299881339073,0.11770320683717728,0.0660071074962616,-0.037172842770814896,-0.3343992233276367,0.006848516408354044,-0.03652982413768768,-0.11111636459827423,0.044711921364068985,-0.046601224690675735,-0.25006723403930664,0.014630644582211971,-0.07780580967664719,-0.08044134080410004,-0.163306325674057,-0.05106000974774361,-0.0392005629837513,0.22436490654945374,0.036398742347955704,0.06496322154998779,0.020190706476569176,-0.12170055508613586,0.3214806318283081,0.001499859383329749,-0.15166796743869781,-0.005091029219329357,0.10776674747467041,0.04660671576857567,0.18411852419376373,-0.10923298448324203,0.07771150022745132,0.22559970617294312,0.008465462364256382,-0.015226551331579685,0.13001678884029388,0.14604488015174866,-0.07297608256340027,0.09099898487329483,-0.014653917402029037,0.08881168812513351,0.026827827095985413,-0.07025982439517975,0.03733983263373375,-0.08386499434709549,-0.038644276559352875,-0.18469755351543427,-0.05609495937824249,0.148063525557518,-0.02073800191283226,-0.0017278672894462943,-0.17653006315231323,-0.17606478929519653,-0.09140420705080032,-0.015490157529711723,-0.055882085114717484,-0.03540569916367531,0.010487359948456287,0.16236665844917297,-0.08809960633516312,-0.15303274989128113,0.048006799072027206,-0.011318767443299294],[-0.033401016145944595,0.0015880496939644217,0.07364751398563385,0.0060229054652154446,0.0650629848241806,0.15561845898628235,-0.1338336169719696,0.1357872188091278,-0.04556608572602272,-0.050315018743276596,-0.10968371480703354,-0.09605886042118073,-0.06028324365615845,0.09332398325204849,-0.09292201697826385,-0.2404053658246994,-0.09481105953454971,0.08685097843408585,-0.15212969481945038,0.13055624067783356,-0.1429785192012787,0.08096439391374588,0.03683934360742569,-0.21067087352275848,-0.030335646122694016,0.012040538713335991,-0.11628957837820053,0.025938833132386208,-0.019521888345479965,0.18860140442848206,-0.09959742426872253,-0.12356327474117279,-0.146568164229393,-0.02672751620411873,-0.03785153850913048,0.030399059876799583,-0.03147312253713608,0.0011271743569523096,0.05816585570573807,-0.1151217669248581,0.0824332907795906,0.10906609892845154,0.016803868114948273,0.010392844676971436,-0.04221585392951965,-0.05212065577507019,0.12123575806617737,0.030177509412169456,0.12612080574035645,-0.21546301245689392,-0.24087488651275635,0.06127772852778435,0.15773454308509827,-0.1251569539308548,-0.0447612889111042,-0.29321759939193726,-0.11582860350608826,0.017744146287441254,-0.12151593714952469,0.015256291255354881,-0.061710674315690994,-0.11444350332021713,-0.0126881655305624,0.061231836676597595],[-0.16931471228599548,0.04205337166786194,-0.09689442068338394,-0.146381214261055,0.07563303411006927,0.01953732781112194,0.05831607058644295,0.16077961027622223,-0.22600232064723969,0.05797736346721649,-0.004208266269415617,-0.20196914672851562,-0.06157616898417473,-0.032373059540987015,0.20104986429214478,0.04251763969659805,-0.06155749037861824,0.06901369988918304,0.09444748610258102,-0.12230255454778671,0.2037106156349182,-0.11212144792079926,-0.07149791717529297,0.11010506004095078,-0.03242066875100136,-0.02264699712395668,0.12554001808166504,-0.2465222030878067,0.03017405979335308,0.07801143079996109,0.23942288756370544,-0.1957407295703888,-0.31721192598342896,-0.19529958069324493,-0.05085374787449837,-0.045376695692539215,-0.3037969470024109,-0.08534552156925201,0.11261790245771408,0.04828310012817383,0.029400574043393135,-0.07527882605791092,0.10348529368638992,0.02397715114057064,-0.03819255530834198,-0.08059263229370117,-0.21541813015937805,0.14431121945381165,-0.09581738710403442,0.027024758979678154,0.1199459508061409,-0.1869896650314331,0.11310284584760666,0.023158151656389236,-0.06264074146747589,-0.03379727900028229,-0.008629130199551582,-0.10809103399515152,0.04798579216003418,-0.21340911090373993,-0.03958906978368759,-0.11912781000137329,-0.02069661021232605,-0.12371082603931427],[0.2525261342525482,-0.06012784317135811,-0.11464115977287292,-0.0766255334019661,0.034519262611866,-0.1347981095314026,0.41875046491622925,0.03810939937829971,-0.13297784328460693,0.15051032602787018,-0.032752979546785355,-0.19955235719680786,0.08171247690916061,0.030888576060533524,-0.010653844103217125,-0.2483716756105423,-0.0508410818874836,-0.03945079445838928,0.2208719402551651,-0.06082255393266678,0.09313054382801056,0.05543101951479912,-0.058365363627672195,-0.07706739008426666,-0.07245989143848419,-0.09420034289360046,-0.10936212539672852,0.00310885114595294,0.1594272404909134,-0.08750799298286438,-0.05273494869470596,-0.0768919438123703,0.05651439353823662,0.014454856514930725,-0.14188745617866516,0.02009601518511772,0.20452329516410828,0.07273025065660477,0.09416814893484116,-0.2850322425365448,-0.07321783155202866,-0.20987914502620697,-0.07997536659240723,-0.13584184646606445,-0.07363137602806091,-0.042812734842300415,0.022355930879712105,0.013680435717105865,-0.16038191318511963,-0.14642249047756195,-0.008897723630070686,-0.15862634778022766,-0.03929939866065979,0.041995853185653687,0.03161482885479927,0.028584349900484085,0.025193825364112854,0.18355631828308105,0.15050487220287323,0.029656466096639633,0.11531302332878113,0.05241522938013077,-0.07414521276950836,-0.006278784479945898],[0.13689064979553223,0.16061216592788696,0.007866991683840752,0.2182150036096573,-0.08747214823961258,-0.040689773857593536,0.08989665657281876,0.08932966738939285,0.07616929709911346,-0.11056777834892273,-0.04857867211103439,0.16421283781528473,-0.19723913073539734,-0.10237166285514832,-0.175652414560318,-0.053008679300546646,0.1329081952571869,-0.07544160634279251,0.11168532073497772,0.010835172608494759,-0.006369838025420904,0.02215570956468582,0.015012823976576328,0.13178391754627228,0.026293225586414337,0.03039339929819107,-0.18389061093330383,0.0579160712659359,-0.09496291726827621,-0.12139254808425903,-0.02138073928654194,-0.0009518864681012928,-0.15874961018562317,0.174839049577713,0.24106577038764954,-0.0953216403722763,0.007901571691036224,0.004680310375988483,-0.16433504223823547,0.14502499997615814,-0.11619611829519272,0.025729091838002205,0.04445641487836838,-0.14755156636238098,-0.0456315241754055,-0.08024094253778458,-0.006633782759308815,-0.08103727549314499,0.03624869883060455,-0.08173166215419769,-0.13559986650943756,-0.15265631675720215,-0.16767895221710205,-0.21175722777843475,0.21284566819667816,-0.03146663308143616,-0.029422234743833542,0.09078040719032288,-0.13791517913341522,-0.05548929423093796,-0.045201145112514496,-0.044487494975328445,-0.027244994416832924,0.09814395010471344],[0.06860428303480148,0.11024978011846542,-0.01970214955508709,0.1261860430240631,0.1341489553451538,0.05276333913207054,-0.19586330652236938,0.007798118516802788,-0.10110403597354889,-0.11590047925710678,0.05493699759244919,-0.009527024812996387,-0.04744488745927811,-0.04943503439426422,-0.1020020842552185,0.06557610630989075,-0.11184070259332657,0.12466578185558319,0.10214351862668991,0.08363059163093567,0.05346113443374634,0.07107709348201752,-0.11674730479717255,-0.05480961874127388,0.05440139025449753,-0.13134777545928955,-0.05429930239915848,-0.0013425471261143684,-0.03488541767001152,0.1397165209054947,-0.1611238569021225,0.1707972288131714,-0.12244129925966263,0.18355382978916168,-0.16427867114543915,-0.1092476025223732,0.17786602675914764,0.013442757539451122,0.07763461768627167,0.1406438797712326,-0.09732689708471298,-0.18239480257034302,-0.0808866024017334,0.1360323578119278,0.00979646947234869,0.009204018861055374,0.09828851372003555,0.07629288733005524,0.18500253558158875,-0.041092660278081894,-0.2230190932750702,-0.06384795159101486,0.23810669779777527,0.14165045320987701,-0.025940731167793274,-0.07370799034833908,0.054515693336725235,0.04428912699222565,0.0534917451441288,-0.03046371228992939,0.21385164558887482,-0.012451546266674995,0.22157002985477448,-0.0010513393208384514],[0.07406069338321686,0.08216340839862823,0.096748948097229,0.09863048046827316,0.0676112174987793,-0.00958926696330309,0.05388900265097618,0.07053942233324051,0.088562972843647,0.011301758699119091,0.00643282663077116,-0.037752747535705566,0.14136376976966858,-0.173826664686203,0.02924763597548008,0.048168979585170746,0.1204683929681778,-0.20065543055534363,-0.13322465121746063,0.018711227923631668,-0.040108609944581985,0.04437628760933876,-0.0974881574511528,-0.015627378597855568,0.11781245470046997,0.05389297381043434,-0.04113243147730827,-0.18049243092536926,0.030215851962566376,0.11121786385774612,-0.14496532082557678,-0.07406456023454666,-0.10629446804523468,-0.10316267609596252,0.09315390884876251,-0.03902366757392883,0.01179606094956398,-0.30507510900497437,0.011815574951469898,0.14272305369377136,-0.03671988472342491,-0.1364019364118576,-0.1555183380842209,0.007186836563050747,0.012799819931387901,-0.04756947234272957,0.2261747270822525,0.25157082080841064,0.1332818865776062,0.16105607151985168,-0.08046869933605194,0.18088282644748688,-0.062452904880046844,0.08771340548992157,0.13727493584156036,-0.1670789122581482,0.16580072045326233,0.160146102309227,-0.1524796336889267,-0.17033234238624573,0.23466439545154572,-0.028325004503130913,0.12270034104585648,0.16147901117801666],[-0.25818654894828796,0.19037695229053497,-0.3030370771884918,-0.06079071760177612,0.05733129754662514,0.054123926907777786,0.02113218978047371,-0.05512364208698273,0.09330085664987564,0.025691013783216476,-0.22296397387981415,-0.009404516778886318,0.03707209229469299,-0.1178114041686058,-0.0722527876496315,-0.18024221062660217,0.08802264928817749,-0.012949075549840927,0.2278972566127777,0.3279184401035309,-0.027129748836159706,0.06041291356086731,0.03481421247124672,0.07363642007112503,-0.13317707180976868,0.0792013481259346,-0.0839875116944313,-0.006765501573681831,-0.3699057698249817,-0.11896064877510071,0.11722130328416824,0.15234488248825073,-0.07059713453054428,0.08632250875234604,-0.03351132199168205,-0.15293680131435394,0.44630908966064453,-0.08517681807279587,-0.14183828234672546,-0.055068548768758774,0.056255389004945755,0.16060931980609894,0.09500104188919067,-0.00018417178944218904,0.09636858850717545,0.17114731669425964,0.18716028332710266,-0.19957488775253296,-0.05743753910064697,-0.07549644261598587,-0.2597809433937073,-0.015491630882024765,-0.08462061733007431,-0.18403485417366028,-0.12447207421064377,0.06208406388759613,0.07824747264385223,-0.0011241650208830833,-0.06068628281354904,-0.16476930677890778,-0.01070221234112978,-0.1805502474308014,-0.20507684350013733,-0.16370618343353271],[0.2600841820240021,0.02037353627383709,0.1130959615111351,-0.10231318324804306,-0.006559976376593113,-0.030731474980711937,0.09155553579330444,0.06449759006500244,0.14662185311317444,-0.037260349839925766,0.18491706252098083,-0.09616301208734512,0.009386836551129818,-0.04861897602677345,0.12692445516586304,0.040906596928834915,0.07888682931661606,-0.19983765482902527,-0.054688192903995514,0.029143555089831352,-0.13831791281700134,0.11516223102807999,0.32643216848373413,-0.11916973441839218,0.0038833688013255596,-0.11835945397615433,0.09299415349960327,0.11685840785503387,-0.012212981469929218,-0.026965368539094925,-0.3037615418434143,0.028116054832935333,0.09228415042161942,-0.04656568169593811,0.03800049424171448,-0.05232447013258934,-0.04604687541723251,-0.1338007003068924,0.03274788334965706,0.03715735301375389,-0.0548844039440155,0.011943458579480648,0.13806012272834778,0.09699537605047226,0.13646602630615234,-0.13658839464187622,-0.03877981752157211,0.0909678116440773,0.028427379205822945,0.034123361110687256,0.17038065195083618,-0.04010051488876343,-0.019034285098314285,-0.028735341504216194,0.11721963435411453,0.2843589782714844,-0.0016248432220891118,0.335855096578598,0.057736657559871674,0.045306213200092316,0.024694567546248436,-0.040319498628377914,0.11349446326494217,-0.17086124420166016],[0.003936209715902805,0.08163395524024963,0.13358131051063538,0.0852733626961708,0.12396217882633209,0.029028896242380142,0.03579585626721382,0.02187161333858967,-0.054639387875795364,0.09532983601093292,-0.0025211346801370382,-0.17099420726299286,0.14519116282463074,0.23454315960407257,0.1832752525806427,0.09466681629419327,0.08649326860904694,-0.027059556916356087,-0.16423597931861877,-0.030799556523561478,-0.010861791670322418,0.03972721844911575,-0.1831119805574417,0.04867623373866081,0.11110642552375793,-0.006600506138056517,0.09773338586091995,0.3108130991458893,-0.04239674285054207,-0.09267078340053558,0.03983445093035698,-0.26063063740730286,-0.09948471188545227,0.024457303807139397,-0.0896044597029686,-0.13042660057544708,0.1480313241481781,-0.057130761444568634,0.05112393945455551,-0.03593052923679352,0.06228385120630264,-0.1533464640378952,-0.2591966390609741,-0.15767443180084229,0.028779426589608192,0.19378876686096191,0.04160228371620178,0.08281953632831573,-0.0890648141503334,-0.08041755110025406,0.10887178778648376,-0.1047358289361,0.025401698425412178,0.04846721142530441,-0.12073652446269989,0.3066451847553253,0.08664312213659286,-0.04955412819981575,0.06084562465548515,-0.11242245882749557,0.02729211561381817,-0.08705847710371017,0.033705174922943115,-0.018399253487586975],[-0.02553952857851982,-0.09876533597707748,-0.008813543245196342,0.05115273594856262,-0.041031066328287125,0.07043035328388214,-0.023352060467004776,-0.16029047966003418,0.047032468020915985,0.0068993642926216125,0.13953562080860138,-0.17364200949668884,-0.19870401918888092,0.13192325830459595,-0.14631488919258118,0.040101274847984314,-0.07933558523654938,0.10483665764331818,-0.0380888395011425,0.04193638265132904,0.10710406303405762,-0.011580961756408215,-0.08481821417808533,-0.06118590757250786,-0.0516391322016716,-0.059290431439876556,0.03749886900186539,0.03717730566859245,0.008256779052317142,-0.03975815325975418,0.1939210593700409,-0.05401018261909485,-0.14909455180168152,-0.10722554475069046,-0.17863327264785767,-0.1738097071647644,0.027070941403508186,-0.0808609202504158,0.05031273141503334,0.285225510597229,-0.38657432794570923,-0.02708549238741398,0.12309049814939499,-0.23221741616725922,-0.1090473160147667,0.2121652364730835,-0.1867273598909378,-0.10689807683229446,-0.024304108694195747,0.11654277890920639,0.04770740866661072,-0.056835662573575974,0.019625993445515633,-0.06987038999795914,-0.0884317085146904,-0.05856615677475929,0.05212201550602913,-0.20398198068141937,0.10044234991073608,0.009218486025929451,-0.03484409302473068,0.048034053295850754,-0.08770676702260971,-0.10495524108409882],[0.12104398012161255,0.1073259636759758,0.15480631589889526,-0.02794933132827282,-0.1867240071296692,-0.01927441917359829,0.025913657620549202,-0.026545919477939606,0.10419010370969772,-0.033069316297769547,0.05467662960290909,-0.21793368458747864,0.1811920404434204,-0.23465588688850403,0.057275108993053436,-0.23500032722949982,-0.019020482897758484,-0.26724934577941895,0.04829693213105202,-0.19961410760879517,-0.07811430841684341,-0.03751259669661522,0.0940098762512207,-0.2112123668193817,0.06390941143035889,-0.04190010204911232,0.1882919818162918,-0.10308721661567688,-0.02446834370493889,0.07304808497428894,-0.004902281798422337,-0.021351579576730728,-0.05182123929262161,0.09530440717935562,0.05928556248545647,-0.1852959841489792,-0.00994946900755167,0.036260172724723816,0.07136829197406769,-0.0252985879778862,0.04758666455745697,0.0778081864118576,0.13185369968414307,-0.0031379705760627985,-0.008566528558731079,0.20408456027507782,0.21879523992538452,-0.04461759328842163,-0.09168343991041183,0.07179979234933853,0.031047562137246132,0.23019880056381226,-0.14300864934921265,-0.1377716064453125,-0.0724891722202301,-0.14837288856506348,-0.11172955483198166,-0.0019594875629991293,0.030454836785793304,0.15330475568771362,0.12807363271713257,-0.12289592623710632,0.09348862618207932,0.0836741104722023],[0.11232680082321167,-0.11145032942295074,0.1156577467918396,-0.06589055806398392,-0.09185294806957245,-0.07286914438009262,-0.07228772342205048,-0.005747385788708925,0.1111382395029068,-0.05870731920003891,-0.0800560861825943,-0.049029238522052765,-0.048761036247015,0.00790682528167963,-0.01097611803561449,0.09877947717905045,0.236326202750206,-0.13167239725589752,0.025227900594472885,0.04252178221940994,0.18360114097595215,-0.11890296638011932,-0.007919851690530777,0.04757323116064072,0.05106217786669731,0.1555212140083313,-0.08267232030630112,-0.07980905473232269,-0.03284497559070587,-0.0822444036602974,0.22371995449066162,0.1452026516199112,0.1298948973417282,0.06385975331068039,-0.12573668360710144,0.055007338523864746,-0.06518878787755966,0.013582276180386543,0.06414497643709183,-0.09035933762788773,0.08776611089706421,-0.024119624868035316,-0.016366733238101006,0.4204968214035034,-0.2261926233768463,-0.04428347200155258,-0.2751912474632263,-0.07630455493927002,-0.056018732488155365,-0.004288226366043091,0.10168387740850449,-0.017290741205215454,0.3575030565261841,0.09751743823289871,-0.20336060225963593,0.2352399379014969,-0.023480601608753204,0.01184849999845028,-0.0956188514828682,0.013737369328737259,-0.016342826187610626,-0.035727549344301224,0.027103612199425697,-0.03025014139711857],[0.018828675150871277,-0.19108496606349945,0.08331209421157837,-0.17137208580970764,-0.17590343952178955,0.01247904822230339,0.019238702952861786,-0.03239800035953522,0.009113239124417305,-0.21753346920013428,-0.21622487902641296,0.14985573291778564,-0.05971076339483261,-0.1862901896238327,-0.06697314977645874,-0.2649479806423187,0.0521659180521965,-0.13511928915977478,0.23906926810741425,-0.16127154231071472,0.18251630663871765,0.0276466254144907,-0.31163647770881653,0.049667809158563614,0.09073010087013245,0.11161024868488312,0.06773220747709274,0.013376766815781593,-0.07643424719572067,-0.05081856995820999,0.15329864621162415,0.10955020040273666,-0.06571802496910095,0.0984208956360817,0.017275352030992508,-0.04126039147377014,-0.05241197347640991,0.10081540048122406,-0.060580745339393616,-0.010091212578117847,0.08034852147102356,0.15427058935165405,-0.07457900047302246,0.027781330049037933,-0.007251210976392031,-0.09720750153064728,-0.15954585373401642,0.02977755293250084,-0.01092926412820816,0.13240836560726166,-0.0014470332534983754,-0.17543615400791168,0.10726598650217056,0.15719187259674072,0.03484085202217102,0.13468225300312042,-0.34194931387901306,0.07108227908611298,0.12902474403381348,0.1751817762851715,-0.015202728100121021,-0.4193836450576782,0.014418991282582283,-0.0637020468711853],[0.04616665467619896,-0.1488996297121048,-0.07766179740428925,0.10403262823820114,-0.05305780470371246,0.010495666414499283,-0.15168195962905884,0.18115642666816711,0.3460161089897156,0.03586806729435921,0.09907180070877075,-0.04823620244860649,-0.049884404987096786,-0.060848865658044815,-0.12282431870698929,-0.2047508955001831,-0.047042980790138245,0.1637050360441208,-0.03863157704472542,0.11403018236160278,-0.23604223132133484,-0.12863145768642426,-0.08807697892189026,-0.013564588502049446,0.10653259605169296,0.17175741493701935,0.12247347086668015,-0.03797276318073273,0.2331400066614151,-0.1568484604358673,-0.03201751038432121,-0.21216507256031036,-0.0011195188853889704,-0.0731828510761261,0.14539238810539246,0.2554420232772827,-0.09392141550779343,0.054631538689136505,0.05308796837925911,0.2119975984096527,0.023074092343449593,0.20686474442481995,0.13371782004833221,0.022760160267353058,0.11781328916549683,-0.21325282752513885,0.030730456113815308,0.08117977529764175,0.012067355215549469,0.01579299196600914,-0.09361878782510757,0.07442223280668259,-0.06557685881853104,-0.08039352297782898,0.08500699698925018,-0.13561244308948517,-0.030746741220355034,-0.2556723356246948,0.1672496199607849,0.058942388743162155,0.2897983193397522,-0.00968217197805643,0.0895407572388649,-0.010540097020566463],[-0.09835795313119888,0.1543029546737671,0.09045121818780899,-0.10479599982500076,-0.01917685568332672,0.009074409492313862,-0.028127990663051605,0.0926758423447609,0.1215815469622612,-0.11159751564264297,0.013241845183074474,0.11632367223501205,0.06015641614794731,0.13219194114208221,-0.03812246024608612,0.24048782885074615,0.029620638117194176,0.10031183809041977,-0.019646810367703438,0.21643486618995667,-0.22357729077339172,-0.027813415974378586,0.13766853511333466,0.12900172173976898,0.04908541217446327,0.11525658518075943,-0.20776525139808655,-0.1511085480451584,-0.1696905642747879,-0.13606518507003784,-0.12057814747095108,0.2095317244529724,-0.06928237527608871,-0.17905402183532715,0.03018520213663578,0.17804642021656036,0.05641759932041168,-0.09122758358716965,-0.21554243564605713,0.0764516294002533,0.2803202271461487,0.14390277862548828,0.079893559217453,0.15875542163848877,0.07853448390960693,0.12448927015066147,-0.21425801515579224,-0.04233137518167496,-0.2036028951406479,-0.2868085503578186,0.01929091103374958,0.06882455945014954,0.18682889640331268,-0.06177676096558571,-0.041781771928071976,0.06761357933282852,-0.18776363134384155,-0.03412918373942375,0.022930370643734932,-0.007004478480666876,-0.04850317910313606,0.03953685611486435,0.21604280173778534,-0.10217244923114777],[-0.1051035225391388,-0.018582116812467575,-0.03371284902095795,-0.007435754872858524,0.0071125151589512825,0.0022528611589223146,-0.08172684162855148,0.02669622376561165,-0.11916153132915497,-0.09361761808395386,0.17153501510620117,-0.21752183139324188,0.06057833880186081,-0.10950802266597748,0.19900164008140564,-0.18435679376125336,-0.27885931730270386,0.12396696209907532,0.019731935113668442,-0.13618862628936768,-0.12125521898269653,-0.23206369578838348,0.10745225101709366,0.2569814622402191,0.07747320085763931,-0.03555896133184433,0.009841946884989738,-0.08282411098480225,0.07839149236679077,-0.23094789683818817,0.1474345326423645,-0.07577366381883621,-0.05316822975873947,0.10664933919906616,0.21400046348571777,-0.08971895277500153,0.1078595519065857,0.1559956818819046,0.008502532728016376,0.1783326417207718,-0.011210281401872635,0.03564319387078285,0.2893548607826233,-0.04152768850326538,0.09729297459125519,-0.09329422563314438,0.05230286717414856,-0.08986624330282211,-0.09613004326820374,0.20918701589107513,0.005494842771440744,0.02459690347313881,-0.1643040031194687,0.017182745039463043,0.2777082324028015,-0.017849862575531006,0.07704464346170425,0.06103741377592087,0.22658365964889526,-0.19385817646980286,-0.09526410698890686,-0.02478758431971073,-0.21789760887622833,0.019615301862359047],[0.07406268268823624,0.07432074099779129,-0.0011072333436459303,-0.015173843130469322,0.07542476803064346,0.11577293276786804,-0.11135201156139374,-0.02952466532588005,-0.08061201870441437,0.1723509281873703,-0.009294869378209114,-0.010243578813970089,-0.03795481473207474,0.02948407083749771,-0.06965642422437668,-0.18941310048103333,0.024463195353746414,-0.055762939155101776,0.0030244921799749136,0.12473392486572266,0.24230365455150604,0.1772404909133911,-0.2481885850429535,-0.16555775701999664,0.12502603232860565,-0.013890091329813004,0.0054499986581504345,-0.003435591934248805,0.07363069802522659,-0.15141162276268005,-0.058800406754016876,0.04798981919884682,0.1992928832769394,0.13285839557647705,-0.09174679964780807,-0.09600158780813217,0.17707251012325287,-0.04990198835730553,0.1937151998281479,-0.07939014583826065,-0.22523067891597748,0.14626388251781464,-0.014474615454673767,-0.05130610242486,-0.12863612174987793,0.03807874023914337,0.017869651317596436,-0.07485483586788177,0.2603886127471924,0.031868159770965576,0.0010451588314026594,-0.12424489110708237,0.01634979248046875,-0.060965459793806076,-0.17260125279426575,-0.007319238968193531,-0.16507792472839355,0.044603753834962845,-4.1688905184855685e-05,-0.13593696057796478,0.01433737576007843,0.08382543176412582,-0.039451710879802704,-0.015199077315628529],[0.03820076584815979,0.139583021402359,-0.19161026179790497,-0.06816403567790985,0.22278104722499847,-0.06207458674907684,-0.1989450603723526,-0.2797934412956238,0.2480115294456482,-0.11769590526819229,-0.19932585954666138,-0.02867167443037033,-0.06088805943727493,0.0909363403916359,0.05951615422964096,0.006667467299848795,0.058217357844114304,0.013534297235310078,0.13160744309425354,-0.0738421306014061,-0.02149312011897564,-0.21629895269870758,0.03238818421959877,0.02426234632730484,0.06969302892684937,-0.019089028239250183,-0.05027255415916443,0.20196233689785004,-0.13524164259433746,-0.2594476640224457,0.0029677364509552717,0.1120494082570076,-0.0523810014128685,-0.02997102402150631,0.10984504222869873,-0.03745083883404732,0.03218849375844002,-0.08397391438484192,-0.13370868563652039,0.11042933911085129,-0.058264270424842834,0.10269903391599655,0.2675402760505676,-0.12419849634170532,0.04869885742664337,0.16110345721244812,-0.46852245926856995,0.10642408579587936,-0.13978931307792664,-0.270853191614151,-0.1637962907552719,-0.18731439113616943,0.03331626206636429,-0.06301173567771912,-0.1546892523765564,0.056288279592990875,0.0027960073202848434,-0.06644687801599503,0.03638205677270889,-0.05258452147245407,0.06168525293469429,0.05792136490345001,0.21383272111415863,0.17692632973194122],[-0.10032796114683151,0.14336374402046204,0.1788814812898636,-0.21003828942775726,0.3212375044822693,0.06223977357149124,0.2847467362880707,-0.01624962128698826,-0.16411925852298737,0.11479184031486511,0.07226777076721191,-0.12920449674129486,-0.026567140594124794,-0.02839861810207367,-0.1889142394065857,0.06676463037729263,0.3271165192127228,0.02683403342962265,0.012237931601703167,-0.006438072305172682,-0.05624428018927574,0.038508567959070206,-0.15484583377838135,0.24165849387645721,-0.28001731634140015,-0.008075273595750332,0.03542570397257805,0.00751156359910965,0.040284644812345505,-0.02789560705423355,0.08707616478204727,-0.14174848794937134,0.07642285525798798,0.20846876502037048,-0.06569958478212357,0.13273142278194427,-0.0329517163336277,0.2086692899465561,0.2042173147201538,0.05907994508743286,0.008163263089954853,0.013369405642151833,-0.04879637807607651,-0.03709220886230469,-0.17863090336322784,-0.07107985764741898,0.008274869062006474,-0.05094520375132561,-0.16822265088558197,-0.17411503195762634,-0.02284623123705387,-0.18682526051998138,-0.01656591333448887,-0.08000095188617706,0.05983010679483414,-0.027128897607326508,-0.112481988966465,0.27551451325416565,0.03636760264635086,0.0689823254942894,-0.1047220304608345,0.06735271960496902,-0.04040460288524628,0.09199318289756775],[0.12312281876802444,-0.042673513293266296,-0.10710801184177399,0.011747542768716812,-0.030629107728600502,-0.017910419031977654,0.029400786384940147,-0.12307559698820114,-0.011707788333296776,0.1632266342639923,0.04653787985444069,0.0973656177520752,0.0028528294060379267,-0.1429375410079956,0.08805693686008453,-0.2175407111644745,-0.044118333607912064,-0.04544344171881676,-0.0008741371566429734,-0.10655537992715836,-0.08717323839664459,-0.04862278699874878,-0.05094926804304123,0.04960186779499054,-0.044531404972076416,0.1520044356584549,0.015338092111051083,0.11844710260629654,-0.16400738060474396,0.05962076038122177,0.012273755855858326,0.13460750877857208,-0.06999017298221588,-0.05436323210597038,0.07707665860652924,-0.009348942898213863,0.005931705702096224,0.27047398686408997,-0.0230463445186615,-0.0665166974067688,-0.0185250137001276,0.2053452432155609,-0.08823613822460175,0.04772680997848511,0.19829978048801422,0.22568710148334503,0.07315623760223389,-0.24208708107471466,0.18619243800640106,0.054492052644491196,0.04522253945469856,0.10657403618097305,0.06719990819692612,-0.07790783792734146,0.0007419194444082677,0.0484803281724453,0.0770459994673729,-0.040232326835393906,0.16761058568954468,0.03091595508158207,0.08853725343942642,-0.06610319018363953,-0.116962730884552,0.03769075125455856],[-0.07313231378793716,-0.16587375104427338,-0.08439140766859055,0.013621002435684204,-0.07301177084445953,0.0714208334684372,0.07115106284618378,-0.053954076021909714,-0.09166928380727768,-0.002627529436722398,0.11546573787927628,-0.1346600353717804,0.05826946347951889,0.22329115867614746,0.009913046844303608,-0.08731163293123245,-0.011359966360032558,0.19942104816436768,-0.09312775731086731,0.1488083451986313,0.09143935889005661,-0.053278397768735886,-0.08485166728496552,0.18094377219676971,-0.05366310477256775,-0.18670350313186646,0.12664534151554108,0.2146628201007843,-0.19661498069763184,-0.0796065703034401,0.04987609386444092,-0.24503368139266968,0.1307055950164795,-0.03394164517521858,-0.09482204169034958,-0.17820954322814941,-0.05433708801865578,-0.06222900375723839,-0.027337271720170975,-0.17236314713954926,0.07500599324703217,-0.1545259654521942,0.07304219901561737,-0.012901191599667072,-0.009817637503147125,0.08486340194940567,0.06711392104625702,0.04672691226005554,-0.01645825430750847,-0.16652707755565643,0.06897920370101929,0.05959267541766167,0.11710511893033981,0.2783719599246979,-0.09675205498933792,-0.03967249393463135,0.13354678452014923,0.10269472002983093,-0.012885507196187973,-0.2167552411556244,0.12741346657276154,0.1845419704914093,-0.03478400409221649,0.06712771207094193],[0.033953990787267685,-0.16197742521762848,-0.09663571417331696,-0.07405763119459152,-0.25522130727767944,0.09169108420610428,-0.04041618853807449,-0.10338355600833893,0.13870839774608612,0.3089151382446289,-0.18788215517997742,0.03467667102813721,-0.03825175017118454,0.011240081861615181,-0.13859842717647552,0.0515701062977314,0.33400964736938477,0.21432709693908691,-0.08163553476333618,0.05563441291451454,0.1181061714887619,0.007693788968026638,-0.09691455960273743,-0.0980742871761322,-0.02765626087784767,0.21194279193878174,0.0362173393368721,0.08146832138299942,-0.02601737156510353,0.008900236338376999,0.06574656814336777,-0.026535872370004654,0.06433527171611786,-0.1217261254787445,0.19075901806354523,-0.09095147252082825,0.08542324602603912,0.1522188037633896,-0.11442995071411133,0.12455695122480392,-0.06948377192020416,0.03989691287279129,0.031230159103870392,0.045180756598711014,-0.025337137281894684,-0.06913476437330246,-0.13141383230686188,-0.1423846036195755,-0.1264970302581787,-0.023133650422096252,-0.1266021430492401,0.051557816565036774,0.04543285071849823,-0.025802111253142357,0.14978264272212982,0.056145183742046356,0.05216572433710098,-0.058002639561891556,0.04448353871703148,0.04733653366565704,0.09226784110069275,0.04601176455616951,0.05710085481405258,-0.06019967049360275],[-0.12342043966054916,0.21681061387062073,-0.012094156816601753,0.1528322398662567,0.10609074681997299,0.18880562484264374,0.0517965629696846,0.16642458736896515,0.14826779067516327,-0.14465396106243134,-0.04510080814361572,-0.1878615915775299,0.14877715706825256,0.07088762521743774,-0.27785393595695496,0.23982654511928558,-0.1741732358932495,0.11333522945642471,-0.15198828279972076,-0.029786325991153717,-0.02353665977716446,-0.05402650311589241,0.135305717587471,0.08235587179660797,0.02135368436574936,0.22333717346191406,0.029889555647969246,0.11660007387399673,-0.18592384457588196,0.07307977974414825,0.16670794785022736,0.0033806029241532087,-0.3148577809333801,-0.1549340933561325,-0.0706944465637207,0.014116835780441761,-0.010065877810120583,0.024243971332907677,0.05222524330019951,0.036221154034137726,-0.16298548877239227,0.011489178985357285,0.025961536914110184,0.1937273144721985,-0.004373129922896624,-0.20621998608112335,-0.05189305916428566,-0.040559954941272736,-0.10582364350557327,-0.0427209734916687,0.04779034107923508,0.20072072744369507,-0.1287326216697693,-0.327392578125,0.033940937370061874,-0.07189809530973434,0.10968446731567383,0.01550302654504776,-0.1342822164297104,0.08868452906608582,0.053640857338905334,0.15906070172786713,0.1579209715127945,0.14850933849811554],[-0.05396571755409241,0.014313110150396824,0.04397018626332283,0.07741698622703552,-0.17312303185462952,0.09440027922391891,0.07593865692615509,0.022243069484829903,0.16486845910549164,-0.022101731970906258,0.04998201131820679,-0.018958786502480507,0.11096127331256866,-0.12663057446479797,-0.08856077492237091,0.02056042104959488,0.08676590025424957,0.008491818793118,-0.03128180280327797,0.04807908460497856,-0.05024642497301102,-0.14024244248867035,0.01729295216500759,-0.31000277400016785,0.03487962484359741,0.07942132651805878,0.08225005120038986,-0.1652890145778656,0.17806634306907654,0.021071026101708412,-0.24467059969902039,-0.06179986521601677,-0.006524036638438702,-0.05760237202048302,0.1122710108757019,-0.10887348651885986,0.053379256278276443,0.11116468161344528,0.08732391148805618,0.09478208422660828,-0.140132337808609,-0.0444917306303978,-0.04013573378324509,-0.03912439942359924,0.07363536208868027,-0.050112079828977585,-0.06157177686691284,0.03374464437365532,-0.1739872843027115,0.06909715384244919,-0.062198005616664886,0.021926259621977806,-0.19124427437782288,0.12761269509792328,-0.13562268018722534,-0.06733197718858719,0.0062064798548817635,0.018284978345036507,0.14293813705444336,0.016069641336798668,-0.07855679839849472,-0.3004515767097473,0.0505182109773159,-0.08459576219320297],[-0.0012878632405772805,-0.1495087891817093,-0.12253541499376297,-0.002231954364106059,0.02902103029191494,0.0014126134337857366,-0.06072166934609413,-0.07442734390497208,0.02209162339568138,0.07343294471502304,0.20578555762767792,-0.0452805757522583,-0.011441724374890327,0.03157282620668411,0.2305753529071808,0.04575880989432335,0.07671745866537094,-0.0369313582777977,-0.03714239224791527,0.060222212225198746,-0.016222625970840454,0.08663773536682129,-0.07271786779165268,0.004394679795950651,-0.021655188873410225,-0.060675956308841705,-0.062080882489681244,0.11517196893692017,-0.1254628747701645,-0.10191164165735245,0.03501422703266144,-0.10167480260133743,-0.08589132875204086,0.18988007307052612,0.15791746973991394,-0.07213122397661209,0.10131532698869705,0.18814346194267273,0.15088216960430145,-0.2130802571773529,-0.10657455772161484,0.029758721590042114,-0.09415604174137115,-0.16401049494743347,0.17325332760810852,-0.11467541754245758,0.12612532079219818,0.01886928081512451,-0.0038123985286802053,-0.040095869451761246,0.000640378799289465,-0.1284550577402115,-0.14754270017147064,0.011959012597799301,-0.07726799696683884,0.11342029273509979,-0.03382571414113045,0.003765121567994356,-0.02380944788455963,0.04314865171909332,-0.2656968832015991,0.10884549468755722,0.04138895124197006,-0.1023467481136322],[0.30943650007247925,-0.12979930639266968,-0.19386523962020874,-0.011387411504983902,0.20317442715168,-0.06277158111333847,0.06310628354549408,0.07395362108945847,-0.10116571933031082,0.059189323335886,0.1297656148672104,-0.020428184419870377,-0.04518016055226326,-0.20958685874938965,0.12144287675619125,0.07076549530029297,-0.10632167011499405,-0.01017062459141016,0.15100227296352386,-0.04995932802557945,-0.09690984338521957,0.11317411810159683,-0.018582340329885483,-0.10838503390550613,0.1563713550567627,0.07175067812204361,-0.07370242476463318,-0.0330672562122345,0.17640343308448792,-0.1540367156267166,0.13956694304943085,0.04615136608481407,0.03011130727827549,0.18227215111255646,-0.021926037967205048,-0.23946256935596466,-0.12383020669221878,0.303020715713501,0.11129130423069,-0.18892191350460052,-0.07728293538093567,-0.010485335253179073,0.03415428474545479,0.05836627259850502,0.15852734446525574,0.0019626112189143896,-0.05947335436940193,0.10680244863033295,-0.12467154115438461,-0.1172981932759285,0.1103471964597702,0.1366787552833557,0.13801530003547668,-0.1420184075832367,-0.020011520013213158,-0.19277448952198029,0.18082596361637115,0.021659087389707565,0.01757592335343361,-0.24914632737636566,0.11073333024978638,-0.12925127148628235,-0.10774918645620346,-0.030643882229924202],[0.21748259663581848,-0.0426555834710598,0.16652974486351013,0.026896564289927483,0.09185218811035156,0.01737992838025093,-0.005355101078748703,-0.06472454965114594,-0.24209800362586975,0.039004478603601456,-0.05732867494225502,-0.11571101099252701,0.009065086022019386,0.038250502198934555,-0.041216254234313965,0.009146780706942081,-0.02113315276801586,0.0206746943295002,0.1622556746006012,-0.23170390725135803,0.15465059876441956,-0.1784258633852005,0.1595529168844223,0.12360440194606781,0.057563889771699905,-0.015111081302165985,-0.06834116578102112,-0.01607678271830082,0.20687325298786163,0.19659125804901123,0.05670112371444702,0.005559646058827639,-0.12999668717384338,0.07376844435930252,0.0832776203751564,0.21102795004844666,-0.14348182082176208,0.04467327147722244,-0.07294262945652008,-0.07931915670633316,-0.17881694436073303,-0.1179019957780838,0.00815684162080288,0.05958370491862297,-0.07708752155303955,