{"architecture":{"input_dim":20,"hidden_dim":64,"hidden_layers":4,"output_dim":4,"activation":"tanh","num_fourier_frequencies":10},"weights":{"layer_0":{"weight":[[0.12305828183889389,-0.17506110668182373,-0.22921720147132874,-0.2415640503168106,-0.2420090287923813,0.12755918502807617,-0.1424635350704193,-0.34450259804725647,0.04075657203793526,0.1062282919883728,-0.011410016566514969,-0.09338501840829849,-0.037855710834264755,0.16635455191135406,0.013398116454482079,0.10026039928197861,-0.01576933264732361,0.22261451184749603,-0.14279906451702118,-0.20551134645938873],[-0.3679956793785095,0.04582628980278969,0.10221643000841141,0.13384491205215454,-0.05313568934798241,-0.06631471961736679,-0.06510212272405624,0.1391998827457428,-0.15642015635967255,0.08248639106750488,-0.03754787892103195,-0.051544222980737686,0.12584532797336578,0.12967298924922943,-0.03427893668413162,-0.25972890853881836,-0.012250896543264389,0.04344210401177406,-0.2679034173488617,-0.07181620597839355],[-0.26900339126586914,-0.2109462320804596,0.23311598598957062,0.06036654859781265,-0.07257939875125885,0.03899151086807251,0.429680734872818,-0.17267300188541412,-0.062237851321697235,-0.1436145007610321,-0.12939995527267456,-0.03355683758854866,0.16694426536560059,-0.09526212513446808,0.12179994583129883,-0.11862102895975113,0.2162390500307083,-0.17300334572792053,-0.13108617067337036,-0.08840332925319672],[-0.16831253468990326,0.2644149959087372,0.23910224437713623,0.18901589512825012,0.12960945069789886,-0.0913548544049263,0.16961942613124847,0.20273973047733307,0.18671132624149323,0.09607617557048798,0.5946917533874512,-0.030034387484192848,-0.02934342250227928,-0.12845174968242645,0.05907363072037697,0.031498756259679794,0.09945263713598251,0.3274422287940979,-0.05437001585960388,0.1366334855556488],[0.21418416500091553,0.011473910883069038,0.21174763143062592,-0.1826692670583725,-0.07067838311195374,-0.27370718121528625,0.07058816403150558,0.16382065415382385,0.15147526562213898,0.018257128074765205,0.07627277821302414,0.14812085032463074,0.4232366681098938,-0.02535076253116131,-0.19599545001983643,-0.11833901703357697,0.25774621963500977,0.11676465719938278,-0.19339525699615479,-0.023304758593440056],[-0.13144944608211517,-0.016252759844064713,0.030338594689965248,-0.06717994809150696,0.022143935784697533,0.04864206537604332,0.1982734203338623,0.09013970196247101,-0.1388661116361618,0.03672923892736435,-0.09584783017635345,0.01610545814037323,-0.06180522218346596,-0.05164593085646629,-0.1472453624010086,0.11768156290054321,-0.06556259095668793,-0.03147345781326294,-0.03611133620142937,0.30562394857406616],[-0.10260262340307236,0.32331618666648865,-0.21662655472755432,0.014337844215333462,0.25755685567855835,-0.10472684353590012,-0.037287212908267975,0.0479729063808918,-0.05076457932591438,0.0716015174984932,-0.18371251225471497,-0.3083489239215851,-0.1970849484205246,-0.05131063610315323,-0.11150284856557846,-0.19482208788394928,0.12272075563669205,-0.2933356463909149,0.011175277642905712,0.10001501441001892],[-0.046567402780056,-0.12466180324554443,-0.11590152233839035,-0.22899654507637024,-0.057167697697877884,0.22708922624588013,0.12138324975967407,0.1295059323310852,0.0673469677567482,0.04804321378469467,-0.03443207964301109,-0.23594951629638672,-0.02234957180917263,-0.07887128740549088,0.02903493493795395,0.008234412409365177,-0.1774130016565323,0.2902009189128876,-0.1647942066192627,-0.3208771347999573],[-0.5228205919265747,0.2247157245874405,0.4406532943248749,-0.16881586611270905,0.15976794064044952,0.1414439082145691,-0.08694880455732346,0.066875159740448,-0.01918276585638523,0.3442418575286865,0.13921955227851868,0.17477445304393768,-0.1891207993030548,-0.03658875823020935,0.042915455996990204,-0.17489945888519287,-0.20415931940078735,-0.062129270285367966,0.10551511496305466,-0.0670904666185379],[0.10841789841651917,0.22809280455112457,0.37827613949775696,0.19392603635787964,0.048151273280382156,0.4373778998851776,0.12773175537586212,-0.11029304563999176,0.08319445699453354,-0.08799974620342255,-0.043838776648044586,-0.055084966123104095,0.19445626437664032,0.05722368508577347,-0.07534249126911163,-0.29515573382377625,-0.017377294600009918,0.3621205985546112,-0.0031643013935536146,-0.041932787746191025],[-0.3981397747993469,0.1199655681848526,-0.03423333540558815,-0.34528398513793945,-0.20872972905635834,-0.25569629669189453,-0.13613709807395935,-0.06440674513578415,-0.01865808479487896,-0.14963272213935852,-0.0633084774017334,-0.23179283738136292,0.06501097232103348,0.031827036291360855,-0.1799265593290329,-0.09121120721101761,0.4318055808544159,-0.08573328703641891,0.11320704221725464,-0.3156649172306061],[-0.13308919966220856,0.09857035428285599,-0.05465056374669075,-0.4738488793373108,-0.006465519312769175,0.021628446877002716,-0.18074175715446472,0.04014134779572487,0.06858263164758682,0.08250462263822556,-0.007479775231331587,0.01353043969720602,-0.11409732699394226,-0.23038089275360107,0.04690692201256752,0.09602893888950348,0.004626584704965353,-0.03773471340537071,0.13743634521961212,-0.09220114350318909],[-0.00026994702056981623,0.21665258705615997,0.006758596282452345,-0.29445546865463257,-0.031688496470451355,-0.02242869883775711,-0.09384690225124359,0.15691553056240082,0.09264128655195236,0.015937000513076782,-0.09504804760217667,-0.08735652267932892,-0.04175436496734619,0.17387883365154266,-0.3103359639644623,-0.18121406435966492,0.07629261910915375,0.027825085446238518,0.21148088574409485,-0.0714290514588356],[0.2443276196718216,0.3173912763595581,0.2213245928287506,0.033507075160741806,-0.11038137972354889,-0.057259753346443176,0.09676391631364822,0.06278184056282043,0.06103378161787987,0.11866587400436401,0.3125588595867157,0.042500849813222885,-0.02940322458744049,0.05356219410896301,0.08869724720716476,0.1165585145354271,-0.38329392671585083,0.1219475120306015,-0.03842383623123169,-0.04108723998069763],[-0.05985475331544876,-0.3401641845703125,0.06315695494413376,-0.02357747219502926,-0.3191039562225342,-0.017880111932754517,0.04371948167681694,0.23752985894680023,-0.06517361849546432,-0.023166827857494354,-0.13509611785411835,-0.06582152098417282,0.12115637212991714,-0.08806260675191879,-0.005489852745085955,0.06618287414312363,0.02917473204433918,-0.09728618711233139,0.0559326633810997,0.025761961936950684],[0.0601353757083416,0.2854093015193939,0.0087424973025918,0.06413534283638,0.17226754128932953,0.13051804900169373,-0.15584206581115723,0.23626598715782166,-0.05067357048392296,0.1001570075750351,-0.01970754750072956,-0.047704923897981644,0.02689007669687271,-0.11176503449678421,0.07390525192022324,0.14479418098926544,0.1597263067960739,0.0762956365942955,-0.09305059164762497,0.25717487931251526],[0.3618239164352417,0.2178393453359604,-0.17371389269828796,-0.011197784915566444,0.14460007846355438,-0.10651914030313492,-0.09467984735965729,-0.05467846244573593,-0.04927613586187363,-0.14612846076488495,0.03947163745760918,0.10952189564704895,0.017721137031912804,0.11692120134830475,0.22613877058029175,-0.048696380108594894,-0.005227035842835903,-0.06957675516605377,0.023208221420645714,-0.18583671748638153],[-0.26974862813949585,-0.1487271636724472,0.11310268938541412,-0.16832304000854492,-0.19543695449829102,-0.1385146826505661,-0.024579208344221115,0.049357496201992035,-0.1567050814628601,0.08511240780353546,0.07101734727621078,-0.049057621508836746,-0.012659481726586819,-0.22230637073516846,-0.08341828733682632,-0.4373011291027069,-0.018179288133978844,-0.11205710470676422,-0.19130128622055054,-0.1763601005077362],[0.015707166865468025,0.028817929327487946,-0.20137837529182434,0.13667747378349304,0.04505527392029762,-0.005613203160464764,-0.20857319235801697,0.0703272745013237,0.22342081367969513,-0.090084008872509,0.06644769012928009,0.2666829228401184,-0.01462138257920742,0.058395322412252426,0.045231688767671585,0.06713266670703888,-0.018319102004170418,0.05245387554168701,-0.3445010781288147,0.0051544420421123505],[-0.03841386362910271,-0.22898517549037933,-0.4789019525051117,-0.21820783615112305,-0.11511467397212982,-0.20296534895896912,-0.20135699212551117,0.05746044963598251,0.045817017555236816,0.0015060959849506617,0.1662093997001648,0.10297144949436188,0.14121390879154205,0.21735630929470062,0.06327663362026215,0.0604887418448925,-0.07708428055047989,-0.04241393506526947,-0.02315479889512062,-0.238439679145813],[0.14555078744888306,-0.047979775816202164,0.09259680658578873,-0.05092058330774307,0.18409070372581482,0.2091366946697235,-0.2528502345085144,0.039472561329603195,-0.0723385289311409,-0.1343076378107071,-0.0432511642575264,0.19235360622406006,0.08995185792446136,-0.06466800719499588,0.12656967341899872,0.12644362449645996,0.08554086089134216,0.07488447427749634,-0.07934901118278503,-0.16599735617637634],[0.2627318799495697,-0.2512935996055603,-0.046743184328079224,-0.10480848699808121,0.02120155468583107,0.2469850778579712,0.10939273238182068,0.16951310634613037,-0.13959228992462158,-0.14381468296051025,-0.033960938453674316,-0.22517156600952148,-0.024447772651910782,-0.26907652616500854,-0.1893163025379181,-0.0028680942486971617,-0.05531938374042511,0.13641314208507538,-0.2740516662597656,0.06172773987054825],[-0.013710922561585903,-0.013197246938943863,-0.24011050164699554,0.2699835002422333,-0.1928316354751587,0.06891965121030807,0.28803151845932007,-0.1371856927871704,-0.13901367783546448,0.20044833421707153,0.3660477101802826,-0.07528800517320633,-0.0856194719672203,-0.030409254133701324,-0.08880410343408585,0.2668953835964203,-0.03905943036079407,0.04156822711229324,-0.05537106841802597,-0.06930907070636749],[-0.20984280109405518,-0.12710005044937134,0.29033803939819336,-0.21892918646335602,-0.16620059311389923,-0.1007479578256607,0.19022239744663239,5.068121026852168e-05,-0.18932770192623138,0.06725630164146423,0.3287939727306366,-0.13724952936172485,-0.09323421865701675,-0.14759580790996552,0.24533483386039734,-0.16522537171840668,-0.2742723822593689,-0.17325329780578613,-0.017560290172696114,-0.2631612718105316],[-0.26585614681243896,-0.2502230703830719,-0.48292091488838196,-0.009931392967700958,0.050844475626945496,-0.12327402085065842,-0.4248729944229126,-0.02766251191496849,-0.08668041974306107,-0.14209623634815216,-0.13312925398349762,0.17826427519321442,0.023119086399674416,-0.019118532538414,-0.005803390871733427,0.1047959178686142,-0.10031010955572128,-0.009945056401193142,0.002777610206976533,0.11261337995529175],[0.26500043272972107,0.00045185693306848407,0.02547331713140011,-0.011358363553881645,-0.33194226026535034,-0.027644777670502663,-0.1947253793478012,-0.0988849624991417,-0.041927456855773926,-0.02613397128880024,-0.17602784931659698,0.02503487654030323,0.06385181844234467,-0.04102317988872528,-0.12842567265033722,-0.07888956367969513,-0.3108317255973816,0.46630480885505676,0.08639384061098099,-0.052724987268447876],[-0.2788963317871094,0.005518075078725815,0.04587487503886223,-0.09894932806491852,-0.2851778268814087,-0.19345049560070038,0.02063775807619095,-0.14142820239067078,0.11550641804933548,0.03610524162650108,0.025930091738700867,0.1324874609708786,0.12674430012702942,-0.05182705819606781,-0.03291727975010872,-0.05615970492362976,-0.23674464225769043,-0.12839193642139435,0.04101099818944931,0.36685213446617126],[-0.18264742195606232,-0.07706142216920853,0.2469939887523651,0.36784157156944275,0.3094616234302521,0.01975536160171032,-0.10300064086914062,-0.12530964612960815,0.11384271085262299,0.11042386293411255,-0.3074455261230469,0.028539981693029404,0.018415750935673714,0.09763748198747635,-0.12399573624134064,0.013125929981470108,-0.042484939098358154,-0.056699253618717194,0.18133316934108734,0.11762034147977829],[-0.1057203933596611,0.2540147304534912,-0.032791756093502045,-0.1254909485578537,-0.15319383144378662,0.1493602693080902,-0.007231215015053749,-0.005027661565691233,0.17168033123016357,0.3030661940574646,0.14048026502132416,-0.2049897164106369,0.12441281974315643,-0.024450914934277534,0.11242309957742691,-0.24787920713424683,-0.11192679405212402,0.11892679333686829,0.17414617538452148,-0.24406471848487854],[0.0633828416466713,0.46285107731819153,0.3698887228965759,-0.067591093480587,-0.003699874971061945,0.2154185175895691,-0.02452046237885952,0.09060446172952652,0.07442480325698853,-0.265000581741333,0.14394518733024597,-0.09380806982517242,0.1479681432247162,0.06467705965042114,0.014922449365258217,0.028945395722985268,0.2886649966239929,-0.1376640498638153,0.06292933970689774,-0.15048928558826447],[0.30072280764579773,-0.026047371327877045,-0.11872532963752747,0.07266199588775635,0.08171140402555466,0.23348282277584076,0.12484940886497498,-0.04604857414960861,-0.26139402389526367,0.06846937537193298,0.11509730666875839,0.11325469613075256,0.13903000950813293,-0.06421474367380142,0.3148934841156006,0.26890063285827637,-0.30513328313827515,-0.02243766374886036,0.28427037596702576,0.08143468201160431],[0.02063298225402832,0.03697625547647476,0.031633879989385605,0.3887220323085785,-0.10969610512256622,0.09438695013523102,0.1712876558303833,0.2661445736885071,0.19551710784435272,0.029081624001264572,-0.2502010762691498,-0.23622499406337738,-0.06010536849498749,0.009958685375750065,0.20318558812141418,-0.011065565049648285,-0.10646223276853561,0.17240163683891296,-0.10187716782093048,-0.07399703562259674],[-0.08696123212575912,0.033970944583415985,0.10656856745481491,0.30317071080207825,0.008080597966909409,0.126169353723526,0.24858210980892181,0.14974701404571533,0.15943437814712524,0.04140879958868027,0.3491847515106201,-0.06316410005092621,-0.038309499621391296,0.07791824638843536,-0.19895987212657928,0.01316637359559536,0.02894558571279049,0.1250011920928955,0.11085350066423416,0.06008020415902138],[-0.1791452020406723,0.12666481733322144,-0.0156816728413105,-0.04717586189508438,-0.07216590642929077,-0.04755057021975517,-0.17054349184036255,-0.1320517212152481,0.09626707434654236,0.09843365103006363,0.2196180820465088,-0.06733022630214691,0.00404727179557085,0.11533144861459732,-0.15104328095912933,0.07250846922397614,-0.0544162392616272,-0.0391068309545517,0.06964443624019623,0.12354739010334015],[-0.05099465698003769,0.06760601699352264,0.35619765520095825,0.0860891342163086,0.40322837233543396,0.16211408376693726,0.3629218637943268,-0.05317968875169754,-0.08148755878210068,-0.030688773840665817,-0.030030369758605957,0.05743725597858429,-0.025683632120490074,0.025628797709941864,0.2102767378091812,0.006839824374765158,0.09786313772201538,0.18213553726673126,0.10449499636888504,0.10979273170232773],[-0.05220160633325577,-0.37637990713119507,0.22980011999607086,0.05773552134633064,-0.012429054826498032,0.10318417847156525,-0.13425052165985107,-0.06565560400485992,0.16930533945560455,-0.19715829193592072,-0.2361224740743637,0.12197518348693848,0.045458823442459106,-0.11834847927093506,-0.020443754270672798,0.01518421433866024,-0.040367599576711655,0.04662494733929634,-0.058085255324840546,0.08276872336864471],[-0.27644792199134827,0.4085529148578644,-0.17335346341133118,0.1765904277563095,0.32388004660606384,-0.09029708057641983,-0.029732171446084976,-0.047249168157577515,-0.18108373880386353,-0.052180103957653046,0.11047973483800888,-0.04287342354655266,0.1465505063533783,0.07710996270179749,-0.17023563385009766,0.06024634838104248,0.06296851485967636,-0.06022651121020317,-0.2342175990343094,-0.19357648491859436],[-0.0050482782535254955,0.023849377408623695,0.15641508996486664,0.0666445940732956,0.28065261244773865,0.11190841346979141,0.2074413001537323,0.013115516863763332,0.09414498507976532,-0.059857890009880066,0.12972289323806763,-0.2623170018196106,-0.0903116837143898,-0.2540096938610077,0.013338975608348846,-0.16395893692970276,-0.17859865725040436,-0.1376342624425888,0.04112407565116882,0.13430006802082062],[0.09995618462562561,-0.12069252878427505,-0.07740017771720886,0.2951025068759918,-0.15167072415351868,-0.05878137797117233,0.00018331248429603875,-0.1834576427936554,-0.006726355757564306,0.02429274097084999,-0.11946146935224533,-0.028919756412506104,0.05877217277884483,-0.3928644359111786,0.024668551981449127,0.009876132942736149,-0.12404593080282211,-0.10899050533771515,0.11756540089845657,0.04275868088006973],[0.09662370383739471,0.3936174511909485,0.040588147938251495,-0.13192033767700195,-0.056282732635736465,-0.22506406903266907,0.17467330396175385,0.1429869681596756,0.08647961914539337,0.01920626498758793,-0.004462691023945808,-0.20501813292503357,0.0686899796128273,0.24785029888153076,0.1380409449338913,-0.20744650065898895,0.3064877390861511,0.05236710235476494,0.011656691320240498,-0.2621147632598877],[0.28865933418273926,-0.23281531035900116,-0.08819248527288437,-0.13481152057647705,0.07254792749881744,-0.05586377903819084,-0.20808683335781097,-0.2163936048746109,-0.08974301069974899,0.2935870885848999,-0.15009847283363342,-0.003533340757712722,-0.07963890582323074,0.04241284728050232,0.15950655937194824,-0.14853638410568237,-0.09647247195243835,-0.07025022059679031,0.003814686555415392,0.09344014525413513],[-0.13300079107284546,0.18385839462280273,-0.05145766958594322,-0.1611422449350357,-0.16856804490089417,-0.1419335901737213,-0.1293051391839981,0.1946485936641693,0.01910441182553768,-0.05766894668340683,0.3252409100532532,0.06655379384756088,-0.08078567683696747,-0.3161701261997223,-0.14845480024814606,0.1272706389427185,0.16397792100906372,-0.15404605865478516,0.05669168755412102,0.0597199983894825],[0.2395261973142624,0.3899579644203186,0.1655053347349167,0.35759755969047546,0.5032070279121399,0.24759763479232788,0.05737057328224182,0.11383994668722153,0.08382409065961838,-0.1624268889427185,0.11379553377628326,-0.06650769710540771,-0.10321696102619171,-0.01977662183344364,-0.055627916008234024,-0.051928941160440445,-0.2227584570646286,0.12183136492967606,-0.024620426818728447,-0.21831467747688293],[0.06935121864080429,-0.02918832376599312,0.24190598726272583,-0.006364499684423208,-0.04565822705626488,0.12352516502141953,0.033116426318883896,0.08652035146951675,-0.03683037683367729,-0.01917198672890663,0.13833408057689667,0.018198944628238678,0.010034823790192604,0.029830390587449074,-0.009168116375803947,0.09486686438322067,-0.17041753232479095,-0.13661909103393555,-0.27074313163757324,-0.18941517174243927],[0.29198312759399414,0.005525000859051943,0.05382116511464119,0.002565973438322544,0.11784657835960388,0.05422791466116905,-0.1806604415178299,0.1326952576637268,-0.08560509234666824,0.12307494878768921,0.21966101229190826,0.1347741186618805,0.14993344247341156,-0.08977252244949341,-0.21520330011844635,-0.038424842059612274,0.18577608466148376,-0.14441531896591187,-0.15768954157829285,0.06953401118516922],[0.14223293960094452,-0.01912747137248516,0.06084449961781502,-0.018719524145126343,0.04636983200907707,0.11833389103412628,-0.08410391211509705,0.31963080167770386,0.13069741427898407,-0.022258277982473373,-0.07002155482769012,0.011829233728349209,-0.2149468958377838,-0.17836764454841614,0.22816263139247894,-0.006874186918139458,0.1822478175163269,-0.04233627766370773,0.07198600471019745,0.030700063332915306],[-0.030230380594730377,0.04107866808772087,0.421615332365036,0.3188176155090332,0.1608278602361679,0.2682795822620392,0.13964897394180298,-0.00882047601044178,-0.13287922739982605,-0.009829933755099773,-0.03374520316720009,0.24049508571624756,0.011152100749313831,0.08637674897909164,0.019324777647852898,0.17902052402496338,-0.09380625933408737,0.058701541274785995,0.21369780600070953,-0.2440667450428009],[-0.08166661858558655,-0.0024343091063201427,-0.2102750986814499,-0.040765270590782166,-0.38805440068244934,0.07603320479393005,0.09965543448925018,0.07562578469514847,-0.2807678282260895,-0.001193222007714212,0.04513959586620331,0.008117708377540112,0.020371031016111374,0.20879040658473969,-0.016858607530593872,-0.22078171372413635,-0.2616240084171295,0.04181096702814102,0.16937528550624847,0.010037525556981564],[-0.1329811066389084,0.10775762796401978,-0.007765625603497028,-0.2784716784954071,-0.15521371364593506,-0.016987405717372894,0.03887603431940079,0.1836392730474472,0.11280275881290436,0.08470439165830612,0.224856898188591,0.029132800176739693,-0.08869405090808868,-0.11252105236053467,-0.1947471797466278,0.09841998666524887,-0.006934117525815964,-0.09798241406679153,-0.054551541805267334,-0.0688183382153511],[0.1501983106136322,0.6221883296966553,0.12459485232830048,-0.0074606663547456264,-0.09245054423809052,0.038109518587589264,0.2167695313692093,0.5850616693496704,0.07093225419521332,0.11304883658885956,-0.024426966905593872,-0.22160552442073822,0.052074071019887924,0.05357885733246803,-0.019384775310754776,-0.02518659271299839,0.3799543082714081,0.20277243852615356,0.2219809591770172,0.19058449566364288],[0.10679179430007935,0.04932635650038719,-0.09254629164934158,-0.1184602826833725,0.0053920443169772625,-0.09279563277959824,-0.1727522611618042,-0.08054663240909576,0.06605516374111176,0.051971953362226486,-0.04272347316145897,-0.07019863277673721,-0.13413450121879578,-0.12272057682275772,0.15766218304634094,0.014617526903748512,-0.16148264706134796,-0.20455855131149292,0.18998099863529205,0.23216117918491364],[0.08169404417276382,0.14673717319965363,0.105336032807827,0.006052542477846146,-0.1835574060678482,-0.37748584151268005,-0.0036411259789019823,-0.1461491882801056,-0.12874741852283478,-0.3165159225463867,0.13851840794086456,-0.09066827595233917,-0.15725745260715485,-0.11090166121721268,-0.2549945116043091,-0.23486675322055817,-0.04913688823580742,-0.07883263379335403,0.0674222782254219,0.01158489566296339],[-0.25466448068618774,-0.09650003910064697,-0.15991276502609253,-0.3905746340751648,-0.05892012268304825,-0.018523717299103737,0.10204508155584335,0.03591694310307503,-0.35773542523384094,-0.07169492542743683,-0.044599391520023346,0.07695300132036209,0.0852317363023758,-0.0774763748049736,0.15852771699428558,-0.0861092284321785,-0.05601741373538971,0.04373975470662117,-0.05026949942111969,0.0964256078004837],[-0.06895820796489716,-0.20877963304519653,0.04970165342092514,-0.10590081661939621,-0.1742038130760193,-0.11967111378908157,-0.33600860834121704,-0.15818344056606293,0.00981686357408762,-0.16771996021270752,0.09667520970106125,0.25008442997932434,0.04958151653409004,-0.18976198136806488,-0.38591766357421875,0.06538410484790802,0.29000672698020935,-0.12257730215787888,-0.19523929059505463,0.1333354264497757],[0.17856577038764954,-0.17353622615337372,0.1534460335969925,0.2982168197631836,0.008998709730803967,0.2437593638896942,-0.1940738558769226,0.19273950159549713,0.06585408002138138,-0.06370943784713745,-0.16725438833236694,-0.06479470431804657,0.003019788535311818,0.17437052726745605,0.0946577712893486,-0.04458681866526604,0.2823076546192169,-0.06893166899681091,-0.22323621809482574,0.1725802719593048],[0.19765646755695343,-0.2021462768316269,-0.17875811457633972,-0.2237684428691864,-0.3721175491809845,-0.2314578890800476,-0.04505619406700134,-0.11261013895273209,-0.023714909330010414,0.12924374639987946,0.07710549235343933,0.2288048267364502,0.019023437052965164,0.146562859416008,-0.21194827556610107,-0.12654879689216614,-0.2798421382904053,0.35038018226623535,0.0573137141764164,0.028452439233660698],[0.22052709758281708,0.4060930907726288,0.22760330140590668,0.08597561717033386,0.210740864276886,0.18570880591869354,0.1341993808746338,-0.0062338924035429955,0.12206505239009857,0.16359888017177582,-0.21034428477287292,0.10847573727369308,-0.20155270397663116,-0.20917603373527527,-0.08765481412410736,0.2168966382741928,0.029221350327134132,0.32392239570617676,-0.033922143280506134,0.1741379052400589],[0.10245199501514435,0.01287977583706379,0.3076419234275818,0.06243201345205307,0.26316821575164795,-0.026433395221829414,-0.18220730125904083,-0.10625524073839188,-0.16323597729206085,0.005528710316866636,-0.027750099077820778,-0.1613292396068573,0.1734921932220459,-0.13624359667301178,0.005408107303082943,-0.014406501315534115,-0.01919594779610634,0.13020992279052734,0.16046911478042603,-0.017387261614203453],[0.3338521122932434,-0.043239232152700424,-0.023977339267730713,0.3317905068397522,0.04575221240520477,0.05610145255923271,0.3032267987728119,0.11619438976049423,-0.10758915543556213,0.0633668303489685,0.041752465069293976,0.06145869195461273,-0.2978636622428894,-0.30920350551605225,0.004052347037941217,-0.12013208121061325,0.06459815055131912,-0.08972299098968506,-0.15277907252311707,0.1227126270532608],[-0.09441664814949036,0.12894944846630096,0.08571184426546097,-0.03779642656445503,0.05928698927164078,0.07507501542568207,-0.2505776584148407,-0.0028887379448860884,0.02551603876054287,0.15757565200328827,0.05573246255517006,-0.10789507627487183,-0.07752170413732529,-0.10577710717916489,-0.18384158611297607,-0.13487565517425537,0.0062411813996732235,0.03142929822206497,0.2548903822898865,0.03245995566248894],[-0.04005097970366478,-0.12827984988689423,-0.11836594343185425,-0.14695300161838531,0.06553110480308533,-0.17664168775081635,0.10417383164167404,0.06628718227148056,0.2077692747116089,-0.12072967737913132,0.13461491465568542,0.22948727011680603,-0.37250709533691406,0.01767456717789173,0.17183682322502136,0.14255684614181519,0.2532804608345032,0.013050926849246025,0.1983904242515564,0.07094672322273254],[-0.2127538025379181,-0.2543032467365265,-0.05389414727687836,0.187834694981575,-0.03786737099289894,-0.05661247298121452,-0.1515893042087555,0.09300835430622101,0.020937593653798103,-0.1452251374721527,0.04844782128930092,-0.12706536054611206,0.22619503736495972,-0.0770983025431633,0.3232795298099518,-0.3033408224582672,-0.07290719449520111,0.2207021266222,0.023671742528676987,0.2440282106399536],[-0.21434445679187775,-0.11293350905179977,-0.11601225286722183,0.05859388783574104,0.13444246351718903,0.09005860984325409,-0.098556749522686,-0.03677667677402496,-0.14634127914905548,-0.14562338590621948,0.025286130607128143,-0.12205924093723297,-0.188774973154068,0.1655028611421585,-0.010372728109359741,0.04938774183392525,0.31296467781066895,0.010838288813829422,-0.2930442988872528,-0.05669283866882324],[-0.20369262993335724,0.06008470803499222,-0.34421506524086,0.05526205897331238,-0.01940098963677883,-0.04972992092370987,0.3356688320636749,0.4435388743877411,0.03575863689184189,-0.15791283547878265,-0.006144667509943247,0.09627093374729156,0.13993985950946808,-0.054536402225494385,-0.11568913608789444,-0.05483162775635719,0.002969954162836075,-0.07794985175132751,0.20579877495765686,0.14766691625118256]],"bias":[-0.09498073160648346,-0.04735275357961655,-0.0032083499245345592,-0.053229302167892456,0.015870478004217148,-0.07762477546930313,0.07227731496095657,0.009700659662485123,0.038608014583587646,0.01601073518395424,-0.012645340524613857,0.009812034666538239,0.03027581423521042,-0.02176760509610176,0.09364232420921326,0.016207510605454445,-0.05221911519765854,-0.038156501948833466,0.028248809278011322,-0.04885252192616463,-0.07822953909635544,0.013346265070140362,-0.038375139236450195,-0.020315075293183327,-0.007635486777871847,0.005471549462527037,0.055349964648485184,0.041211649775505066,-0.03523728623986244,0.01545686088502407,-0.04193270578980446,0.05482010170817375,-0.09192409366369247,-0.011217102408409119,0.09288816154003143,-0.007112861145287752,-0.006318116560578346,-0.0011986169265583158,0.013826601207256317,0.03117014281451702,-0.029762139543890953,-0.03810868784785271,-0.07178855687379837,-0.032879624515771866,-0.04907579347491264,-0.013604169711470604,0.03827870264649391,-0.050566840916872025,-0.05627066269516945,0.07817122340202332,-0.04339299350976944,0.01544624287635088,0.049141887575387955,-0.04719755798578262,-0.009311850182712078,0.05129047855734825,0.00479527423158288,-0.05660233646631241,0.0618615448474884,0.03971082717180252,-0.021190296858549118,0.03929527476429939,0.005348952487111092,0.040330663323402405]},"layer_1":{"weight":[[0.10004740953445435,-0.12241683155298233,0.04058174416422844,0.10059960186481476,0.2418457716703415,0.10548298060894012,-0.15129724144935608,-0.0022017033770680428,0.18972063064575195,-0.012110970914363861,-0.18684561550617218,-0.10054022818803787,0.11801432818174362,-0.06798739731311798,-0.009388625621795654,0.24124138057231903,-0.07872741669416428,0.006176671013236046,-0.1286287158727646,-0.20201638340950012,-0.029607171192765236,-0.2298208624124527,-0.2015528827905655,0.17141230404376984,0.1387484222650528,-0.2739242911338806,0.031123816967010498,0.02058647945523262,0.0729081854224205,-0.15348590910434723,0.04628130793571472,-0.06041455641388893,0.043744832277297974,-0.08923225849866867,0.16141311824321747,0.030917182564735413,-0.1904994249343872,-0.07277854532003403,0.0868196114897728,-0.1706332415342331,-0.05227655917406082,-0.04999023675918579,0.034919124096632004,-0.19531047344207764,0.1659579575061798,0.06559610366821289,0.046463895589113235,-0.22694902122020721,0.03923525661230087,-0.14758537709712982,0.0413297675549984,0.007112815510481596,0.018635505810379982,0.16429562866687775,-0.0958862453699112,-0.14726480841636658,-0.17611561715602875,0.050315503031015396,-0.0441691018640995,-0.10824193805456161,0.05668634921312332,0.14256013929843903,-0.01426158007234335,0.09888288378715515],[-0.07087408006191254,0.12293316423892975,-0.05176197737455368,-0.0740833505988121,-0.0051240092143416405,-0.1918344497680664,0.046153776347637177,0.05732256919145584,-0.12434935569763184,0.03414327651262283,0.0037052598781883717,-0.02909751422703266,-0.0895882174372673,0.3390304446220398,-0.2811088562011719,0.2210981249809265,-0.23380456864833832,0.11490901559591293,0.1817007213830948,-0.021581551060080528,-0.024049723520874977,0.04597962647676468,0.04561088606715202,0.16844753921031952,-0.10016573220491409,-0.20269982516765594,0.11074461042881012,-0.3450256884098053,0.003483008360490203,0.06035814434289932,-0.05691669136285782,0.19828015565872192,-0.15938541293144226,0.28492119908332825,0.11728638410568237,0.08170589059591293,0.07947743684053421,-0.1337657868862152,-0.1592492163181305,-0.09881062060594559,0.14521385729312897,0.23664714395999908,-0.00883298646658659,0.07741306722164154,0.23750580847263336,-0.08441559225320816,-0.06040247157216072,-0.035244859755039215,0.06050507351756096,0.15076203644275665,-0.03329784795641899,-0.014366000890731812,-0.07087896019220352,0.3004547953605652,-0.014048848301172256,0.09062863886356354,0.12765121459960938,-0.11409841477870941,0.0882299467921257,0.09505137801170349,0.2867579758167267,0.06467030942440033,0.014588719233870506,0.12416834384202957],[-0.161788672208786,-0.025066150352358818,-0.1347591131925583,-0.1419687122106552,0.11485643684864044,0.12519729137420654,0.003699473338201642,0.024941816926002502,-0.1292141228914261,0.10997872054576874,0.08091770857572556,-0.10951465368270874,0.006803574040532112,0.059925880283117294,0.048654329031705856,-0.09569492936134338,-0.10254362970590591,0.024240531027317047,0.14720237255096436,-0.15595485270023346,0.06271781772375107,0.007955684326589108,-0.08664599806070328,0.024112476035952568,-0.1935817301273346,0.12754322588443756,0.160578191280365,-0.10376207530498505,0.07411466538906097,-0.016015291213989258,0.13984814286231995,0.07123816013336182,-0.08827738463878632,-0.11324257403612137,-0.1170111671090126,-0.033756647258996964,-0.054384902119636536,-0.028166277334094048,0.12333505600690842,0.053103506565093994,0.15591876208782196,-0.10226242244243622,0.1565445363521576,-0.14829789102077484,0.14899170398712158,0.08265480399131775,-0.07807427644729614,-0.025925343856215477,-0.15766556560993195,-0.020261568948626518,0.15650002658367157,0.0652657002210617,0.08032341301441193,0.013876899145543575,-0.08587490022182465,0.01775308884680271,-0.007516148500144482,-0.07346420735120773,-0.020390760153532028,-0.03652527555823326,0.08700524270534515,-0.03353658318519592,-0.033579614013433456,-0.053095344454050064],[-0.09435361623764038,-0.13071514666080475,0.07164502888917923,-0.2154437005519867,0.017296625301241875,0.07403337955474854,0.1137780249118805,0.03190447762608528,0.09094342589378357,0.08642812073230743,-0.09587298333644867,-0.05478904768824577,-0.05131816118955612,0.08257485926151276,0.1330520659685135,-0.09387728571891785,0.04566245526075363,0.2830217480659485,0.1977601945400238,-0.0977189913392067,-0.004402176011353731,0.07053535431623459,0.033827610313892365,-0.08116898685693741,-0.07225458323955536,-0.0915256217122078,0.011836737394332886,0.3479205071926117,0.12848810851573944,0.0478387214243412,0.07444202899932861,0.009705054573714733,0.04048589989542961,-0.1735830456018448,-0.01147462334483862,0.0863504707813263,-0.16073593497276306,0.043177515268325806,0.0032531586475670338,0.04764848202466965,-0.034526895731687546,-0.17109155654907227,0.18556295335292816,-0.054200414568185806,-0.3402932584285736,-0.2159280776977539,-0.07149849086999893,-0.26899173855781555,0.17364339530467987,0.036275893449783325,0.02763083390891552,0.02665652148425579,-0.2136007696390152,-0.0669587254524231,-0.010357012040913105,-0.050769660621881485,0.07828536629676819,-0.03748304024338722,-0.011706724762916565,0.2543223798274994,-0.014271472580730915,-0.045596253126859665,0.09641554951667786,-0.13265372812747955],[-0.027928777039051056,-0.05714491754770279,-0.2276373952627182,-0.03800854831933975,0.1781117022037506,-0.06099782884120941,-0.09991016238927841,0.27897268533706665,0.009475698694586754,0.025910262018442154,-0.11527915298938751,0.0019133395981043577,-0.013888182118535042,0.12263821810483932,0.05674722418189049,0.17141208052635193,-0.18066494166851044,0.20321211218833923,0.006829684600234032,0.03275812044739723,0.18735690414905548,-0.017985934391617775,-0.1507839560508728,0.13337093591690063,0.04562503844499588,0.21894526481628418,0.07134094089269638,-0.13687767088413239,0.07056955993175507,-0.1899505853652954,0.07776112109422684,-0.04355486482381821,0.06215805560350418,0.1513018161058426,0.12867195904254913,-0.0035089016892015934,-0.17544612288475037,-0.0824897512793541,0.05015445500612259,0.02173454686999321,-0.29734766483306885,0.2103104442358017,-0.003821783233433962,-0.12091823667287827,-0.06775979697704315,0.1654214859008789,-0.191006600856781,0.03440669924020767,-0.13383814692497253,-0.37006691098213196,0.11728488653898239,0.16174092888832092,-0.020832132548093796,0.14238381385803223,0.24649466574192047,0.012195817194879055,0.14839306473731995,-0.3064318895339966,-0.12930893898010254,-0.15343213081359863,-0.25164300203323364,0.2112494260072708,-0.20847348868846893,0.12189504504203796],[-0.20629405975341797,0.10611317306756973,-0.025086142122745514,-0.2248215675354004,-0.15175694227218628,-0.01480620913207531,-0.038455624133348465,-0.07966570556163788,-0.16067206859588623,0.3060690462589264,0.02757706306874752,-0.05605078861117363,0.006180571857839823,-0.013593834824860096,0.17784398794174194,-0.10553070157766342,0.2421116977930069,0.19497285783290863,-0.057140983641147614,-0.1920880526304245,-0.06084346026182175,0.19309626519680023,-0.005356751848012209,-0.016936348751187325,0.11854894459247589,0.1418447345495224,0.10753341764211655,-0.16996051371097565,0.02859457954764366,0.07453422993421555,-0.2076631635427475,-0.32590559124946594,-0.012172309681773186,-0.05787837132811546,0.1859176605939865,0.2106068730354309,-0.07854586839675903,0.010810097679495811,0.068979911506176,0.03574489802122116,-0.2019222378730774,-0.03529289364814758,-0.17075230181217194,0.13219985365867615,-0.05441737547516823,-0.10765090584754944,0.08149722963571548,0.23726056516170502,-0.0006261948146857321,0.1286259889602661,0.15967939794063568,-0.011984530836343765,0.1559142917394638,0.03720085322856903,0.08783862739801407,0.02595858834683895,-0.012601942755281925,0.022711023688316345,-0.05832197889685631,-0.18697068095207214,0.014574647881090641,0.037243470549583435,0.16905689239501953,0.1359131634235382],[-0.24384909868240356,-0.01898687519133091,0.029500482603907585,-0.1565588265657425,-0.15341190993785858,0.27940794825553894,0.10292595624923706,0.2759439945220947,-0.06915616989135742,0.042952798306941986,0.01021022442728281,-0.0281487125903368,-0.06828266382217407,0.004099235404282808,-0.09318341314792633,0.04693553224205971,-0.0034526123199611902,0.23888620734214783,0.12180915474891663,0.23306342959403992,0.05560282990336418,0.09529656171798706,-0.08946975320577621,-0.029665369540452957,0.10809949785470963,-0.04623277112841606,-0.1619328260421753,-0.11388511210680008,-0.1907542496919632,0.09514204412698746,-0.041638195514678955,0.003636567620560527,0.19217562675476074,-0.09028145670890808,-0.07925533503293991,-0.0304950512945652,-0.05223305523395538,0.040506768971681595,-0.011828194372355938,-0.027994954958558083,0.042512595653533936,-0.20421241223812103,0.05483085289597511,0.07459133118391037,-0.04185568541288376,0.13449755311012268,-0.11342881619930267,-0.052161142230033875,0.1963871717453003,-0.12206722795963287,0.08638707548379898,-0.1135542243719101,-0.01710943505167961,-0.005003577098250389,-0.14699044823646545,-0.02803744748234749,-0.127278670668602,-0.0466700904071331,-0.025285271927714348,-0.021461207419633865,0.06008414179086685,-0.0035107526928186417,-0.07763437926769257,0.06010175496339798],[0.08871246874332428,0.03279811888933182,0.0032504061236977577,0.0031333768274635077,0.1635729968547821,-0.0769425556063652,0.23770208656787872,0.029386160895228386,0.09946703165769577,0.1601104736328125,-0.12603075802326202,0.09663697332143784,0.1569785624742508,0.10830119252204895,-0.010519437491893768,0.19602911174297333,-0.4160870611667633,-0.09145091474056244,0.024309780448675156,-0.0003392965882085264,-0.2453615963459015,0.03561247140169144,-0.14474867284297943,-0.062884621322155,-0.06111868470907211,-0.031112661585211754,0.16450026631355286,0.21262787282466888,-0.007372741587460041,0.10438216477632523,-0.16178444027900696,0.03671870008111,-0.08043605089187622,0.045259300619363785,-0.0631428062915802,-0.15478409826755524,0.20969858765602112,-0.15989531576633453,-0.20369844138622284,0.08614341914653778,0.23255662620067596,-0.07244373112916946,0.20335663855075836,0.10329262167215347,0.06123712658882141,-0.1279071569442749,0.1500045657157898,-0.17785672843456268,-0.2698654532432556,-0.0011493308702483773,0.11487168073654175,-0.1699674129486084,-0.02065417729318142,-0.16743166744709015,0.06849472224712372,-0.10389156639575958,-0.044622693210840225,-0.09373592585325241,0.07900243252515793,0.013308881781995296,-0.09777399897575378,-0.19708585739135742,0.0074736312963068485,0.12594948709011078],[0.02616725116968155,0.010085390880703926,-0.07108137756586075,-0.13287673890590668,-0.07754936069250107,0.08576139807701111,-0.2091863453388214,-0.07595798373222351,-0.07453625649213791,0.13641045987606049,0.09927648305892944,-0.07194896042346954,-0.220770463347435,0.05390192195773125,0.06014476343989372,0.11645564436912537,0.07109278440475464,-0.07992954552173615,-0.27623727917671204,-0.06813365966081619,0.27726563811302185,0.06245017796754837,-0.017363805323839188,-0.19297325611114502,-0.13785074651241302,-0.014618467539548874,0.1882336437702179,0.09006460756063461,0.0493684858083725,0.062246598303318024,0.1070488840341568,0.06616149842739105,0.16599658131599426,0.06723477691411972,0.018737822771072388,0.002233278937637806,-0.02770122140645981,0.13461259007453918,0.13480167090892792,-0.0871436819434166,-0.06426844745874405,-0.12275386601686478,0.13190482556819916,0.09199588745832443,0.09697228670120239,-0.05551290884613991,0.006616089027374983,0.2740280032157898,0.06471193581819534,0.016312818974256516,0.29529520869255066,-0.1738327145576477,-0.18432946503162384,0.22464756667613983,-0.16307950019836426,0.09863725304603577,-0.11186236888170242,0.023372236639261246,-0.07389690726995468,-0.1747727394104004,-0.0362267941236496,0.0629592165350914,0.06529632955789566,-0.03706898167729378],[0.07293446362018585,-0.16697482764720917,0.046659599989652634,-0.23216940462589264,0.0318472720682621,-0.028299950063228607,-0.04186957702040672,0.06309104710817337,0.16659624874591827,0.16918276250362396,-0.04672901704907417,0.08928866684436798,0.0921773761510849,0.2107778787612915,0.08782864362001419,0.04653170704841614,-0.07726326584815979,-0.19265472888946533,-0.12237969040870667,-0.1211644783616066,0.045160893350839615,-0.022455353289842606,-0.2295757532119751,0.1446445733308792,-0.3178064525127411,-0.11755027621984482,0.12107601016759872,-0.03836073353886604,0.07892148941755295,-0.29897913336753845,-0.23800040781497955,-0.033052485436201096,-0.0669536292552948,0.09836061298847198,-0.014149152673780918,0.004197402857244015,-0.04456600174307823,-0.2195599526166916,-0.1372055858373642,-0.08787232637405396,-0.07380766421556473,0.10458211600780487,-0.15046890079975128,-0.3147489130496979,0.0009044374455697834,-0.17240065336227417,0.01170985959470272,-0.2119513303041458,-0.12854808568954468,-0.05098999664187431,0.05833827704191208,-0.16360428929328918,-0.22391082346439362,-0.03295093774795532,-0.048673179000616074,-0.1253746896982193,0.15452109277248383,0.11156659573316574,-0.11349338293075562,0.12654516100883484,0.02454143762588501,-0.14557766914367676,0.2722416818141937,0.09053605049848557],[0.07622966170310974,0.021839752793312073,-0.14407356083393097,-0.05779934301972389,-0.01857510581612587,-0.288623571395874,0.1045718640089035,0.23771385848522186,-0.33646899461746216,-0.13624851405620575,0.07475469261407852,-0.09169062227010727,-0.007334139198064804,-0.08723413199186325,0.0016710791969671845,0.0865628719329834,-0.039103902876377106,-0.03543337434530258,0.15820954740047455,-0.1183234378695488,-0.1137438416481018,0.1349794715642929,0.009157790802419186,-0.02471783570945263,-0.0438966266810894,-0.046874191612005234,0.009876174852252007,0.14375858008861542,-0.3475031852722168,-0.025517964735627174,-0.11868948489427567,-0.13011018931865692,0.09746801853179932,-0.01814599521458149,-0.10113612562417984,-0.04625999182462692,0.12414661049842834,0.15470604598522186,-0.054762691259384155,-0.0308671984821558,-0.013589348644018173,-0.09969054907560349,0.033606063574552536,0.2247007042169571,-0.13342344760894775,0.16421572864055634,-0.011735992506146431,0.047778479754924774,-0.07312197983264923,0.042269088327884674,0.04765908047556877,-0.06126688793301582,0.07385987043380737,-0.26293161511421204,0.005642058327794075,-0.12712514400482178,0.05165870860219002,-0.08533819019794464,0.018276967108249664,-0.1853986233472824,-0.16637958586215973,-0.3290819227695465,-0.13507060706615448,-0.07266616821289062],[0.0071523552760481834,0.102945476770401,0.14847268164157867,-0.15921972692012787,0.017255352810025215,0.061462391167879105,0.007256226148456335,0.01015358418226242,0.25091686844825745,-0.15370804071426392,0.043864428997039795,0.1337379813194275,0.0683116763830185,-0.025632301345467567,0.08596228808164597,0.052273768931627274,-0.04850662872195244,0.05804789066314697,0.1572534441947937,0.08258959650993347,0.021177129819989204,0.20313486456871033,0.10174554586410522,0.07646399736404419,0.10140945762395859,0.16802725195884705,0.055788394063711166,0.09241333603858948,0.061999429017305374,0.06553269922733307,-0.14318925142288208,0.02720189094543457,0.052475929260253906,-0.09910315275192261,-0.0891873762011528,0.2966611683368683,-0.03422311693429947,0.031697820872068405,0.021852241829037666,0.14877104759216309,-0.15234363079071045,-0.048136331140995026,-0.0502062626183033,-0.031295616179704666,-0.06002135947346687,-0.14741159975528717,-0.16135470569133759,0.04623224213719368,0.05663132667541504,-0.028446484357118607,-0.06363143026828766,0.19023093581199646,-0.14965559542179108,-0.0002927858440671116,0.1989096850156784,0.04330501705408096,-0.10095521807670593,0.038306523114442825,0.15864361822605133,0.12363220751285553,-0.2399187982082367,0.008257030509412289,0.07524523884057999,0.01862807758152485],[0.040560781955718994,0.06956855952739716,-0.12354093044996262,-0.13611291348934174,-0.11654852330684662,-0.26145169138908386,0.010469947941601276,0.30473196506500244,-0.08299493789672852,0.10716640949249268,0.22225607931613922,0.32364723086357117,-0.07006768137216568,0.0912821963429451,-0.13122951984405518,0.3130541145801544,-0.1688138246536255,0.19591225683689117,0.316390722990036,-0.04352166876196861,0.12903256714344025,0.1771697998046875,0.02312261238694191,0.07242145389318466,0.1871621161699295,0.011960791423916817,-0.025030693039298058,0.22521674633026123,0.07362865656614304,-0.06541497260332108,0.1817389279603958,-0.007826988585293293,0.07428859919309616,-0.0038962322287261486,-0.12984853982925415,-0.1694290190935135,-0.08949033915996552,-0.3381098806858063,-0.04999048635363579,0.061791181564331055,0.010455096140503883,0.10919369757175446,-0.20852333307266235,0.09649764746427536,-0.06848392635583878,0.006457454524934292,-0.014934933744370937,-0.12609943747520447,0.20820888876914978,-0.02462085895240307,0.02036784403026104,-0.14493997395038605,-0.1575462371110916,0.23787768185138702,-0.07782158255577087,-0.0031080152839422226,-0.2723424434661865,-0.005116415675729513,-0.10879699140787125,0.060162730515003204,-0.233396977186203,0.027371510863304138,-0.18985067307949066,-0.010620261542499065],[-0.10826427489519119,-0.03967650607228279,-0.0025792436208575964,0.014423354528844357,0.0903349444270134,-0.0062940726056694984,-0.16536107659339905,0.01175832562148571,-0.1941063404083252,-0.09734109044075012,-0.05516256392002106,0.17232142388820648,-0.057776711881160736,0.08681844174861908,-0.032922957092523575,0.14163552224636078,0.05107367783784866,0.15733946859836578,0.06399904936552048,0.17326737940311432,0.1431439071893692,-0.03762754797935486,0.1363268345594406,-0.21157802641391754,0.2591531574726105,-0.12411675602197647,-0.07986056059598923,0.15380428731441498,0.10123885422945023,0.16334401071071625,-0.0057328203693032265,-0.12748752534389496,0.06705482304096222,0.07794138789176941,-0.0687340721487999,-0.01982688158750534,-0.001073660096153617,-0.1779324859380722,-0.07443976402282715,-0.008709852583706379,0.015542624518275261,-0.009100404568016529,-0.0975012555718422,0.019473006948828697,0.010723208077251911,-0.08148983120918274,-0.0173785462975502,-0.06312648952007294,-0.11840211600065231,0.07832638919353485,0.02327982522547245,-0.04886619746685028,-0.11350683867931366,0.2316388487815857,0.09288453310728073,0.04714236035943031,-0.06925802677869797,0.18155942857265472,0.26409342885017395,0.025299793109297752,0.12976737320423126,-0.04597599431872368,-0.15193970501422882,0.24480243027210236],[0.06106771156191826,-0.015726178884506226,-0.1461051106452942,-0.09936259686946869,-0.007767316419631243,-0.09162338823080063,-0.12215039134025574,-0.16033218801021576,-0.014912658371031284,-0.02426813915371895,-0.029765291139483452,-0.2466663271188736,0.22336828708648682,0.029527541249990463,0.14555585384368896,-0.2225276529788971,-0.04014561325311661,0.004185473546385765,-0.016302568838000298,-0.026993950828909874,-0.08716866374015808,0.0507592111825943,0.022731423377990723,-0.04256841912865639,0.24730245769023895,-0.09759636223316193,-0.27953001856803894,-0.15624326467514038,0.2725454568862915,0.08818747103214264,0.031385891139507294,-0.08781708031892776,-0.12968917191028595,0.024361295625567436,-0.07625405490398407,0.11119059473276138,0.08841873705387115,0.34673622250556946,-0.21962803602218628,0.05982591584324837,-0.06014843285083771,-0.10099749267101288,0.22698479890823364,0.008388681337237358,0.12626978754997253,0.020555047318339348,0.04617789387702942,0.05079596862196922,0.047918904572725296,-0.06917905807495117,-0.15470463037490845,-0.15974290668964386,0.005120064597576857,-0.10352209955453873,0.02955823391675949,-0.08163738250732422,0.1135975569486618,-0.030320633202791214,-0.026775138452649117,0.03405804932117462,0.10499383509159088,-0.0024207495152950287,0.13570448756217957,-0.1009477972984314],[0.032500505447387695,-0.08879029005765915,-0.017221854999661446,0.24029605090618134,0.15848390758037567,-0.07265450060367584,-0.04158351570367813,0.1689731925725937,-0.07432454824447632,0.010587221011519432,-0.06693501025438309,-0.278152197599411,0.0796855166554451,0.08989109843969345,-0.07317108660936356,0.07811242341995239,0.19680680334568024,-0.008547346107661724,0.07887175679206848,-0.02443314529955387,0.04894428327679634,0.10660325735807419,0.04711500555276871,0.1273053139448166,0.0011906151194125414,-0.2124924212694168,-0.21304714679718018,-0.12112738192081451,0.045921310782432556,-0.05092509090900421,0.11703787744045258,-0.2009284347295761,0.30015161633491516,-0.006354629062116146,-0.22668634355068207,0.031764544546604156,-0.020918693393468857,0.06290847063064575,-0.18600614368915558,0.16413608193397522,0.2249464988708496,0.18862195312976837,-0.01310692448168993,0.14573095738887787,0.24033281207084656,-0.015105487778782845,-0.016701258718967438,0.01576850935816765,-0.12523625791072845,-0.23453548550605774,-0.01705876551568508,-0.20831279456615448,0.05027518421411514,-0.044843416661024094,0.16132088005542755,-0.02318735234439373,-0.14730089902877808,-0.10984333604574203,-0.11176940053701401,0.05046342313289642,-0.022162070497870445,0.04477934166789055,-0.01773843728005886,0.22921842336654663],[0.007932971231639385,-0.029362477362155914,0.08151756227016449,0.10153888165950775,-0.15960490703582764,-0.2903239130973816,0.06887539476156235,0.10756786912679672,0.13187594711780548,0.11156436055898666,0.046108346432447433,0.03466525301337242,-0.008413822390139103,-0.12304731458425522,-0.030090970918536186,0.12233185023069382,0.05169297009706497,-0.11093105375766754,0.021861575543880463,-0.04515727609395981,-0.02273961715400219,0.0057385326363146305,0.05536298826336861,0.2870350182056427,0.14170770347118378,-0.23476827144622803,-0.13044632971286774,0.17622901499271393,0.1251888871192932,0.021273579448461533,-0.0743560642004013,-0.02813858911395073,-0.14599260687828064,0.2538093626499176,0.044891297817230225,-0.1517845094203949,0.1665845662355423,-0.10517575591802597,-0.028965691104531288,-0.06458647549152374,0.0776340514421463,0.021399416029453278,-0.13272987306118011,0.3189331293106079,-0.005136299412697554,-0.2908981144428253,0.2096778005361557,-0.03957900404930115,-0.003689293283969164,0.10062983632087708,-0.0339246541261673,-0.24725191295146942,0.03407127037644386,-0.0796494260430336,-0.051858678460121155,-0.025170112028717995,-0.11451488733291626,-0.17131774127483368,0.06891641765832901,-0.3126436471939087,0.19693589210510254,-0.09483916312456131,-0.08923324197530746,0.29878196120262146],[-0.2534036636352539,0.08571162074804306,-0.10846330970525742,0.08450055122375488,0.1401965469121933,-0.0879867821931839,0.07314002513885498,-0.023946775123476982,-0.16273468732833862,0.14700749516487122,-0.1295899897813797,-0.3642551898956299,-0.0725720003247261,-0.05222328379750252,0.002995530841872096,0.10432447493076324,-0.10703747719526291,-0.06879603117704391,0.10091601312160492,0.22222112119197845,-0.10436177253723145,-0.015863658860325813,0.2113240361213684,0.13728143274784088,-0.1667191982269287,0.011616120114922523,-0.06785737723112106,0.040403202176094055,-0.1394692212343216,0.1353045105934143,0.15765789151191711,-0.00677143782377243,0.1931062936782837,0.08612220734357834,-0.031193800270557404,0.018367325887084007,0.07482220232486725,-0.06476614624261856,0.07982844114303589,0.26084035634994507,0.03155525401234627,-0.13646438717842102,-0.32725563645362854,0.2008644938468933,-0.0919380709528923,0.0581209659576416,0.12822388112545013,-0.2183615267276764,-0.19075654447078705,-0.026653528213500977,-0.20740747451782227,0.00482131028547883,-0.27476873993873596,-0.13920073211193085,-0.10198809206485748,0.06775212287902832,-0.13627007603645325,-0.12368457019329071,0.14480018615722656,-0.15907403826713562,0.05189730226993561,0.13516981899738312,-0.015625732019543648,0.0023034601472318172],[-0.15835681557655334,-0.1385962963104248,-0.014194704592227936,-0.08464230597019196,-0.33261170983314514,-0.06657696515321732,0.14985428750514984,0.007675717584788799,-0.03628618270158768,-0.04441066086292267,0.05550207197666168,-0.09399805217981339,-0.1197778657078743,0.030938025563955307,0.050028666853904724,-0.14167670905590057,-0.1233915165066719,0.10783549398183823,0.1676436811685562,-0.1710197776556015,-0.014358791522681713,0.0031242556869983673,0.22378650307655334,-0.12880997359752655,-0.08337650448083878,0.21476919949054718,-0.00316223269328475,0.022229347378015518,-0.07684309035539627,0.17066039144992828,-0.20021545886993408,0.07484165579080582,0.10505902767181396,0.18096400797367096,-0.21196922659873962,-0.06908628344535828,0.38147062063217163,0.13300789892673492,0.03450831025838852,0.24434241652488708,-0.050992630422115326,0.21479634940624237,0.22223050892353058,0.09419523179531097,0.0014277906157076359,-0.17462265491485596,0.0394497811794281,-0.10885124653577805,0.028052467852830887,-0.17801854014396667,0.08494479954242706,0.08235795795917511,-0.3254704177379608,-0.03894343972206116,-0.10245900601148605,0.060100752860307693,0.050713375210762024,0.03934597596526146,-0.002782701514661312,-0.037588827311992645,0.042526084929704666,-0.028824197128415108,-0.22702966630458832,-0.24289323389530182],[-0.09308142960071564,0.013713588006794453,-0.05329985171556473,-0.05595733970403671,0.09795264899730682,0.11390580236911774,0.04299765080213547,0.07488195598125458,-0.0740928128361702,0.31657055020332336,-0.05073918402194977,0.2360936850309372,-0.06355752050876617,-0.09854691475629807,-0.007224091328680515,0.04692038148641586,-0.027278637513518333,-0.06374537199735641,0.36289581656455994,0.17803028225898743,-0.015892595052719116,0.0043856119737029076,-0.022734425961971283,-0.318102091550827,-0.03820802643895149,-0.11034826934337616,0.1418221890926361,0.127961203455925,-0.09340912848711014,0.11989305913448334,0.23759375512599945,-0.04252653196454048,-0.15384890139102936,0.15665198862552643,0.10467920452356339,0.032908372581005096,0.00791055429726839,0.2011502981185913,-0.10311529040336609,-0.0735647901892662,0.20709511637687683,-0.1714896261692047,0.16184884309768677,0.06142045930027962,0.08653588593006134,0.05443326011300087,0.12470080703496933,-0.2888897955417633,-0.0888441652059555,-0.0014262699987739325,-0.06939247250556946,-0.0979672521352768,0.023841220885515213,-0.10472316294908524,0.12284556031227112,-0.03908346965909004,-0.09694495052099228,0.2575305700302124,0.06380823254585266,0.03223779425024986,-0.09320323169231415,0.23010656237602234,-0.05393323302268982,-0.04681603983044624],[-0.028392652049660683,0.01077207364141941,-0.020845573395490646,-0.15792377293109894,0.15893405675888062,-0.04252547770738602,0.3409727215766907,-0.004682071972638369,-0.03243240714073181,-0.06255117058753967,-0.1594628542661667,0.080296091735363,-0.03058513253927231,0.04699544981122017,0.017390867695212364,0.07938668131828308,0.04872710630297661,0.007409662939608097,0.0645565316081047,-0.12239567190408707,-0.02141151949763298,0.2546849250793457,-0.2709105908870697,0.010359751991927624,-0.051070019602775574,0.08754650503396988,-0.07914136350154877,-0.1959463208913803,0.056270502507686615,-0.020105930045247078,0.19058848917484283,0.08105045557022095,-0.1878574788570404,0.04872862994670868,-0.12311609834432602,0.02789461798965931,0.02129458077251911,-0.008063415996730328,0.17760296165943146,-0.03343137353658676,0.14809787273406982,-0.1539027988910675,0.08170319348573685,-0.2098836451768875,0.1984734833240509,0.09815143048763275,0.06357576698064804,0.13249123096466064,0.12228991836309433,-0.12318006902933121,-0.0273478701710701,0.11116235703229904,0.11588675528764725,0.02216838113963604,-0.06791854649782181,0.024699794128537178,0.16348987817764282,-0.16169540584087372,-0.021177705377340317,-0.19522492587566376,0.030604468658566475,-0.02344864420592785,-0.33773335814476013,-0.019514737650752068],[0.12126488983631134,-0.06555965542793274,-0.001035763998515904,0.017211290076375008,0.07877342402935028,0.10873719304800034,0.13186323642730713,0.221918985247612,-0.18335768580436707,-0.08152063935995102,-0.29381462931632996,0.11157280951738358,-0.009503114968538284,0.14752595126628876,0.025210073217749596,0.10482382774353027,0.04642327502369881,-0.015659531578421593,-0.18409450352191925,-0.004537934437394142,-0.19706949591636658,-0.2357093244791031,-0.019317904487252235,-0.0022456066217273474,0.022812193259596825,0.019366567954421043,0.02277188003063202,0.1893160343170166,-0.04290236532688141,-0.09223253279924393,-0.11817295104265213,0.02243349328637123,0.10465740412473679,-0.026774413883686066,0.020363448187708855,0.10701699554920197,-0.023518994450569153,-0.23726995289325714,-0.08604435622692108,-0.009105967357754707,-0.1696505844593048,0.039625924080610275,-0.027990203350782394,-0.17058983445167542,0.24629995226860046,-0.07682585716247559,0.19546152651309967,-0.12746265530586243,-0.3031046688556671,-0.18104064464569092,-0.30100709199905396,0.004991416819393635,0.05991343408823013,-0.006650308612734079,-0.15015390515327454,0.15004725754261017,0.28752651810646057,-0.2776053547859192,0.10868601500988007,0.00945010595023632,-0.0650850236415863,-0.07648484408855438,-0.06261689960956573,0.22934989631175995],[0.18845804035663605,-0.10492953658103943,0.20525602996349335,-0.04627757519483566,0.0018485409673303366,0.01621272787451744,-0.05398564413189888,-0.168768972158432,-0.0007601128309033811,-0.22379189729690552,-0.03868773207068443,0.08223072439432144,0.06130450218915939,0.024329818785190582,-0.05805959552526474,0.1325630098581314,-0.14384859800338745,0.1380060464143753,-0.020292948931455612,0.03719474375247955,0.019365614280104637,-0.06840718537569046,-0.10730145871639252,-0.044640276581048965,0.028490865603089333,0.10183212906122208,-0.0297359861433506,-0.04418039694428444,-0.12927459180355072,-0.08913106471300125,-0.07725635915994644,0.12936264276504517,0.11239544302225113,0.07395039498806,-0.2791382670402527,0.09803161025047302,0.20584408938884735,0.26606515049934387,-0.08106396347284317,0.0007781804888509214,0.418305367231369,-0.0371880978345871,-0.03773023560643196,-0.0850796177983284,-0.05799210071563721,0.10094328969717026,-0.022661317139863968,0.11694801598787308,0.008333276025950909,0.02884966880083084,0.21332547068595886,-0.05707191675901413,-0.08773311227560043,0.12421402335166931,0.12361058592796326,-0.09062635153532028,-0.12047084420919418,-0.10507560521364212,0.1410805881023407,0.054648902267217636,0.023694099858403206,-0.22423513233661652,0.15505515038967133,-0.02108072303235531],[0.07714433968067169,-0.00878014788031578,-0.06073889508843422,0.053860098123550415,-0.03928373381495476,-0.010770866647362709,0.20814478397369385,-0.018650423735380173,-0.0535835437476635,0.07345442473888397,0.1759025752544403,-0.09553545713424683,0.015740705654025078,0.07789270579814911,0.272591769695282,-0.005220276303589344,0.13241814076900482,0.05413828417658806,0.023882344365119934,-0.17461378872394562,0.04791388288140297,-0.1005682721734047,0.042305588722229004,-0.10585881024599075,-0.19379456341266632,0.21552231907844543,-0.16292062401771545,-0.1657887101173401,0.17161977291107178,-0.2582697868347168,-0.04343421384692192,-0.21282809972763062,0.14933234453201294,0.033859025686979294,-0.035323552787303925,-0.07524405419826508,-0.18362732231616974,0.014996242709457874,-0.15160603821277618,-0.10961863398551941,0.31398433446884155,-0.12425153702497482,-0.058511871844530106,-0.09432510286569595,-0.13046476244926453,0.06001148000359535,-0.032367609441280365,-0.03609059378504753,-0.14748060703277588,-0.009915516711771488,-0.17151692509651184,0.006305854767560959,0.16344761848449707,-0.07072465866804123,0.055296290665864944,0.20919522643089294,-0.017922723665833473,-0.20455814898014069,-0.0561932697892189,0.00047398023889400065,-0.0036215661093592644,0.1829938143491745,-0.0026761952321976423,0.14342114329338074],[-0.02892630733549595,0.02412843331694603,-0.18208155035972595,0.15517064929008484,-0.009288671426475048,0.07574036717414856,0.12862864136695862,-0.04230508580803871,0.0061333621852099895,0.11836106330156326,0.1972293257713318,0.1854289472103119,0.1621418446302414,-0.1209203451871872,-0.06122904643416405,-0.16324684023857117,-0.03492995724081993,-0.19857101142406464,-0.05527028813958168,0.3844810128211975,-0.03604374825954437,-0.1299050897359848,-0.05809953063726425,0.037452276796102524,0.09047345072031021,-0.0875973179936409,0.04082624986767769,-0.13917775452136993,0.0983056053519249,-0.15846183896064758,0.06814910471439362,0.05464393272995949,0.08293009549379349,0.04378572851419449,-0.30889517068862915,0.055246904492378235,0.004208515863865614,0.17950722575187683,0.12244116514921188,-0.10969146341085434,0.23065538704395294,-0.10048931837081909,0.2575109004974365,-0.011547856032848358,0.04026047885417938,-0.1765669286251068,-0.0417134054005146,-0.046629324555397034,0.17779377102851868,0.04190681129693985,-0.05989242345094681,0.1021544486284256,-0.15962572395801544,0.10120534151792526,-0.18166182935237885,0.0002346214314457029,-0.05176810920238495,-0.12973721325397491,0.02283593639731407,-0.015118949115276337,0.020987307652831078,0.07734212279319763,0.15446403622627258,-0.03600698336958885],[0.060254473239183426,0.006365649867802858,-0.014704270288348198,0.2757393419742584,-0.05825101211667061,-0.06254162639379501,0.017462950199842453,0.17930176854133606,-0.09340963512659073,-0.024502264335751534,-0.14031678438186646,-0.15627188980579376,0.11719240248203278,0.0973818451166153,0.004511834587901831,-0.13674689829349518,0.25891679525375366,-0.018117118626832962,-0.05345981940627098,-0.07808578014373779,0.016324859112501144,-0.09608037024736404,-0.09638655185699463,0.012266602367162704,-0.12954604625701904,-0.19682811200618744,0.08806180953979492,-0.22113321721553802,-0.03950352594256401,0.13439106941223145,0.025751547887921333,0.08458404988050461,-0.0011893775081261992,0.04541751742362976,-0.1104290708899498,-0.0860917866230011,-0.06534270942211151,-0.03500989079475403,-0.07814044505357742,0.17409741878509521,-0.12083245813846588,0.21933621168136597,-0.03820839524269104,0.0029380249325186014,0.18229994177818298,-0.07638771831989288,0.42175525426864624,0.193687304854393,0.18699108064174652,0.03056385926902294,0.02719644084572792,-0.040880557149648666,-0.011709332466125488,-0.0576711930334568,-0.005294272676110268,-0.04142048954963684,0.041293054819107056,0.01647864282131195,-0.22218453884124756,-0.21396233141422272,0.28700652718544006,0.2095053642988205,-0.11779293417930603,-0.03539464622735977],[0.1159166470170021,0.12075097858905792,0.09776443988084793,0.1557357758283615,-0.02617882564663887,0.026367105543613434,-0.031929586082696915,0.042909637093544006,-0.06562098115682602,-0.13403983414173126,0.04100138694047928,-0.20146246254444122,-0.11138129234313965,-0.19700738787651062,-0.1505434662103653,0.06410327553749084,-0.14359363913536072,0.05499708279967308,-0.23121090233325958,0.09281983971595764,0.03282935172319412,0.06461034715175629,-0.045908279716968536,0.16637413203716278,0.061725497245788574,-0.13169948756694794,0.20517762005329132,0.10022170096635818,0.059670429676771164,-0.04846452176570892,0.0013923881342634559,0.2616872191429138,-0.22194327414035797,0.11956574022769928,0.20118987560272217,0.06443505734205246,0.05076584964990616,0.00022293717483989894,0.021754026412963867,0.07634199410676956,-0.043950632214546204,-0.0048993611708283424,0.19909703731536865,-0.26176902651786804,-0.12154432386159897,0.11298874765634537,0.1534913033246994,-0.09059805423021317,0.010897907428443432,0.1835472285747528,0.1547219306230545,0.16218630969524384,-0.3498861491680145,0.09393720328807831,-0.08364803344011307,-0.06406952440738678,-0.03409867361187935,0.041353218257427216,-0.27832964062690735,-0.2539047300815582,0.0983840748667717,0.1062525063753128,-0.037514083087444305,0.07098899036645889],[-0.016217786818742752,0.0736313983798027,-0.17337892949581146,0.09825307130813599,-0.32798275351524353,-0.07792995870113373,0.005347078200429678,0.3206353783607483,0.08268038928508759,-0.12433692812919617,0.09858622401952744,0.04894767701625824,0.048595868051052094,0.07032313197851181,0.05765403434634209,-0.23791666328907013,0.18364034593105316,-0.041789837181568146,-0.07831248641014099,-0.02709774859249592,0.14194901287555695,-0.04730986803770065,0.12327638268470764,-0.15239237248897552,0.060263555496931076,-0.003869488835334778,0.20255734026432037,0.08455172181129456,0.20939354598522186,0.016150733456015587,-0.026986252516508102,-0.19239696860313416,0.0457489974796772,-0.11517854779958725,-0.07874821126461029,-0.060136012732982635,0.24738211929798126,0.18659797310829163,-9.985714132199064e-05,-0.09019274264574051,0.08832903951406479,-0.3249383866786957,-0.02595718950033188,-0.17034529149532318,-0.1365034282207489,-0.10063526779413223,0.08030413091182709,-0.15224850177764893,-0.27737003564834595,0.16718775033950806,0.16520856320858002,-0.000806205440312624,0.014280000701546669,0.10832210630178452,-0.31463125348091125,0.11677481979131699,0.17461730539798737,-0.1785098761320114,-0.24568137526512146,-0.1333930343389511,-0.12144707888364792,-0.12169905751943588,-0.13183504343032837,-0.008912702091038227],[0.20833700895309448,-0.06608844548463821,-0.17085817456245422,0.046329110860824585,0.06747353821992874,0.027140043675899506,0.03633396327495575,-0.09042339771986008,-0.3359478712081909,-0.07947184890508652,0.12342587858438492,-0.0921839252114296,0.02129158191382885,-0.06775117665529251,-0.004520172718912363,-0.034612253308296204,0.05074053257703781,0.14509420096874237,0.007533790078014135,-0.11534910649061203,0.10401679575443268,-0.2015789896249771,0.22543661296367645,0.041282642632722855,0.07900462299585342,-0.13435204327106476,0.14972874522209167,-0.08461911231279373,-0.20115378499031067,0.17666615545749664,-0.11527715623378754,-0.11041372269392014,0.06010592356324196,0.06097419932484627,0.1188415065407753,0.044612616300582886,-0.14701513946056366,-0.009610398672521114,-0.207097589969635,-0.14904135465621948,0.0678151398897171,0.07539600133895874,-0.13806220889091492,0.22221916913986206,-0.053837232291698456,-0.2453775554895401,-0.06403631716966629,0.04132488742470741,0.1078004240989685,-0.05173847824335098,-0.02522992342710495,-0.024137742817401886,-0.18743272125720978,0.040016960352659225,-0.21348579227924347,-0.24367262423038483,-0.025008713826537132,0.09868165105581284,-0.172949880361557,0.07707887887954712,0.07058056443929672,0.11986852437257767,-0.14697104692459106,-0.2715829014778137],[-0.09277937561273575,-0.12237387150526047,0.13981245458126068,0.06680682301521301,0.02155817113816738,-0.006771750282496214,0.02019748091697693,-0.17455103993415833,0.24234721064567566,-0.0007572673493996263,-0.14698277413845062,-0.14576919376850128,0.015250318683683872,0.2112552672624588,-0.16156621277332306,0.10734943300485611,0.15916197001934052,-0.05316698178648949,-0.05032363161444664,-0.03303807973861694,0.0434396006166935,0.01617118902504444,0.010815104469656944,0.202916219830513,0.0836908295750618,-0.3510375916957855,-0.23603032529354095,0.10395069420337677,-0.06202183663845062,-0.08510580658912659,-0.22001609206199646,-0.11518679559230804,-0.002493064384907484,0.035227321088314056,-0.007526245433837175,0.056226566433906555,-0.12340614944696426,0.20066991448402405,-0.11152676492929459,-0.23677314817905426,0.018598712980747223,-0.020975742489099503,0.03410465642809868,-0.002623148960992694,-0.022459283471107483,0.17165617644786835,0.12029673159122467,-0.044554587453603745,0.07681462168693542,0.1620737463235855,-0.12493087351322174,-0.08599621802568436,-0.07338851690292358,-0.04718717560172081,0.2479572594165802,-0.13606566190719604,0.12202975153923035,0.20759347081184387,0.052225954830646515,-0.039830200374126434,0.006545775569975376,-0.03706131875514984,-0.19371554255485535,-0.004974828101694584],[0.21198399364948273,0.07015775144100189,0.06548622250556946,-0.07875259965658188,-0.25681233406066895,-0.020756956189870834,0.08651810884475708,0.24385365843772888,0.08366595953702927,-0.18148472905158997,-0.09710902720689774,0.03968513384461403,0.015634685754776,0.09327948838472366,0.0199102945625782,-0.05204576998949051,-0.2134435623884201,0.2620505392551422,0.15624970197677612,0.012203867547214031,-0.013531629927456379,0.216773122549057,-0.03591960668563843,0.10444788634777069,-0.014865306206047535,0.029019253328442574,0.033884286880493164,0.22157765924930573,0.028495628386735916,-0.09444725513458252,0.18342983722686768,0.4341100752353668,-0.007729992736130953,0.11888661980628967,-0.12083306163549423,0.07577529549598694,-0.06754066795110703,-0.017540564760565758,-0.022782888263463974,0.31218719482421875,-0.00849861279129982,-0.12541864812374115,0.06414777785539627,0.030530797317624092,-0.09375029057264328,-0.0957016870379448,-0.1694522649049759,-0.013402920216321945,-0.08347874879837036,-0.24054034054279327,0.09579551219940186,0.02439810335636139,0.0752500593662262,-0.21073593199253082,0.14939014613628387,-0.29282650351524353,-0.10924679040908813,-0.023095447570085526,0.20076142251491547,0.18497544527053833,-0.17173343896865845,0.22859340906143188,0.13727906346321106,-0.028679976239800453],[-0.017836153507232666,0.17496269941329956,-0.16934695839881897,0.2151741087436676,-0.24870999157428741,-0.07991135865449905,0.14532844722270966,-0.010101238265633583,0.14540423452854156,0.042659372091293335,0.041225530207157135,-0.1454685628414154,-0.2003519982099533,-0.0708727240562439,-0.017528485506772995,-0.0607023723423481,-0.029174022376537323,-0.19619432091712952,0.26579827070236206,-0.010912775062024593,-0.13347241282463074,0.19027847051620483,0.12692072987556458,-0.10137377679347992,-0.04434012621641159,-0.19662056863307953,-0.2083609402179718,-0.010058971121907234,-0.13762250542640686,0.012041379697620869,-0.18311862647533417,0.09005287289619446,-0.048482950776815414,0.08517298102378845,0.023731958121061325,-0.17545117437839508,-0.0390612818300724,0.029353324323892593,-0.03264414519071579,0.09880513697862625,-0.10898607969284058,0.03327412158250809,-0.16512872278690338,0.05109716206789017,-0.10842902213335037,-0.21425940096378326,0.04620245471596718,0.06070027872920036,-0.06901738792657852,-0.010614844970405102,-0.01647224649786949,-0.2577337622642517,0.1116601750254631,-0.10091039538383484,0.05359052121639252,0.014687413349747658,-0.054480984807014465,-0.036762386560440063,-0.09116803109645844,-0.1866142749786377,0.14385870099067688,0.07572417706251144,-0.06406565755605698,0.07900092005729675],[-0.023765962570905685,-0.18136173486709595,0.026180706918239594,-0.028070641681551933,0.1814054548740387,0.16968365013599396,0.041945405304431915,0.15625129640102386,-0.08318217098712921,-0.016770774498581886,0.12688317894935608,-0.021050045266747475,0.05968492105603218,-0.016474533826112747,0.10174006223678589,0.09367317706346512,0.12320168316364288,0.054576411843299866,-0.029294749721884727,0.14528627693653107,-0.16695497930049896,-0.05758139491081238,-0.13400880992412567,-0.33553317189216614,0.10420055687427521,0.15392351150512695,-0.11308073252439499,0.1183520257472992,-0.05552242696285248,0.010418413206934929,-0.13493193686008453,0.3149321675300598,-0.27673810720443726,0.03056917153298855,0.05539922043681145,0.02013411745429039,-0.12555116415023804,0.00830970797687769,-0.05128473788499832,-0.10576742142438889,0.021220872178673744,-0.18988706171512604,-0.07042141258716583,-0.3313920199871063,-0.010243183001875877,0.19560687243938446,0.04602910950779915,-0.06596419215202332,0.05028785020112991,0.17549167573451996,0.03555808961391449,-0.03108406625688076,0.02112743631005287,0.13983000814914703,-0.23227502405643463,0.24482163786888123,-0.10113326460123062,-0.032664407044649124,-0.07413957267999649,-0.0356527715921402,0.19803564250469208,0.20927570760250092,-0.08620452880859375,0.01123892329633236],[0.1273096650838852,0.045472655445337296,0.13025769591331482,0.00782680045813322,-0.2260451465845108,0.15925532579421997,-0.07725721597671509,-0.005904315039515495,0.0735398605465889,-0.16452421247959137,-0.019097277894616127,-0.1876349002122879,0.10823645442724228,0.014769470319151878,0.09261687844991684,-0.019228704273700714,-0.11126788705587387,0.20300456881523132,0.18685564398765564,-0.1382984071969986,-0.07367585599422455,-0.09822753071784973,0.0733375996351242,-0.001993172336369753,-0.012949430383741856,0.01615741476416588,0.015296829864382744,0.11602111905813217,0.13450650870800018,-0.26232510805130005,0.10470933467149734,0.08596386015415192,-0.031690143048763275,-0.12798883020877838,-0.15831945836544037,0.05882341414690018,0.0022683278657495975,-0.25360190868377686,0.05408955737948418,-0.13778278231620789,-0.1462516188621521,-0.30066293478012085,0.0006778097595088184,-0.1653776615858078,0.13360247015953064,-0.1224617138504982,0.09250016510486603,0.08737637102603912,0.13199585676193237,-0.25983768701553345,0.10149721801280975,0.11700339615345001,0.020959267392754555,-0.18799187242984772,-0.0348505862057209,0.10629705339670181,0.05833257734775543,0.12948860228061676,0.16900065541267395,-0.15697331726551056,0.24629800021648407,0.06476791948080063,0.04306655749678612,0.11410240083932877],[-0.1603001058101654,-0.028878288343548775,0.06471707671880722,0.029929345473647118,0.033636290580034256,0.06999566406011581,0.27679482102394104,-0.01271912269294262,-0.302957683801651,-0.08248740434646606,0.07966835796833038,-0.06071661785244942,0.029607662931084633,-0.01180293783545494,0.21165737509727478,-0.14709462225437164,-0.006067789159715176,-0.013718911446630955,-0.028454888612031937,0.04195031151175499,0.012507432140409946,-0.2896132469177246,-0.10457537323236465,0.22333796322345734,0.1422414481639862,-0.0033827656880021095,0.016191694885492325,0.1772368997335434,-0.04019145295023918,-0.04176405072212219,-0.003961789421737194,-0.0009255920303985476,0.12008531391620636,0.005587336607277393,-0.19993408024311066,0.09101942181587219,0.10012691468000412,-0.17079797387123108,-0.12385217100381851,-0.028610853478312492,-0.16817378997802734,-0.09619111567735672,0.10739165544509888,-0.013756100088357925,0.09665684401988983,0.11148644983768463,-0.05307519808411598,-0.014144576154649258,0.36083948612213135,-0.14968740940093994,0.04777244105935097,0.1672755479812622,0.10564117878675461,-0.10625060647726059,0.12682004272937775,0.33543145656585693,0.12239975482225418,-0.04725617542862892,0.17364796996116638,0.09384261071681976,0.07186295092105865,0.0616728775203228,-0.0362047478556633,0.14053045213222504],[-0.08417518436908722,-0.2123701274394989,0.10218880325555801,0.27116724848747253,0.06826566159725189,0.2652040719985962,-0.053705547004938126,-0.13949616253376007,-0.05010010302066803,0.0731288492679596,0.011059456504881382,-0.1463080793619156,0.11476896703243256,0.05882648378610611,-0.10825652629137039,0.09356117993593216,0.04271736368536949,-0.030847348272800446,0.3898908495903015,0.052122801542282104,0.000670036650262773,-0.17079095542430878,-0.07057548314332962,0.07337409257888794,0.09808635711669922,-0.20996315777301788,-0.010923611000180244,0.13079702854156494,-0.025917286053299904,0.03484944626688957,0.09282916784286499,0.03286338970065117,0.25315597653388977,0.18416744470596313,0.13614995777606964,0.1995440274477005,0.01331376377493143,-0.053610075265169144,0.0500212162733078,-0.1120976135134697,0.04691809415817261,-0.13365696370601654,-0.15753261744976044,-0.018545882776379585,0.13227906823158264,-0.0030027274042367935,0.22491060197353363,0.027540037408471107,0.15388141572475433,0.07510174065828323,-0.17796726524829865,-0.10036944597959518,-0.0404512882232666,0.06911610066890717,0.2558195888996124,0.37405240535736084,-0.1765679568052292,-0.021134883165359497,-0.13821034133434296,0.2331118881702423,-0.07374925166368484,0.09618557244539261,0.2005787044763565,-0.03722948953509331],[-0.10586176812648773,-0.024952515959739685,-0.010913485661149025,-0.07900749146938324,0.3159468173980713,0.03165759891271591,0.0030574698466807604,0.16410519182682037,0.03533885255455971,0.03444019705057144,0.10323847830295563,-0.05726198852062225,-0.056020114570856094,0.03666574880480766,0.07267384231090546,-0.009904025122523308,0.10538794100284576,-0.042480092495679855,0.1355128437280655,0.048884205520153046,-0.1480485200881958,0.16091369092464447,0.09855292737483978,-0.06166931986808777,0.015162459574639797,-0.05616201460361481,-0.16905783116817474,-0.21856236457824707,-0.04533249884843826,-0.07691287994384766,-0.1794397085905075,0.19233402609825134,0.32598572969436646,-0.0926157608628273,-0.03474181890487671,0.196146622300148,0.0018700483487918973,0.04409286007285118,-0.07710061222314835,0.07023236900568008,0.025330306962132454,0.10794852674007416,0.13061155378818512,-0.18282024562358856,0.045064203441143036,0.19858135282993317,0.028606917709112167,-0.06870774924755096,0.07963980734348297,-0.08926479518413544,0.04472086578607559,0.06632281839847565,-0.1615099161863327,0.15917684137821198,0.046841323375701904,-0.03830265998840332,-0.16327226161956787,-0.25195589661598206,0.06675736606121063,0.04229414463043213,-0.00921771489083767,0.028492191806435585,-0.16312040388584137,-0.030011462047696114],[0.13175047934055328,0.22580517828464508,-0.0549919530749321,-0.02594502456486225,0.06093611940741539,0.01775263249874115,-0.05262697860598564,0.08273372799158096,0.20984694361686707,-0.23508547246456146,-0.13661663234233856,-0.13832220435142517,-0.19375453889369965,-0.3381814658641815,0.13742172718048096,-0.05744615197181702,0.017994925379753113,0.12277217954397202,0.012252828106284142,-0.08878049999475479,0.07913970947265625,-0.11076439172029495,-0.1596393585205078,-0.06855626404285431,-0.03397950530052185,0.018425727263092995,0.0935986265540123,-0.2677135765552521,-0.003417980158701539,-0.004367937333881855,-0.011568861082196236,-0.06841836124658585,0.06504762172698975,-0.14606760442256927,-0.14606209099292755,-0.0791805237531662,-0.04347936064004898,0.0923074334859848,0.012526371516287327,-0.0832911804318428,0.14708676934242249,0.1597125232219696,0.01164597924798727,0.007436833344399929,-0.2372448891401291,-0.40229499340057373,-0.1966603398323059,0.1094026193022728,0.02275143191218376,-0.05385876074433327,0.303276389837265,0.018214115872979164,0.10792002081871033,0.06913824379444122,0.02179895155131817,-0.15112215280532837,-0.07526238262653351,-0.02232132852077484,0.036065977066755295,-0.10811325162649155,0.05117141827940941,0.021339448168873787,0.187959685921669,-0.04044674336910248],[-0.037508219480514526,-0.02915928326547146,0.0320814773440361,0.3877093195915222,-0.011749222874641418,0.2435608208179474,0.03484037145972252,0.051100824028253555,-0.06729714572429657,0.06281175464391708,0.27673375606536865,0.09905499219894409,-0.0355641208589077,-0.34392356872558594,-0.14139389991760254,0.0361424945294857,-0.007372950203716755,-0.09777463227510452,0.0465451255440712,0.03420105203986168,0.11157878488302231,-0.0570235475897789,-0.2249491810798645,0.17247943580150604,0.0006809330079704523,0.16689440608024597,-0.014321863651275635,0.04520212113857269,0.13442791998386383,-0.21837450563907623,-0.12140974402427673,0.029881905764341354,-0.13470181822776794,0.06076383963227272,-0.036850705742836,0.358257532119751,0.16486841440200806,-0.058624785393476486,-0.11227702349424362,0.041942041367292404,-0.0697856992483139,0.012779842130839825,0.24848483502864838,0.06363258510828018,-0.16909003257751465,0.20143093168735504,0.005952613893896341,-0.1261245310306549,-0.08523151278495789,0.11813351511955261,-0.15729469060897827,0.03152502328157425,0.06448579579591751,0.1290643960237503,-0.01597835309803486,-0.2468993216753006,-0.040746647864580154,-0.10486818850040436,0.02318652719259262,-0.23337773978710175,-0.22525916993618011,0.2248380184173584,-0.10997265577316284,0.04511639475822449],[0.10657890886068344,0.09296521544456482,-0.06275385618209839,-0.18800702691078186,-0.07817862927913666,-0.3452720046043396,0.2368590086698532,-0.07227158546447754,-0.0056391023099422455,-0.03919234126806259,0.12484852224588394,-0.0051599000580608845,0.023821042850613594,0.04669506102800369,0.12888438999652863,0.07446812838315964,-0.11302854865789413,-0.030482105910778046,-0.20188459753990173,0.05701631307601929,-0.09079690277576447,0.21619151532649994,0.13876831531524658,0.29476287961006165,-0.2193002849817276,-0.170866921544075,0.10877569019794464,-0.3034900724887848,-0.13317058980464935,-0.201571524143219,-0.061978913843631744,-0.05912649258971214,-0.14688168466091156,0.030525485053658485,-0.06040413677692413,0.2319852113723755,-0.060208193957805634,-0.053616028279066086,0.018127350136637688,-0.29724597930908203,-0.1966940313577652,-0.08906001597642899,0.10107381641864777,0.1854332983493805,-0.0303761288523674,-0.03898165747523308,-0.0072959233075380325,0.29882147908210754,0.2772608697414398,-0.07323206216096878,-0.004335634410381317,-0.018361469730734825,0.007133370265364647,0.07107222825288773,-0.13181935250759125,0.3408782184123993,0.18123701214790344,-0.013071894645690918,0.17488762736320496,-0.1966848224401474,-0.11080605536699295,-0.15123528242111206,-0.0042440942488610744,-0.06466230005025864],[-0.1718488335609436,0.05110642686486244,-0.01081986352801323,-0.07551953196525574,-0.13355375826358795,0.1845996379852295,0.14763034880161285,0.113661989569664,0.06751163303852081,-0.04739896208047867,-0.18809457123279572,0.09915623813867569,-0.11156179755926132,-0.09165003895759583,-0.0857483297586441,-0.021762032061815262,0.044947147369384766,-0.08377000689506531,-0.011012435890734196,-0.18222719430923462,0.0813971683382988,-0.11632627248764038,0.03909328207373619,0.06024520844221115,-0.1973816603422165,0.12134285271167755,-0.0457465685904026,0.12050218135118484,0.14784187078475952,0.08511801809072495,-0.17700275778770447,0.09497246146202087,0.04241221025586128,0.09608743339776993,-0.1724425107240677,0.04828982427716255,0.15526993572711945,0.04500751197338104,-0.031649794429540634,-0.16601453721523285,-0.04205372557044029,0.0331452414393425,-0.023182576522231102,-0.06890986114740372,0.13150660693645477,-0.05450645089149475,-0.06724055856466293,0.1273556798696518,0.07190875709056854,0.025608213618397713,-0.058248504996299744,0.01939069665968418,0.04628409817814827,-0.05738506466150284,-0.06945319473743439,-0.04909401759505272,-0.0048297494649887085,-0.18107201159000397,-0.03334788233041763,-0.11834709346294403,-0.06709656119346619,-0.07901247590780258,-0.06486892700195312,0.05478831008076668],[-0.11028344184160233,-0.0830812081694603,0.06580021977424622,-0.1589236557483673,0.0730423629283905,-0.026532215997576714,0.03698960319161415,0.07346297055482864,0.07242179661989212,-0.005675758700817823,-0.2627485990524292,0.1175989881157875,0.05995417386293411,-0.05416518449783325,0.056300681084394455,-0.03320043161511421,-0.3216845691204071,0.11729387193918228,-0.002673914423212409,-0.024044370278716087,0.07095087319612503,-0.030357180163264275,0.18949197232723236,0.1331028789281845,-0.05541055649518967,0.05517809838056564,0.23476320505142212,0.013620931655168533,-0.10781190544366837,0.08509330451488495,-0.008150644600391388,0.10914035886526108,-0.007879224605858326,-0.10604587197303772,0.07930546253919601,-0.1358669102191925,0.06864343583583832,0.04649107903242111,0.13052283227443695,-0.1990848183631897,-0.11431821435689926,0.09197033941745758,-0.0827828049659729,0.0652414932847023,-0.05545714497566223,0.02281271107494831,-0.02041347697377205,-0.17689141631126404,0.08715113252401352,0.1751643866300583,0.1495368778705597,0.09139076620340347,-0.03094608709216118,-0.036290038377046585,0.2472386509180069,0.04733292758464813,0.17935685813426971,-0.0890292078256607,0.031555306166410446,-0.010835382156074047,-0.0759451612830162,0.08377836644649506,0.0576423779129982,0.27149268984794617],[-0.08795642107725143,-0.04653405398130417,-0.08524762094020844,0.030079305171966553,0.14256416261196136,-0.07927282154560089,0.08372606337070465,-0.05815917253494263,-0.015235829167068005,-0.04917493835091591,0.04872603714466095,-0.19417475163936615,0.025227604433894157,0.07949598878622055,-0.02851937524974346,0.22939331829547882,-0.10392174124717712,0.14517860114574432,-0.16794537007808685,-0.18976396322250366,0.18494604527950287,0.06994609534740448,-0.17259235680103302,-0.1103462278842926,-0.17158710956573486,-0.10653620213270187,0.034797441214323044,-0.08388811349868774,0.07894369959831238,0.02574869617819786,0.05766582489013672,-0.00037989369593560696,0.07495720684528351,0.014910204336047173,0.08231890946626663,-0.07396873086690903,-0.10824641585350037,0.0980401486158371,0.0333077646791935,0.13400325179100037,0.011857529170811176,0.08993587642908096,-0.13422133028507233,-0.00513548543676734,0.19294112920761108,-0.1504666954278946,-0.09274998307228088,0.21248866617679596,-0.0388326533138752,-0.08959930390119553,0.02485051564872265,-0.02364156022667885,0.06902071088552475,0.0850565955042839,0.050883322954177856,0.10391217470169067,0.036961186677217484,0.09742994606494904,-0.04867878928780556,0.008227708749473095,0.14274467527866364,0.22715413570404053,-0.10438554733991623,0.23547348380088806],[0.009244290180504322,-0.05372660979628563,0.09713605046272278,0.22010543942451477,-0.15209239721298218,0.04250923916697502,-0.028492871671915054,-0.17212313413619995,-0.022293929010629654,-0.09809119999408722,0.18074537813663483,0.09322749078273773,0.019232474267482758,0.09850287437438965,0.10877808183431625,0.11536606401205063,-0.16508468985557556,-0.06371209025382996,0.09577393531799316,0.06871862709522247,-0.012736478820443153,-0.036909982562065125,0.04518195614218712,0.008254940621554852,0.10189782828092575,0.17340697348117828,-0.0008515431545674801,0.08161989599466324,-0.2023371458053589,-0.3267762362957001,-0.09044846147298813,-0.11031738668680191,0.04858255386352539,0.294473797082901,-0.047291338443756104,0.18284796178340912,0.12419327348470688,-0.04959457740187645,0.24809202551841736,-0.11808597296476364,-0.04215346649289131,0.021015362814068794,0.21114565432071686,0.07241145521402359,-0.09176626056432724,0.09196589142084122,-0.10762731730937958,-0.07650051265954971,-0.10568452626466751,-0.17987269163131714,0.04928772151470184,-0.10271651297807693,0.06596559286117554,0.02157399244606495,-0.014678056351840496,-0.1342138648033142,0.16728204488754272,0.16460461914539337,0.2151932269334793,-0.0038651267532259226,0.006762975826859474,-0.1253833770751953,0.09993208944797516,-0.10247892886400223],[0.0050002289935946465,0.1026637926697731,-0.12148347496986389,-0.03667888417840004,-0.0024450873024761677,-0.034735098481178284,-0.0038392660208046436,-0.24548184871673584,-0.1073451116681099,0.20831458270549774,-0.35618969798088074,0.03312595933675766,0.009566779248416424,-0.06017252802848816,-0.12611718475818634,-0.04857012629508972,0.22760936617851257,0.06733544915914536,-0.022950926795601845,0.0366695336997509,0.18436266481876373,-0.022695744410157204,-0.2531234622001648,0.1058633103966713,0.19318610429763794,-0.21190586686134338,-0.08377324789762497,0.021295104175806046,0.21465066075325012,0.03578231483697891,0.12297137081623077,-0.015066280029714108,0.008955460041761398,-0.17784930765628815,-0.1905556470155716,0.0502803698182106,0.1579362154006958,-0.19910123944282532,-0.19862253963947296,-0.08638538420200348,-0.01905890367925167,0.09933573007583618,-0.23299673199653625,-0.2823584973812103,0.014315681532025337,0.03639872744679451,0.11806897819042206,0.23701956868171692,-0.05277900770306587,-0.013125758618116379,-0.07487635314464569,-0.05007996782660484,0.0711645632982254,-0.061047110706567764,0.002091459697112441,0.11679410934448242,-0.07551558315753937,-0.05231932923197746,-0.18379516899585724,0.012286425568163395,0.24375036358833313,0.06565298140048981,-0.02281496487557888,0.04456069692969322],[-0.06894286721944809,0.10804226994514465,-0.2155439704656601,0.05775599926710129,-0.08210404217243195,0.0554695688188076,-0.05620656535029411,0.1801106333732605,-0.08677982538938522,0.2323095053434372,0.032486747950315475,-0.07253318279981613,0.07114022970199585,0.007114619482308626,-0.10006072372198105,0.28056570887565613,0.12284492701292038,0.23174457252025604,-0.048763204365968704,0.016944946721196175,0.2751549184322357,0.11188921332359314,-0.07378964871168137,-0.047238145023584366,0.10528628528118134,-0.026027636602520943,-0.4945087432861328,0.16246415674686432,-0.13980384171009064,0.04400254413485527,-0.14533257484436035,0.17380428314208984,-0.031029198318719864,-0.16025833785533905,-0.14893576502799988,0.04176461696624756,-0.05917675793170929,-0.11314626038074493,-0.05705593526363373,-0.12937124073505402,-0.028082923963665962,0.17278914153575897,-0.010297545231878757,-0.031416747719049454,0.23606537282466888,0.07749950140714645,0.14975780248641968,-0.148234561085701,0.030902421101927757,-0.03738865628838539,0.06768714636564255,0.1649290770292282,0.01687988080084324,-0.11326899379491806,-0.037188444286584854,0.2521449327468872,-0.42609983682632446,-0.06657169759273529,0.07184000313282013,-0.16050861775875092,0.4022715389728546,0.3066406846046448,0.03773510456085205,-0.197291299700737],[0.01297434326261282,0.06442096829414368,0.03730566427111626,-0.09968394041061401,0.020587367936968803,-0.022564128041267395,-0.2298855483531952,0.03193463757634163,-0.06673073023557663,-0.024918612092733383,0.2285318225622177,0.05486402288079262,-0.015813777223229408,0.09382732212543488,0.10984782874584198,0.1026977077126503,-0.011000613681972027,-0.03716452419757843,-0.03298770636320114,-0.03380315750837326,-0.07847912609577179,-0.14484146237373352,0.027580954134464264,0.16298243403434753,0.10352305322885513,-0.08397146314382553,-0.16630296409130096,0.055598001927137375,0.11220496892929077,0.1122904121875763,0.06959012895822525,-0.16864006221294403,-0.0906582921743393,-0.04396451637148857,0.01625063456594944,-0.04767761752009392,0.010522622615098953,-0.27667975425720215,0.06028113514184952,0.05346844345331192,0.08269558846950531,-0.2691808342933655,0.010185934603214264,0.12036305665969849,0.10706301778554916,0.024515464901924133,-0.16037242114543915,0.20548692345619202,-0.15745708346366882,-0.003034004010260105,-0.038896966725587845,0.03346516564488411,0.06710688024759293,0.15138648450374603,0.014241076074540615,0.19586411118507385,-0.07597048580646515,-0.011046360246837139,-0.13085336983203888,-0.053719662129879,-0.08508612215518951,0.0223835539072752,0.2036305069923401,-0.07931137084960938],[-0.05989175662398338,0.19771702587604523,0.024541309103369713,-0.0905175656080246,0.2084832340478897,0.09565037488937378,0.04484530910849571,-0.006544601637870073,-0.008321696892380714,-0.06638536602258682,-0.11251229792833328,-0.07828014343976974,0.11863763630390167,0.13263189792633057,-0.2201187014579773,-0.006413513328880072,0.162302628159523,0.08133000880479813,-0.06613770127296448,-0.11149536073207855,-0.20613804459571838,-0.21426735818386078,0.2590322196483612,-0.10309256613254547,0.030855735763907433,0.13217569887638092,0.05546342208981514,0.1140662357211113,0.1177973672747612,0.020176563411951065,-0.15771104395389557,-0.05441669002175331,-0.10250897705554962,-0.275735467672348,-0.07762530446052551,0.33785179257392883,0.09389365464448929,0.0043794396333396435,0.34450119733810425,-0.13831794261932373,0.11238835752010345,-0.11287866532802582,-0.07103972136974335,-0.30493494868278503,-0.0853629782795906,-0.07251490652561188,-0.22816309332847595,0.22720059752464294,0.15020695328712463,-0.09115567803382874,0.32307547330856323,-0.027990734204649925,-0.0008170247892849147,-0.11317342519760132,0.02553676627576351,0.0403829962015152,-0.025486145168542862,-0.005049678031355143,-0.15015369653701782,-0.10053335130214691,-0.041892215609550476,-0.0173475481569767,-0.18318712711334229,0.23624220490455627],[-0.10369118303060532,-0.07886108011007309,-0.010381781496107578,-0.09401853382587433,-0.08655288815498352,-0.2636938989162445,-0.20194603502750397,0.037194136530160904,-0.10488356649875641,0.13582690060138702,-0.20306897163391113,-0.11477605253458023,-0.016687313094735146,-0.11264955997467041,0.0198519304394722,0.2586193382740021,-0.03614545240998268,0.08061838895082474,0.10300765931606293,-0.1243993416428566,-0.0810268446803093,-0.09558559209108353,-0.06749369949102402,0.023818835616111755,-0.03442200645804405,0.042759187519550323,-0.022198153659701347,0.05866274982690811,-0.0021996016148477793,0.07908506691455841,-0.10961142927408218,0.0035723329056054354,0.13845571875572205,-0.11177429556846619,-0.03978119418025017,0.0674104243516922,0.07602813094854355,0.0447356142103672,0.16339588165283203,-0.00032736710272729397,-0.046276140958070755,-0.06219189986586571,0.12635011970996857,-0.10215213894844055,0.1315252035856247,0.12085407972335815,0.009704921394586563,-0.22825580835342407,0.11487386375665665,0.0030683577060699463,-0.02873636595904827,-0.12005874514579773,-0.11271800100803375,0.06765690445899963,0.06259459257125854,-0.08958108723163605,0.22611689567565918,-0.2043662965297699,-0.09902409464120865,-0.05744252726435661,-0.2566664516925812,-0.12970256805419922,-0.02755739353597164,0.07637590914964676],[0.04938248172402382,-0.09232200682163239,0.04934262856841087,-0.013697875663638115,-0.048443861305713654,-0.14581307768821716,-0.1542639434337616,-0.32597774267196655,0.17155314981937408,0.1454644352197647,-0.3065580427646637,0.01681942120194435,-0.011247292160987854,0.06470442563295364,-0.005135017912834883,0.31684255599975586,0.23204155266284943,0.024880528450012207,-0.04090562090277672,0.05032907798886299,-0.04270762577652931,-0.11263410747051239,0.13667252659797668,-0.04624451696872711,0.07125832885503769,-0.18917140364646912,-0.05843271315097809,-0.016163313761353493,-0.10481161624193192,-0.030681904405355453,-0.10269345343112946,-0.02076062373816967,0.17330244183540344,-0.18041519820690155,-0.17982958257198334,-0.030783135443925858,-0.06358587741851807,-0.20520853996276855,-0.04237036034464836,0.08813498914241791,-0.03408370539546013,0.0435202457010746,0.045934341847896576,-0.007192699704319239,-0.15319634974002838,-0.2257089763879776,0.03347070515155792,-0.06023980304598808,0.23034724593162537,-0.01782895252108574,0.17847788333892822,0.1887972205877304,0.13907532393932343,0.05272813141345978,0.1712166666984558,0.11116000264883041,-0.04023724049329758,0.1637844443321228,0.06803692877292633,-0.3358098566532135,-0.030415154993534088,-0.09804428368806839,0.06345491856336594,-0.07140739262104034],[-0.015161644667387009,-0.060750629752874374,-0.03210869058966637,0.03322187066078186,0.24648214876651764,-0.00703405449166894,0.01349898986518383,-0.0164253581315279,0.04875585436820984,0.059374816715717316,0.10802370309829712,-0.0158500038087368,0.2445070743560791,0.0923515260219574,0.32084277272224426,-0.08298029750585556,0.09064958989620209,-0.14885908365249634,0.1351696252822876,0.20878536999225616,0.15096652507781982,-0.03151680901646614,-0.08198419958353043,0.09784945845603943,-0.006125003099441528,0.012197482399642467,0.33874478936195374,-0.03800185024738312,-0.2293100208044052,0.12260200828313828,0.014196597971022129,0.07016405463218689,-0.06129246950149536,0.09066007286310196,0.047409284859895706,0.18459346890449524,-0.16217200458049774,0.04130324348807335,-0.11080824583768845,0.1443987637758255,0.012166714295744896,-0.1082543283700943,-0.17084945738315582,-0.06631913036108017,0.12281431257724762,-0.09234307706356049,-0.07284996658563614,0.16736197471618652,-0.02775326557457447,0.2484198659658432,0.04079633206129074,-0.13751442730426788,0.11783335357904434,-0.1819864809513092,-0.1161835640668869,0.01476556621491909,0.09774415194988251,0.03398202732205391,-0.07337678223848343,-0.013340861536562443,0.13562017679214478,-0.0072562238201498985,0.0930311530828476,-0.09211106598377228],[-0.21374288201332092,0.065855972468853,0.09245314449071884,0.1925944983959198,0.05335710942745209,-0.015388389118015766,-0.09064333140850067,-0.001785032800398767,-0.06728605180978775,-0.043669939041137695,0.05715024843811989,-0.14985273778438568,-0.16548340022563934,0.18642044067382812,-0.0768115371465683,-0.1468242108821869,-0.34615278244018555,0.19501185417175293,0.08244634419679642,0.12039695680141449,0.075802281498909,-0.17883482575416565,-0.044602371752262115,0.0349917933344841,0.12868648767471313,-0.17018121480941772,0.07600592076778412,-0.0923030823469162,-0.044033441692590714,0.024091878905892372,0.24971257150173187,-0.17097648978233337,-0.11980251222848892,0.04923566058278084,0.09184325486421585,-0.03400362655520439,-0.033112142235040665,-0.0885348692536354,-0.047480400651693344,-0.2097935974597931,0.15072065591812134,0.09230030328035355,-0.18169955909252167,-0.21413634717464447,0.030573885887861252,-0.03335368260741234,-0.12486531585454941,-0.07095713913440704,-0.2609716057777405,-0.15275850892066956,-0.12908054888248444,-0.28884902596473694,0.14578336477279663,0.08681275695562363,-0.06888744235038757,0.07992003113031387,-0.13357555866241455,-0.0855281800031662,-0.11803082376718521,0.10966596007347107,-0.09198060631752014,0.23962752521038055,-0.038173988461494446,-0.17680348455905914],[-0.010119800455868244,-0.023791426792740822,-0.19900867342948914,-0.14067396521568298,-0.15763598680496216,0.11472990363836288,-0.18212299048900604,0.048302289098501205,-0.09426432102918625,-0.11756230145692825,0.13448543846607208,-0.13043971359729767,-0.05954423174262047,-0.02805992029607296,-0.09071358293294907,-0.1265072226524353,-0.05972438305616379,-0.14058054983615875,-0.10235346108675003,0.07335357367992401,0.052746959030628204,-0.030544372275471687,-0.07823558896780014,-0.2852010130882263,-0.18509890139102936,-0.031697288155555725,0.038763441145420074,0.07369145005941391,0.049037057906389236,0.01582915708422661,-0.3989439010620117,-0.15872374176979065,-0.14557042717933655,-0.04033884033560753,-0.07073267549276352,0.13903281092643738,-0.06352360546588898,-0.18939146399497986,-0.2008691132068634,-0.005276442971080542,0.03929801657795906,0.12259365618228912,0.018250199034810066,-0.04829230159521103,3.985466173617169e-05,0.12544438242912292,-0.06947118043899536,-0.04021621122956276,0.11108174920082092,0.055194295942783356,0.17624753713607788,0.14888007938861847,-0.07431215047836304,-0.1468134969472885,0.04542861878871918,0.07321161031723022,0.3174065351486206,-0.13865680992603302,0.006308155134320259,-0.01292598620057106,-0.18740354478359222,-0.061487652361392975,-0.12305673211812973,0.0534362718462944],[-0.11323349922895432,-0.08614274114370346,0.003193473443388939,-0.05810890346765518,-0.20371444523334503,-0.3267272710800171,0.05002005025744438,0.0578579306602478,0.11578598618507385,-0.009265673346817493,-0.08400554209947586,-0.011135974898934364,-0.002254665829241276,-0.01751992292702198,0.00989911612123251,0.1220984011888504,-0.13212192058563232,-0.19445554912090302,-0.17772284150123596,0.10937996208667755,0.050167035311460495,-0.03488308563828468,-0.0004106396809220314,-0.06818794459104538,-0.1898706704378128,-0.029554909095168114,0.07181885093450546,-0.04003453999757767,0.17198927700519562,-0.17809581756591797,0.054058805108070374,0.28367531299591064,0.051947031170129776,0.37640154361724854,0.020831121131777763,-0.13040493428707123,-0.010831191204488277,-0.05167059600353241,-0.016864076256752014,0.17637673020362854,0.0154270613566041,0.20328354835510254,-0.09977943450212479,-0.006599141750484705,-0.0806688591837883,0.002625769004225731,-0.13632287085056305,0.045189931988716125,-0.21649426221847534,0.014271623454988003,0.14416241645812988,-0.06301261484622955,0.05475684255361557,-0.009715785272419453,-0.016458267346024513,0.2932162880897522,-0.07476035505533218,0.004829123616218567,-0.02829471230506897,0.04054241254925728,0.1762169748544693,0.3158493638038635,-0.03687635064125061,0.14583450555801392],[0.04883961379528046,0.06430471688508987,-0.04079389572143555,0.12333853542804718,-0.22235515713691711,-0.16298562288284302,0.17465858161449432,-0.15372878313064575,0.05054296925663948,0.10304604470729828,-0.02422916516661644,0.04931141808629036,0.04453050345182419,0.018698595464229584,0.05932268500328064,0.002360390033572912,-0.14029262959957123,0.05385433882474899,-0.22104571759700775,-0.00032976854708977044,0.04086934030056,-0.23632700741291046,0.12598972022533417,-0.04684990644454956,0.03179683908820152,0.08259422332048416,0.23726148903369904,0.1574956476688385,-0.039701420813798904,-0.21938250958919525,0.14723391830921173,-0.2319968193769455,-0.016924625262618065,-0.11923635751008987,-0.017916738986968994,-0.1676211953163147,0.15194815397262573,0.12537750601768494,0.02885441482067108,0.04423588886857033,0.0043413364328444,-0.1125800609588623,-0.0434064045548439,0.0398663654923439,-0.2419501543045044,0.13989290595054626,0.0296016838401556,